tree
version=v4
num_class=1
num_tree_per_iteration=1
label_index=0
max_feature_idx=186
objective=binary sigmoid:1
feature_names=avg_balance num_chequebooks monthly_avg_balance quarterly_avg_balance daily_avg_balance loan_sum loan_count cc_sum cc_count od_sum od_count ka_sum ka_count sa_sum sa_count branch_employee_count branch_turnover branch_asset_size account_age_days is_frozen product_family_S product_family_K product_family_O balance_monthly_daily_diff balance_monthly_daily_ratio nomination_flag_num cheque_allowed_num cheque_availed_num kyc_compliant_num rural_branch_num pan_available_num aadhaar_available_num passport_available_num mobile_banking_flag_num internet_banking_flag_num atm_card_flag_num demat_flag_num credit_card_flag_num fastag_flag_num joint_account_flag_num nri_flag_num was_frozen was_unfrozen freeze_duration_days days_since_mobile_update mobile_updated_recently days_since_kyc customer_age_years relationship_duration_days kyc_doc_count digital_adoption_score pin_match_branch pin_match_permanent is_male days_since_address_update days_since_passbook_update branch_type_urban branch_type_semi_urban branch_type_rural total_product_count total_outstanding has_loans has_credit_cards scheme_APY scheme_PMJDY scheme_PMJJBY scheme_PMSBY scheme_REGULAR scheme_SCSS scheme_SSA txn_count txn_total_amount txn_total_abs_amount txn_min_amount txn_max_amount txn_max_abs_amount txn_structuring_count txn_round_1k_count txn_round_5k_count txn_round_10k_count txn_round_50k_count txn_month_boundary_count txn_night_txn_count txn_weekend_txn_count txn_unique_counterparties_part txn_unique_mcc_part txn_unique_channels_part txn_credit_count txn_credit_total txn_debit_count txn_debit_total txn_unique_credit_cp txn_unique_debit_cp txn_mean_amount txn_mean_abs_amount txn_std_amount txn_credit_debit_count_ratio txn_credit_debit_amount_ratio txn_active_span_days txn_per_day txn_structuring_pct txn_fan_ratio txn_round_1k_pct txn_round_5k_pct txn_round_10k_pct txn_round_50k_pct txn_month_boundary_pct txn_night_txn_pct txn_weekend_txn_pct ch_UPC ch_UPD ch_END ch_IPM ch_STD ch_P2A ch_FTD ch_NTD ch_MCR ch_FTC ch_MAC ch_TPD ch_APD ch_CHQ ch_ATW ch_TPC ch_STC ch_OCD ch_RCD ch_IFD ch_ETD ch_NWD ch_CSD ch_IFC ch_PCA ch_MAD ch_CHD ch_RTD ch_CCL ch_OPI ch_CTC ch_SID ch_ASD ch_IAD ch_SCW txn_dominant_channel_count txn_channel_concentration txn_active_channels txn_monthly_txn_std txn_monthly_txn_max txn_monthly_txn_min txn_monthly_txn_mean txn_monthly_txn_cv txn_active_months txn_monthly_amount_std txn_monthly_amount_max txn_monthly_amount_mean txn_burst_months txn_add_lat_min txn_add_lat_max txn_add_lon_min txn_add_lon_max txn_add_geo_txn_count txn_add_unique_ip_part txn_add_bal_after_min txn_add_bal_after_max txn_add_bal_after_sum txn_add_bal_after_count txn_add_ptt_CI_count txn_add_ptt_BI_count txn_add_ptt_IP_count txn_add_ptt_IC_count txn_add_subtype_NORMAL_count txn_add_subtype_LOAN_count txn_add_atm_deposit_count txn_add_geo_lat_spread txn_add_geo_lon_spread txn_add_geo_spread_km txn_add_bal_after_mean txn_add_bal_after_range txn_add_ci_ratio branch_mule_count branch_total_count branch_mule_rate_raw branch_mule_rate_smoothed dormant_ratio income_mismatch_ratio volume_balance_ratio
feature_infos=[-75945400.180000007:178611043.80000001] [0:3] [-82365133.659999996:179424791.74000001] [-88036218.930000007:206112189.27000001] [-101552329.90000001:135668365.05000001] [-24514495.07:-2869.96] [0:3] [-1963631.6299999999:1145506.1499999999] [0:2] [-3971761.2799999998:2264846.7400000002] [0:1] [-15272045.92:77624430.430000007] [0:2] [-19500859.949999999:20017487.100000001] [0:2] [1:49] [5:245.56] [10.210000000000001:499.95999999999998] [10:3650] [0:1] [0:1] [0:1] [0:1] [-22541707.68:62740284.899999999] [0.00043359017406965293:3347.8857859469172] [0:1] [0:1] [0:1] [0:1] [0:1] [0:1] [0:1] [0:1] [0:1] [0:1] [0:1] [0:1] [0:1] [0:1] [0:1] [0:1] [0:1] [0:1] [-888:1286] [1:179] [0:1] [5:1499] [18.496919917864478:80.492813141683783] [30:11138] [0:3] [0:6] [0:1] [0:1] [0:1] [30:3649] [1:1824] [0:1] [0:1] [0:1] [1:7] [-24539700.93:2264846.7400000002] [0:1] [0:1] [0:1] [0:1] [0:1] [0:1] [0:1] [0:1] [0:1] [5:11679] [42560.550000000003:446673739.81999999] [42560.550000000003:448026065.25999999] [-6980900:663.75] [25807.630000000001:206572200] [25807.630000000001:206572200] [0:81] [2:2230] [1:266] [0:99] [0:8] [2:4020] [1:654] [0:2290] [4:115] [4:85] [3:42] [3:5414] [11752.92:309077761.29000002] [2:6265] [30807.630000000001:269148730.25999999] [3:59] [2:70] [8512.1100000000006:113995.14883794467] [8512.1100000000006:113998.21598418972] [8844.1381525595825:4152348.6548482538] [0.62820512820512819:2.1132075471698113] [0.071555218861317479:3.6488557960810191] [0.26126157407407408:1823.3494560185186] [0.10013036895371941:156.06517570176476] [0:0.24409448818897639] [0.32692307692307693:1.5] [0.12727272727272726:0.40000000000000002] [0.0071942446043165471:0.20000000000000001] [0:0.07874015748031496] [0:0.047244094488188976] [0.057839912280701754:0.58181818181818179] [0.023622047244094488:0.20000000000000001] [0:0.31496062992125984] [0:5785] [0:5564] [0:402] [0:666] [0:249] [0:515] [0:213] [0:308] [0:201] [0:133] [0:190] [0:162] [0:132] [0:140] [0:122] [0:119] [0:109] [0:88] [0:200] [0:91] [0:132] [0:119] [0:103] [0:92] [0:82] [0:77] [0:60] [0:57] [0:49] [0:40] [0:38] [0:27] [0:22] [0:18] [0:14] [1:5785] [0.125:0.5] [1:35] [0.25819888974716115:1926.3148585904198] [1:15045] [0:211] [0.033333333333333333:251.06666666666666] [0.059735974655214255:7.8102496759066566] [1:61] [112.55209967381154:376052732.18010473] [879.06000000000006:2916409431.4299998] [14.410819672131149:53198021.245999999] [0:5] [0:34.034178370176939] [8.5737858129706339:34.133676923730285] [0:91.843816783917475] [70.852047793593897:93.917620658465836] [1:3032] [3:4028] [-100000000:1004541.9399999999] [-1073766.0700000001:100000000] [-267950681813.97:594257621741.19995] [5:11679] [5:11246] [0:408] [0:60] [0:60] [2:11492] [0:159] [0:46] [0.092914412355124654:31.683894184865988] [0.09293293007421255:91.943288444580801] [12.997160187364647:8316.840248785682] [-31346202.184673674:86283131.278191984] [927072.52000000002:103292746.14] [0.65454545454545454:1] [0:30] [1:109] [0:0.58139534883720934] [0.0023463402907030794:0.48837442733215591] [0:0.99962888980955389] [0.48370834637522803:821195.95934172312] [0.79770568864015068:3523965.3155856729]
tree_sizes=6668 6761 6716 6732 6738 6702 6744 6757 6742 6792 6776 6791 6827 6780 6822 6818 6811 6812 6838 6829 6856 6803 6836 6840 6834 6839 6852 6850 6822 6832 6837 6849 6842 6838 6844 6839 6866 6866 6841 6838 6873 6832 6865 6858 6849 6827 6864 6853 6864 6862 6816 6870 6841 6815 6851 6867 6871 6856 6847 6861 6828 6858 6865 6853 6871 6841 6856 6840 6844 6868 6883 6883 6871 6891 6875 6907 6880 6862 6889 6877 6873 6875 6879 6866 6900 6862 6864 6871 6860 6908 6897 6886 6854 6934 6891 6922 6937 6925 6912 6908 6874 6889 6881 6936 6966 6935 6907 6876 6942 6924 6855 6856 6919 6907 6909 6860 6931 6931 6935 6894 6877 6920 6928 6876 6892 6925 6898 6958 6944 6960 6938 6840 6929 6936 6905 6938 6867 6902 6925 6969 6896 6945 6886 6966 6967 6907 6893 6890 6868 6890 6900 6874 6914 6886 6943 6945 6905 6960 6952 6949 6936 6921 6930 6917 6929 6908 6970 6946 6994 6956 6980 6946 6896 6887 6892 6947 6943 6877 6995 6928 6968 6919 6955 6922 6907 6924 6902 6937 6935 6979 6934 6940 6959 6956 6924 6905 6857 6896 6879 6853 6955 6956 6914 6949 6879 6924 6974 6939 6958 6940 6955 6854 6895 6869 6895 6981 6937 6933 6962 6953 6958 6955 6964 6952 6906 6963 6948 6940 6933 6924 6917 6975 6940 6956 6941 6948 6926 6951 6937 6962 6942 6959 6941 6940 6941 6934 6959 6909 6932 6882 6951 6912 6883 6914 6951 6920 6955 6971 6964 6953 6956 6920 6928 6949 6938 6920 6939 6942 6946 6909 6947 6961 6925 6890 6969 6932

Tree=0
num_leaves=63
num_cat=0
split_feature=183 46 19 42 156 183 120 151 0 147 18 181 18 183 18 116 115 127 144 123 155 113 120 127 0 0 15 155 127 16 180 147 134 136 15 116 127 121 114 112 121 116 109 17 134 155 16 134 133 15 17 114 147 149 155 7 0 147 17 183 18 117
split_gain=600558 110460 93061.2 53582.6 12521.2 3621.76 3251.69 1915.61 1697.48 1243.18 1074.82 1042.57 981.523 901.234 653.338 760.259 638.069 597.197 529.251 1079.98 480.606 430.566 392.419 442.561 483.732 394.455 370.704 366.217 390.504 350.179 312.346 297.176 286.893 415.738 319.951 323.839 437.849 291.15 385.555 433.151 740.42 388.354 292.53 281.394 277.217 273.934 256.255 254.566 613.478 247.181 234.044 231.505 216.874 278.466 338.36 213.498 209.744 209.214 208.652 207.777 206.601 194.552
threshold=0.032544695754207757 44.500000000000007 1.0000000180025095e-35 1.0000000180025095e-35 1.0000000180025095e-35 0.079272254586977384 13.500000000000002 0.19840722354702173 19909.760000000006 9.0757561814422498 81.500000000000014 11.500000000000002 1702.5000000000002 0.05953054466182648 589.50000000000011 24.500000000000004 23.500000000000004 21.500000000000004 511.50000000000006 12.500000000000002 5996289.1880833348 79.500000000000014 32.500000000000007 28.500000000000004 -19130.834999999995 -1.0000000180025095e-35 36.500000000000007 859814.63733333338 29.500000000000004 20.805000000000003 1.5000000000000002 9.9685593312570138 1.5000000000000002 1.5000000000000002 44.500000000000007 25.500000000000004 21.500000000000004 7.5000000000000009 59.500000000000007 201.50000000000003 41.500000000000007 33.500000000000007 722.50000000000011 444.03500000000003 20.500000000000004 407728.17950000014 7.8750000000000009 5.5000000000000009 10.500000000000002 18.500000000000004 412.79000000000008 57.500000000000007 23.24422958544455 4.5000000000000009 318052.74883333332 128558.08000000002 1195.0350000000003 3.5909097100283716 465.93500000000006 0.065643901696253962 898.50000000000011 18.500000000000004
decision_type=2 2 2 2 10 2 2 10 10 10 2 2 2 2 2 2 2 2 2 2 8 2 2 2 8 10 2 10 2 2 2 10 2 2 2 2 2 2 2 2 2 2 2 2 2 10 2 2 2 2 2 2 10 8 10 8 10 10 2 2 2 2
left_child=30 -2 3 4 5 13 9 -4 11 59 -8 21 27 31 15 -11 18 29 19 26 22 55 23 24 -19 -25 50 45 -29 46 -1 57 33 -33 37 -36 -37 -34 41 -40 44 43 -43 51 -41 -10 -18 -13 61 -27 52 -39 53 54 60 -7 -12 -3 -20 -6 -15 -49
right_child=1 2 7 -5 6 8 10 -9 12 14 56 47 -14 16 -16 -17 17 20 58 -21 -22 -23 -24 25 -26 49 -28 28 -30 -31 -32 32 34 -35 35 36 -38 38 39 40 -42 42 -44 -45 -46 -47 -48 48 -50 -51 -52 -53 -54 -55 -56 -57 -58 -59 -60 -61 -62 -63
leaf_value=-3.7577530138695128 -1.6384198838034889 -3.3020090270081068 -2.3905446713041574 -1.8031977187121986 -3.579959346078776 -3.5398477339799621 -2.6257303864738804 -1.6928747829465971 -2.7352873494680847 -3.1209629150543052 -3.2891599051622196 -3.7507911819952526 -3.7387958631159472 -3.745576157474479 -1.755690540897914 -2.146986788874389 -2.8192871408706512 -2.9095167222159057 -3.7058531078578865 -2.5510084236128341 -2.695235881905969 -3.6007863632818768 -3.529820540431162 -3.7394138987395631 -3.6992825968872798 -3.3997697510416005 -3.7514278241082621 -2.1577675002839647 -2.9861146127064444 -2.5178058356275006 -3.3881325528848798 -3.741054217589705 -3.723997319226056 -2.9587222744574158 -3.7424334123948895 -2.7721541582250335 -3.495293875988664 -3.6200065468190648 -3.6525237074584065 -2.8006899837966062 -3.6920203483136995 -2.7955538307559946 -3.5759409353616287 -3.1154310371980785 -3.5702927750907274 -3.4286054495563159 -3.4880743080967309 -3.5745609376620759 -3.7503068324442688 -2.8817090368927634 -3.7442183711550725 -3.0895091857671426 -3.6405284242588523 -3.7394138987395631 -2.9283697341441863 -2.7968405422543263 -3.7490897993068772 -3.7139339808801566 -3.2798375786708731 -2.8712913029811897 -3.1744729884876812 -2.9293152615713378
leaf_weight=918.76428120583296 661.31081894785166 2.5331763885915306 18.372124026529491 79.396576648112386 2.1851380802691009 1.6005104854702947 4.7256131931208065 215.46717728907242 3.2975828275084558 5.6248570196330565 3.5490592792630178 6.4075184389948872 1.8708083033561695 3.39084004983307 15.185587249696253 5.7244403474032879 1.8288850262761096 1.5145552493631838 19.757674455642704 3.0740552172064772 2.4809296838939181 2.6060699485242358 19.759783137589693 1.9643487185239816 8.6160416230559367 4.9521655067801502 7.0856864489614955 9.0314338430762273 5.1440932676196089 4.2275104820728302 4.7650846764445296 2.2449699640274039 15.81865359097719 4.9336273334920406 2.5255912095308295 3.8111423514783365 5.1289229094982147 18.198457680642615 43.823054939508438 4.4996337890624982 7.5637119524180889 3.928067870438098 2.1149827688932419 3.9438677951693526 2.0214423537254333 3.8895124085247517 4.9652271829545498 2.091597665101288 5.963201466947794 11.558567319065331 2.96990818157792 1.4106914065778244 3.8220953457057467 1.9643487185239799 7.8616122379899025 13.526850238442423 5.0511824190616608 23.756527204066515 2.3694806620478621 2.1908977702260017 1.7614679634571073 4.7231613993644714
leaf_count=39279 1060 80 276 358 84 59 84 549 60 165 114 274 80 145 22 38 31 27 826 41 40 102 760 84 359 174 303 85 135 62 166 96 667 126 108 78 191 731 1789 98 314 83 81 112 77 138 184 80 255 296 127 32 154 84 204 322 216 997 73 41 47 117
internal_value=-2.77391 -2.09944 -2.54897 -2.97376 -3.2304 -3.34048 -2.44939 -1.74183 -2.99212 -2.16998 -3.15992 -3.22479 -2.65776 -3.42221 -2.03763 -2.54274 -3.31744 -3.2068 -3.45095 -3.32364 -3.29429 -2.95702 -3.34499 -3.22779 -3.51971 -3.08583 -3.44208 -2.56568 -2.39071 -2.8715 -3.7555 -3.50623 -3.47355 -3.17822 -3.49647 -3.2521 -3.12347 -3.52774 -3.49241 -3.57148 -3.34001 -3.34735 -3.01056 -3.45882 -2.98867 -3.03003 -3.21659 -3.49745 -3.37611 -3.01038 -3.34365 -3.55348 -3.28144 -3.20003 -3.12177 -2.85989 -3.53604 -3.66103 -3.64351 -3.13475 -3.49629 -3.08441
internal_weight=2266.65 1343.12 681.807 447.967 368.571 324.334 44.2368 233.839 60.1523 30.9109 13.3259 36.9189 23.2334 264.182 26.5349 11.3493 115.925 61.868 54.0572 31.93 50.8464 17.7334 48.3655 28.6057 10.1306 18.4751 28.856 21.3626 14.1755 11.0216 923.529 148.257 121.967 7.1786 114.788 11.4657 8.94007 103.323 87.5039 57.9078 14.0848 29.5961 6.04305 23.553 6.52108 7.1871 6.79411 19.1855 12.778 16.5107 21.7703 19.6091 18.8004 14.9783 13.0139 15.1274 8.60024 26.2897 22.1272 4.37604 5.15231 6.81476
internal_count=53840 14395 13335 12510 12152 11388 764 825 1707 350 414 1209 498 9681 225 203 4021 2017 2004 1105 1740 483 1700 940 386 554 1064 418 220 277 39445 5660 4583 222 4361 377 269 3984 3317 2278 489 1039 164 875 175 198 215 726 452 470 761 763 634 480 396 381 330 1077 899 125 192 197
is_linear=0
shrinkage=1


Tree=1
num_leaves=63
num_cat=0
split_feature=182 149 182 18 182 41 182 43 153 125 18 153 152 151 137 147 117 123 152 151 147 147 153 152 151 153 147 152 147 155 151 153 153 153 153 151 153 155 134 147 17 127 151 135 151 147 147 182 151 147 151 147 153 153 153 127 147 151 151 151 155 155
split_gain=38579.5 464.837 200.611 178.664 172.997 415.065 264.585 172.504 149.444 230.116 181.844 145.36 136.628 231.901 114.332 167.076 85.2402 77.7495 67.4509 99.5466 82.9966 68.5379 132.935 60.0351 99.7602 117.434 105.113 56.0513 55.2808 123.705 53.7807 70.5196 150.245 51.1656 64.1426 49.5663 171.775 49.2517 48.5064 35.9711 35.7712 35.4571 61.5078 30.2611 28.7172 28.6629 44.9812 25.2613 18.7853 22.9263 17.4754 18.2478 17.464 117.746 29.9745 14.8154 26.8153 13.3277 45.3781 5.27942 3.59264 29.9077
threshold=0.0095713500641143087 1.5000000000000002 0.069047619047619066 105.50000000000001 0.093073593073593086 1.0000000180025095e-35 0.044466403162055343 23.500000000000004 1690315.0704269621 11.500000000000002 2074.5000000000005 9320182.7569677625 8.5000000000000018 2.6372084826363955 2.5000000000000004 3.3931781912840724 16.500000000000004 19.500000000000004 58.500000000000007 2.8330592108636514 18.75158372817074 11.703203460038461 2331901.4682179694 24.500000000000004 1.3672768515180735 1385425.0157266606 283.20558231348667 19.500000000000004 40.448931735458139 840460.93108469958 1.2272222933068841 1106544.0722802805 719969.99913162354 2859129.1468529557 2147736.6651464081 2.148412185212162 2248551.2192422175 2487804.7465000008 20.500000000000004 20.461922056214764 188.43000000000004 9.5000000000000018 1.2272222933068841 7.5000000000000009 1.2475739184292476 116.11955350347772 156.94498957074316 0.080128205128205135 0.51330500440125404 9.0757561814422498 1.1434214312976672 15.415172471639108 1037340.3068915365 1494495.9767589502 902539.51151375088 18.500000000000004 38.916112880391033 1.0659355435431899 0.88578288081451018 1.2961849864058137 369848.61650000006 147718.37616666671
decision_type=2 10 2 2 2 2 2 8 10 2 2 8 10 10 2 8 2 2 10 10 10 10 8 10 10 10 8 10 10 10 10 10 10 10 10 10 8 10 2 10 2 2 8 2 10 10 10 2 10 10 10 10 10 10 10 2 10 10 10 10 10 8
left_child=-1 3 7 11 5 6 -5 -3 9 10 -4 -2 13 -7 15 -12 -10 43 19 20 21 48 41 24 25 59 44 28 -26 -30 31 32 -25 34 52 36 -31 -35 -19 -34 -16 42 50 -18 -27 57 -47 -42 49 -8 51 -23 54 -54 -29 56 -46 58 -33 -22 61 -50
right_child=1 2 8 4 -6 12 18 -9 16 -11 14 -13 -14 -15 40 -17 17 38 -20 -21 23 22 -24 30 27 26 -28 33 29 35 -32 45 39 37 -36 -37 -38 -39 -40 -41 47 -43 -44 -45 55 46 -48 -49 60 -51 -52 -53 53 -55 -56 -57 -58 -59 -60 -61 -62 -63
leaf_value=-0.051102615230477669 0.31609993939700209 0.24977936455860728 -0.044244819564557378 -0.044547839923872116 0.31128596236704476 0.092832066180991268 -0.032717970878332704 -0.048142327139364748 0.49909521065124757 -0.047128302115824985 0.35437073089573756 0.38416113485222403 0.30772748690499618 0.2815589860728353 0.16430787044146564 -0.045365073315203286 -0.036614494973788485 0.30316073177561842 0.31386374099497982 0.30690529674332512 0.26145333374014512 -0.031181310070028296 0.35550107089871674 0.25823478196317301 0.26301721815413298 0.15490238854825411 0.2498145932725295 0.19811622314081326 -0.044527719782524386 0.27234455240521394 0.3399920939202023 0.24134736517821689 0.16531621048328005 0.42323452824722207 0.046894465383714432 0.25854515868157912 -0.045418147565938927 0.19213392402774854 0.14039975020029868 -0.045380099190770823 0.19289519775576888 -0.045235467510848705 -0.04263554696806416 0.15798417153949162 -0.037627912293990456 -0.036510582938053454 0.22171303866532754 0.38105801897789343 0.23377805210922864 0.18194342220269677 0.27521207409823745 0.15999600641295228 -0.040370927059274746 0.25977689861406933 0.39388955780524154 -0.047374122385863589 0.17265305582192075 0.24095108410419749 0.3411940191834093 0.13337705224176424 0.30438522042325911 0.05831322526112203
leaf_weight=873.99846985936165 330.27885692752898 6.4948783814907074 5.5886230301111928 7.0832811240106812 3235.9772273916751 22.589534901082516 1.961951883509758 13.058664442971351 4.7625979818403712 9.8612219225615245 2.9693121127784226 150.18254332989454 1634.2865663915873 73.686718419194221 7.0839270055294064 7.0573869068175563 2.6950241327285758 46.349930115044117 62.139720970764756 76.243580978363752 13.34573611058295 1.7588336840271996 2.9567116107791653 13.519027961418034 23.648924194276333 1.7558454610407412 4.8002077825367442 8.0735577438026649 6.1615253612399092 7.6180223617702731 30.168347304686904 41.120047368109226 1.6191819440573434 12.568036172538998 4.6100857499986878 15.151941401883958 7.8701842110604057 6.1718030348420134 8.0973636563867313 7.9326013438403606 6.1378291267901686 7.6611833013594142 4.5904932692646989 4.1405994761735201 3.0313636641949442 2.4679222721606484 2.9450717885047197 15.449894733726977 11.082969201728702 1.4352916609495876 2.3367763385176659 1.684874380007386 3.7591371629387167 15.062704022973774 7.6085897590965024 11.937551617622374 1.5315284449607132 79.166925009340048 37.684170329943299 4.8833806142210952 6.8418585173785678 4.1739575378596792
leaf_count=39221 224 6 168 252 4989 170 75 478 76 334 56 86 646 65 75 236 94 229 136 155 101 61 52 112 249 59 2 94 192 77 111 393 41 151 99 132 276 52 119 277 43 273 145 77 107 76 37 130 57 44 64 43 127 123 45 433 35 823 411 135 46 145
internal_value=0.259698 0.303834 0.21035 0.305969 0.303115 0.291481 0.252774 0.0579097 0.234426 0.167026 0.214809 0.338139 0.304032 0.238738 0.252518 0.0939614 0.286296 0.26193 0.256609 0.248854 0.237672 0.166535 0.0924711 0.245984 0.217702 0.14411 0.0643628 0.241918 0.199907 0.153335 0.265701 0.251904 0.15691 0.281588 0.235382 0.193432 0.117612 0.360966 0.282014 0.00214475 0.302763 0.0326668 0.0895712 0.085742 0.00490054 0.264251 0.115868 0.338689 0.221526 0.0775887 0.186103 0.0761853 0.258395 0.200566 0.311318 -0.018715 0.0504026 0.268544 0.292834 0.236124 0.23912 0.192622
internal_weight=7028.91 6154.91 139.747 6015.17 5534.7 2298.73 568.165 19.5535 120.194 54.1482 44.287 480.461 1730.56 96.2763 38.6983 10.0267 66.0455 61.2829 561.082 498.942 422.698 46.4849 20.9889 376.213 159.59 41.2856 23.0565 118.305 60.4506 36.8017 216.623 186.455 23.0708 57.8539 39.1141 30.6401 15.4882 18.7398 54.4473 9.55178 28.6717 18.0322 10.371 6.83562 18.2563 163.384 5.41299 21.5877 25.496 3.39724 5.78048 3.44371 34.504 18.8218 15.6821 16.5004 4.56289 157.971 78.8042 18.2291 22.0988 15.2569
internal_count=53840 14619 2121 12498 12188 7199 6318 484 1637 1042 708 310 881 235 540 292 595 519 6066 5930 5775 1005 638 4770 2489 872 636 1617 926 677 2281 2170 430 691 488 485 353 203 348 318 248 586 313 171 634 1740 113 173 367 119 168 104 389 250 139 575 142 1627 804 236 248 202
is_linear=0
shrinkage=0.05


Tree=2
num_leaves=63
num_cat=0
split_feature=180 149 15 181 24 24 41 183 183 151 136 120 111 148 0 0 109 54 113 18 54 151 0 18 136 113 0 46 0 55 144 55 136 120 148 44 111 0 55 54 54 55 18 55 152 151 148 148 54 54 54 0 148 109 148 144 55 148 54 54 24 0
split_gain=24502.9 249.351 227.987 195.673 149.082 170.125 105.3 270.123 178.456 113.742 82.4335 68.3393 94.7649 70.7367 122.076 67.7797 142.291 95.9859 78.2186 63.517 102.513 63.0971 63.051 97.5729 59.4316 98.194 48.1744 89.9258 46.9435 71.2418 51.495 42.9588 90.1353 47.3076 72.9449 41.4857 44.3805 37.8254 42.0271 36.6249 52.0487 35.328 74.1556 65.8506 127.452 149.726 76.759 129.585 104.009 64.9131 65.7969 62.2632 63.0927 59.7815 72.8039 53.9944 53.6929 82.8501 44.6303 40.6181 33.3164 30.7694
threshold=1.0000000180025095e-35 1.5000000000000002 26.500000000000004 15.500000000000002 2.0302668973230786 0.69842098660522178 1.0000000180025095e-35 0.039369764274899778 0.062437850331357535 1.9582649731342567 4.5000000000000009 8.5000000000000018 21.500000000000004 46.500000000000007 804.31000000000006 -31620.759999999998 526.50000000000011 697.50000000000011 40.500000000000007 2074.5000000000005 3349.5000000000005 0.27823994096669308 -76643.209999999977 898.50000000000011 2.5000000000000004 7.5000000000000009 21537.310000000001 32.500000000000007 55627.585000000006 421.50000000000006 804.50000000000011 524.50000000000011 4.5000000000000009 13.500000000000002 2582.0000000000005 22.500000000000004 73.500000000000014 112.79000000000001 1429.5000000000002 2919.5000000000005 3073.5000000000005 1504.5000000000002 589.50000000000011 855.50000000000011 57.500000000000007 0.73975446733972927 119.50000000000001 155.50000000000003 1641.5000000000002 2319.5000000000005 3255.5000000000005 72393.390000000014 2582.0000000000005 637.50000000000011 112.50000000000001 741.50000000000011 1238.5000000000002 117.50000000000001 267.50000000000006 515.50000000000011 1.2697227526864689 190.90500000000003
decision_type=2 10 2 2 10 8 2 2 2 10 2 2 2 10 10 10 2 2 2 2 2 10 10 2 2 2 8 2 8 8 2 10 2 2 10 10 2 10 8 2 2 10 2 8 10 10 10 10 2 2 2 10 10 2 10 2 8 10 2 2 10 8
left_child=-1 6 3 19 5 -4 7 -2 11 10 21 13 61 14 -9 16 -14 -18 24 20 -3 -10 23 -12 25 -17 -21 -28 29 -23 -30 32 -26 -34 -35 -24 -37 38 -31 -7 -41 43 -43 51 45 -45 56 -48 59 -50 -51 53 -53 54 -20 -55 57 -47 -57 -49 -29 -13
right_child=1 2 4 -5 -6 39 -8 8 9 -11 22 12 15 -15 -16 18 17 -19 41 26 -22 28 35 -25 31 -27 27 60 30 37 -32 -33 33 34 -36 36 -38 -39 -40 40 -42 42 -44 44 -46 46 47 48 49 50 -52 52 -54 55 -56 58 -58 -59 -60 -61 -62 -63
leaf_value=-0.051041144988905718 -0.045654260881231756 -0.044654890664975307 0.21569287643279883 -0.045073172050620905 0.36921771545238358 -0.050396236513064241 0.24036814694869946 -0.043363918637098903 0.36977910394351787 0.26879358482326104 -0.044789327316183368 0.15469305363671038 0.33940437124532746 0.24971717671939331 0.19951327401040309 0.20183826038516473 0.15719908639466948 -0.047931621910512173 -0.041559004907753119 0.25449100793790647 0.22121915610091866 0.14029212893455961 0.20342647755281981 0.18433520469525908 -0.045089235761482958 -0.046865145032844176 0.23434201257264464 -0.045278554238996023 0.25096896644465649 0.20709498716069069 0.35702292144927411 0.20230751117258447 0.23760659821751406 -0.044529033428245483 0.18955147991314106 0.21097882035163257 0.32072555751123105 0.2212676795102686 0.32259649421289233 0.19180063348991913 -0.041965491621743845 0.41230879378085517 0.2258358812279905 -0.04625552723378154 0.24739624969885121 -0.043983484638011591 -0.046682154579721045 0.12276830164360193 0.24483506485560824 -0.042547980562985116 0.17201576445178704 -0.041318373367456064 0.19241736573030055 0.35366089643549331 0.21286149267648302 0.3500148733500964 0.22370329087412749 0.21161536007448159 0.21876372229566188 -0.046000332630155245 0.162817628708158 -0.044286850594567988
leaf_weight=829.86403226852417 8.8296578489243966 5.9291237406432611 9.3345515504479391 6.9167691953480235 2.8183686193078747 22.713469332084063 5519.1789007578045 5.5990232340991488 12.539915464818476 293.38634904660285 6.3301881179213551 1.7438131868839253 4.441062260419133 159.46448817290366 36.258515182882547 5.7828493118286124 9.6945528574287909 11.417814116924999 4.4010667130351049 81.145453972741961 7.2249278444796801 27.93526997230947 280.92588941566646 13.364325396716593 6.2590677030384567 8.8152655418962222 10.932302474975588 6.0236684177070847 113.58175944536924 22.630410268902779 20.503664385527372 51.013327555730939 10.323930244892837 5.6348590143024904 6.0928222835063934 36.918101692572236 23.466203210875392 210.56564657017589 32.438062926754355 3.4141099695116273 4.4923643190413713 7.3145018555223933 54.560274571180344 8.3986937142908555 54.756177132949233 5.5326298680156452 9.2397687956690771 5.1334414202719909 23.173235464841127 4.9823179226368657 9.0295323021709901 4.3512736856937391 6.010653018951416 14.793556913733481 5.5314526557922363 9.7837940622121078 56.920501144602895 5.56236850656569 100.47086954675615 7.5894651301205158 1.6498618964105842 5.6732200682163239
leaf_count=39104 348 180 90 246 27 693 1872 192 26 434 154 35 74 581 374 1 81 332 131 484 19 208 1681 45 169 251 2 163 319 114 48 352 64 142 2 127 110 811 123 41 146 61 351 251 54 153 285 81 128 154 81 135 1 103 1 41 393 2 748 218 43 160
internal_value=0.206721 0.235204 0.171357 0.206653 0.0699056 0.0401704 0.236592 0.225072 0.226412 0.239771 0.228816 0.205955 0.194993 0.233381 0.166655 0.197536 0.110445 0.0488852 0.201821 0.222378 0.106337 0.244843 0.208637 0.111843 0.156382 0.0579586 0.236423 0.148408 0.240313 0.225983 0.269746 0.173485 0.116249 0.16223 0.0820268 0.213865 0.25824 0.234416 0.27976 -0.018309 0.0686174 0.212124 0.254166 0.203628 0.181303 0.152954 0.166408 0.12077 0.152177 0.193509 0.0976363 0.231388 0.098827 0.240725 0.106182 0.250445 0.203699 0.0906466 0.233497 0.0257142 0.0125004 0.0147217
internal_weight=8340.8 7510.94 162.595 119.822 42.7729 39.9545 7348.34 1829.17 1820.34 1094.59 801.199 725.75 524.428 201.322 41.8575 517.011 25.5534 21.1124 491.458 112.905 13.1541 440.195 361.005 19.6945 93.9221 14.5981 99.7513 18.6058 427.655 293.569 134.085 79.324 28.3107 22.0516 11.7277 341.31 60.3843 265.634 55.0685 30.6199 7.90647 397.536 61.8748 335.661 190.318 135.562 127.163 59.1478 49.908 37.1851 14.0119 145.343 10.3619 134.981 9.93252 125.048 68.0155 11.095 110.255 12.7229 7.67353 7.41703
internal_count=53840 14736 2134 1137 997 970 12602 10730 10382 4200 3766 6182 5035 1147 566 4840 487 413 4353 891 199 1649 2117 199 981 252 692 208 1623 1256 367 729 377 208 144 1918 237 1048 237 880 187 3372 412 2960 1800 1746 1495 947 662 363 235 1160 136 1024 132 892 548 155 789 299 206 195
is_linear=0
shrinkage=0.05


Tree=3
num_leaves=63
num_cat=0
split_feature=180 41 46 151 145 123 153 46 181 46 123 138 117 130 121 120 44 125 17 110 123 134 46 123 136 133 181 18 130 112 153 123 133 46 7 116 134 44 23 17 116 0 155 46 46 180 17 145 114 155 181 147 120 120 137 17 137 120 136 116 2 23
split_gain=17476.1 176.081 256.643 488.827 394.185 205.177 196.137 194.573 171.654 348.708 212.92 231.538 165.806 165.818 139.264 309.704 219.711 166.418 148.401 174.45 194.142 196.687 148.619 135.886 154.84 133.502 114.818 114.613 113.704 198.815 108.959 110.48 129.76 186.417 125.234 109.583 153.846 118.154 108.817 101.974 99.2411 98.2681 97.8308 92.4887 121.467 90.3392 112.535 173.519 107.837 88.8464 114.612 88.2891 143.439 116.542 87.0998 78.1591 77.5539 99.2942 76.1281 75.1939 71.8687 70.818
threshold=1.0000000180025095e-35 1.0000000180025095e-35 44.500000000000007 1.9582649731342567 0.26199864856520011 10.500000000000002 7232190.8529499508 184.50000000000003 9.5000000000000018 451.50000000000006 8.5000000000000018 4.5000000000000009 5.5000000000000009 5.5000000000000009 18.500000000000004 14.500000000000002 163.50000000000003 12.500000000000002 109.59000000000002 757.50000000000011 13.500000000000002 7.5000000000000009 277.50000000000006 24.500000000000004 18.500000000000004 2.5000000000000004 11.500000000000002 2640.5000000000005 5.5000000000000009 60.500000000000007 4417796.8077450404 27.500000000000004 17.500000000000004 1001.5000000000001 -62371.07499999999 103.50000000000001 19.500000000000004 90.500000000000014 155.87500000000003 87.965000000000018 32.500000000000007 12846.535000000002 2109446.0463333339 995.50000000000011 1302.5000000000002 1.5000000000000002 383.79500000000002 0.26602229622921741 141.50000000000003 535128.67725000007 14.500000000000002 14.544861089636859 8.5000000000000018 7.5000000000000009 12.500000000000002 397.78000000000003 5.5000000000000009 18.500000000000004 2.5000000000000004 20.500000000000004 244186.75500000003 46124.275000000009
decision_type=2 2 2 10 2 2 10 2 2 2 2 2 2 2 2 2 10 2 2 2 2 2 2 2 2 2 2 2 2 2 10 2 2 2 8 2 2 10 8 2 2 10 8 2 2 2 2 2 2 10 2 10 2 2 2 2 2 2 2 2 10 10
left_child=-1 2 -2 4 5 12 7 39 9 -9 55 -12 -4 59 16 -16 18 26 -10 20 22 49 25 41 -25 -20 -17 28 29 51 31 34 33 38 -19 37 -37 -34 -33 -6 -28 -8 60 -13 -45 46 47 -5 -49 -22 58 -24 53 -53 -36 -11 -30 -58 -51 -14 -21 -15
right_child=1 -3 3 45 6 -7 23 8 14 10 11 43 13 61 15 17 -18 30 19 42 21 -23 27 24 -26 -27 40 -29 56 -31 -32 32 35 -35 54 36 -38 -39 -40 -41 -42 -43 -44 44 -46 -47 -48 48 -50 50 -52 52 -54 -55 -56 -57 57 -59 -60 -61 -62 -63
leaf_value=-0.050982669893352518 0.19614034377548184 0.19909696926763193 -0.044495487580816173 0.22332925571734449 0.20327909101045299 0.38685117735560082 -0.045004129024399452 -0.049763484510415186 -0.032846936722670972 -0.015435741324285943 0.27549361937739753 -0.0077013895882511833 0.20929222778880066 -0.045922129806258941 0.4169104874664683 0.34771962612437646 0.34096874155789691 0.25908235267119439 0.39324977784486209 -0.051107662814731482 0.42735432771719045 -0.043137179695565887 -0.047897225537211999 0.35871099632886466 0.078510185009030967 0.076021500408967102 0.30370410625355054 0.19256027033427559 -0.021971540690450896 0.36713899711527692 -0.019722341798796686 0.44251496721462058 -0.048701387366176019 -0.040010922977867153 0.0034280202845206743 0.39276798694949577 0.028419702900252593 0.28507263016786522 0.12557884077551584 -0.01320445993698958 0.0095829336901235174 0.19582447632293754 0.246280194371605 0.2595120489849736 -0.042235442610786794 0.26969883138609463 0.25797520927599765 0.038255718704527431 0.23338100464504313 0.23890716476797255 0.33149302468536807 0.087258122313141159 -0.046514789218231156 0.37344224757480848 0.26804410012183555 0.19155143837171973 -0.040758320165806064 0.29903377145172733 -0.044400887091495637 0.38269932620510327 0.14537531969017353 0.2075937908055433
leaf_weight=790.27478659152985 1355.7673673555255 6334.081456810236 6.2300884854048482 48.787483721971512 5.2874184213578692 19.604323072358966 6.5007834825664785 15.099569184705613 28.176556719467044 14.307419843971731 75.25428176112473 11.604164784774186 27.738373761996627 7.4049096442759019 9.0795297808945161 12.10919374227524 7.0569395646452895 5.8145690746605396 6.1054160613566619 34.223339939489961 7.7649592459201875 5.1729645207524291 11.97974246367812 20.994296228513125 7.2803784683346739 7.444289131090045 3.5205525625497094 14.446075158193706 51.865263214334846 5.3270205110311499 16.574390469118953 9.6212615109980106 13.876720115542417 3.5867000743746749 37.108041083440185 4.9451965708285552 6.044359540566802 2.2266300637274972 5.0994073040783414 39.462371204048395 8.1347521990537626 9.5615245364606363 2.6101289503276339 10.801754016429184 4.2613180372863999 82.958068819716573 51.697381820529699 33.302377935498953 8.2294441126286966 2.7101473622024042 7.2525131609290829 10.489818135276439 8.6488608904182893 5.2268664706498376 2.4013714715838423 5.5820741690695277 3.6174242235720149 3.5730771701782942 5.841466523706913 11.423433842137454 4.3759720884263507 3.1369768474251032
leaf_count=39104 357 1909 166 32 76 134 160 307 725 281 560 211 224 194 76 99 73 73 38 903 34 138 349 169 134 150 41 170 1306 70 412 93 351 91 930 26 157 25 88 881 210 86 9 110 86 164 191 538 81 23 76 199 230 53 34 74 82 29 143 51 36 18
internal_value=0.173961 0.194659 0.182114 0.160797 0.139111 0.246885 0.125147 0.116648 0.125391 0.173767 0.201696 0.230719 0.191807 0.221818 0.107254 0.146911 0.0829494 0.125153 0.0734397 0.0886276 0.112461 0.228556 0.0849386 0.226643 0.29188 0.23651 0.243444 0.0651816 0.0451509 0.107338 0.0969022 0.118246 0.17291 0.2736 0.06083 0.0973765 0.211875 0.0111269 0.348015 0.0161491 0.115797 0.101137 -0.0028322 0.098796 0.176522 0.224995 0.197144 0.159826 0.0816151 0.28772 0.197467 0.0603141 0.113506 0.199379 0.0258546 0.0488056 0.000129459 0.143374 0.0604729 0.268269 -0.0255976 0.040534
internal_weight=9380.69 8590.41 2256.33 900.562 675.587 75.5381 600.049 555.712 510.962 136.911 121.811 101.922 55.9338 49.7037 374.052 140.143 233.909 131.063 226.852 198.675 157.466 28.7421 128.724 44.337 28.2747 13.5497 23.7645 115.174 100.728 41.6723 107.299 90.7243 45.4003 18.3074 45.324 27.0929 10.9896 16.1034 14.7207 44.7498 11.6553 16.0623 41.2094 26.6672 15.0631 224.975 142.017 90.3193 41.5318 23.5691 15.8041 36.3453 24.3655 15.7167 39.5094 19.8895 59.0558 7.1905 8.55161 39.1618 38.5993 10.5419
internal_count=53840 14736 12827 12470 11464 787 10677 10128 9171 1629 1322 967 653 487 7542 2706 4836 2630 4763 4038 3090 414 2676 549 303 188 350 2488 2318 901 2280 1868 831 272 1037 559 183 376 181 957 251 246 948 407 196 1006 842 651 619 276 242 831 482 252 964 355 1417 111 166 275 939 212
is_linear=0
shrinkage=0.05


Tree=4
num_leaves=63
num_cat=0
split_feature=182 41 46 182 145 24 182 46 18 3 2 149 132 182 181 46 123 124 44 4 4 136 120 140 24 155 16 155 155 123 3 4 3 134 24 2 54 24 151 7 119 148 123 136 118 155 145 148 24 132 182 7 120 136 54 145 131 148 182 119 110 3
split_gain=13371.3 165.058 260.149 379.954 280.806 162.111 132.367 122.148 119.594 106.892 138.267 141.205 122.09 117.522 112.525 82.2918 82.1118 168.006 135.594 111.636 127.711 126.999 113.182 110.237 97.5787 96.4878 95.1745 87.9918 115.614 178.766 84.1182 186.13 78.5677 77.6029 128.332 128.971 128.247 106.874 75.9142 74.7836 73.7205 72.5478 136.057 72.3385 125.841 96.7196 71.8165 71.119 98.2733 71.0097 69.3534 65.8398 63.8002 62.5245 62.2089 62.1491 84.9463 74.3326 77.847 61.0524 204.187 58.7734
threshold=0.0095713500641143087 1.0000000180025095e-35 44.500000000000007 0.19375000000000003 0.26199864856520011 0.67643708378739353 0.051315789473684217 277.50000000000006 59.500000000000007 -4356.8599999999997 301.37500000000006 27.500000000000004 2.5000000000000004 0.12132352941176472 15.500000000000002 95.500000000000014 13.500000000000002 11.500000000000002 163.50000000000003 1764.075 2302.6500000000005 4.5000000000000009 8.5000000000000018 1.0000000180025095e-35 1.3090542602412236 954116.7196666667 12.475000000000003 5339443.7552500004 2872904.9757500002 41.500000000000007 5787.4550000000008 23794.645000000004 22538.670000000002 8.5000000000000018 1.1131515380051586 1955.9300000000001 2417.5000000000005 0.94523170366069065 1.1474908647680311 -15343.679999999998 14.500000000000002 25.500000000000004 7.5000000000000009 4.5000000000000009 18.500000000000004 2354852.6972500002 0.27578578616339383 62.500000000000007 0.85149994589384559 33.500000000000007 0.14835164835164838 -52449.504999999997 24.500000000000004 4.5000000000000009 966.50000000000011 0.27477765089821943 11.500000000000002 221.50000000000003 0.17914438502673799 20.500000000000004 415.50000000000006 -52926.409999999996
decision_type=2 2 2 2 2 8 2 2 2 2 8 10 2 2 2 2 2 2 8 2 2 2 2 2 8 8 2 10 10 2 2 2 2 2 8 10 2 8 10 10 2 10 2 2 2 10 2 10 8 2 2 10 2 2 2 2 2 10 2 2 2 2
left_child=-1 2 -2 4 41 39 -7 -5 -8 14 13 12 51 49 46 -14 18 30 -17 25 -21 22 24 -23 32 -20 40 28 29 33 -18 -32 -22 37 35 36 -35 38 -19 -6 -24 42 -4 -36 -45 55 47 54 -49 -11 -37 -12 -40 -15 -10 56 -46 58 -58 60 -25 -50
right_child=1 -3 3 7 5 6 8 -9 9 10 11 -13 15 53 -16 16 17 27 19 20 21 23 26 59 -26 -27 -28 -29 -30 -31 31 -33 -34 34 43 50 -38 -39 52 -41 -42 -43 -44 44 45 -47 -48 48 61 -51 -52 -53 -54 -55 -56 -57 57 -59 -60 -61 -62 -63
leaf_value=-0.050927816842163964 0.1697066391164927 0.17172453582948766 -0.046903335126379286 0.061410473261164722 -0.010620635100708067 -0.047340307325150321 0.21865288773215497 0.22560262235938877 0.21018245107031916 -0.027644457737380369 -0.026190513918742976 -0.021450440205969451 -0.0061088209498504978 0.17386132071433988 -0.043496244035295603 -0.023282117926342966 0.29409542002918332 -0.041228747270205118 -0.049670632982695279 0.28023656428201477 0.053571058111871933 -0.043324833856884834 -0.043346888953760029 0.25625294022758144 -0.044238487082211654 0.16657683650397062 -0.050724137499669079 0.23366433111385487 -0.017009287431091917 0.32094991898372016 -0.046734054835120886 0.2292941200872102 0.24163034492343094 0.020640180904302724 0.28804767792118524 -0.0177828625118816 0.31800120179409203 -0.049736459081572426 0.051879680190839467 0.21546123498688152 0.17480154491055863 0.19275329962811558 0.27657104448950404 -0.046185464227073633 0.32115796506332467 -0.042042796746062136 0.025722202780311842 0.031547400144151923 0.16672381232564695 0.17615857395166692 0.14871935261395558 0.18153242730855124 0.32221821248003857 0.0075896100893719509 -0.043399320386147675 0.28186588972236037 -0.048295775317017064 0.19618036045947451 0.20330943717262848 0.253109301319627 -0.011480033082876654 0.31110524394681849
leaf_weight=755.15296425297856 1484.9853900671005 6958.4554529860616 9.0573231149464828 13.455929299816487 37.125550409778953 11.773578351363538 28.559143390506506 132.74919711798429 3.1276483796536905 42.641803899779916 20.624866498634223 17.840623395517468 11.223279444500802 17.724666308611635 5.1035118345171204 18.598398063331842 26.024958647787571 3.8291075285524157 16.536190725862983 13.141520630568264 9.2297533247619921 4.9999357089400283 5.2580185048282138 14.504391746595504 5.5000760201364747 6.3105505462735882 23.244202366098762 17.082468433305621 15.195048701018093 10.254740836098788 7.7681242618709829 22.86363822221756 16.6705067679286 6.6268218569457513 11.740559043362735 30.175967277958989 7.5362294372171164 16.057475097477436 4.371604545041917 3.0462250187993041 10.611907789483665 149.25133254006505 3.8671912048012009 7.0502744261175385 4.6867137923836735 4.3292678240686646 6.2177699189633122 5.675957027822732 16.088375892490141 3.7375088687986127 6.8287600986659518 3.631951203569769 4.6698321234434843 8.3270677495747787 5.1358446553349495 14.62208374775946 10.750749558210375 9.5841242820024473 3.167726755142211 24.489355642348528 12.955462653189896 25.212270144373186
leaf_count=39221 355 1901 229 97 818 396 71 481 39 1018 466 525 235 97 135 439 215 86 398 101 174 116 138 49 125 83 560 81 339 89 169 169 138 116 71 652 58 364 73 29 155 509 28 152 30 96 133 109 141 46 46 43 41 144 127 113 235 104 5 202 294 171
internal_value=0.151472 0.167647 0.156202 0.136164 0.123231 0.109174 0.115103 0.211045 0.11813 0.113143 0.105527 0.115242 0.120558 0.0403015 0.173855 0.126588 0.130091 0.149449 0.103315 0.117804 0.134362 0.117219 0.0706702 0.172556 0.139819 0.0143305 0.0129318 0.125458 0.113358 0.126093 0.225645 0.159872 0.179283 0.110285 0.128339 0.066839 0.189734 0.0351886 0.13745 0.0112185 0.103943 0.182845 0.0624368 0.174281 0.144771 0.1738 0.192391 0.210272 0.233956 -0.00774391 0.0159162 0.0106697 0.210189 0.123145 0.0643675 0.196202 0.143462 0.0961622 0.0184219 0.193854 0.133797 0.260252
internal_weight=10207.1 9451.91 2493.45 1008.47 862.26 700.084 659.912 146.205 648.139 619.58 553.018 480.587 462.747 72.431 66.5614 438.49 427.267 245.216 182.05 163.452 140.605 127.464 70.5145 56.9491 31.4003 22.8467 39.1141 188.56 171.477 156.282 56.6567 30.6318 25.9003 146.027 117.099 51.1678 14.1631 28.928 12.8705 40.1718 15.8699 162.176 12.9245 65.9315 54.1909 47.1407 61.4579 55.2401 46.9766 46.3793 37.0047 24.2568 9.04144 26.0517 8.26349 42.8114 28.1893 23.5026 13.9185 51.9492 27.4599 41.3006
internal_count=53840 14619 12718 12363 11785 11019 10172 578 9776 9705 8850 7545 7020 1305 855 6511 6276 3304 2972 2533 2052 1951 1290 661 437 481 853 2751 2670 2331 553 338 312 2242 1678 872 174 564 200 847 293 766 257 806 735 583 720 587 421 1064 698 509 114 241 166 487 374 344 240 545 343 312
is_linear=0
shrinkage=0.05


Tree=5
num_leaves=63
num_cat=0
split_feature=182 149 119 116 128 182 41 145 144 3 116 13 151 127 123 123 23 151 120 149 130 13 125 110 13 138 23 13 1 151 23 23 23 115 135 119 153 119 138 115 151 3 23 154 124 121 116 125 127 116 154 145 23 122 122 154 13 117 124 23 123 145
split_gain=10895.4 60.3302 103.962 101.3 50.4395 48.74 73.0956 141.908 204.448 75.9064 118.332 98.8295 90.0472 144.633 111.754 92.3017 79.3807 73.0111 99.7437 66.2366 172.1 56.9416 86.8536 53.8337 51.4269 56.3794 50.383 48.5859 45.6398 52.2823 62.0099 85.0206 41.5564 39.6444 130.081 113.47 90.8081 54.1051 116.97 78.2448 55.5247 67.5832 107.071 53.9262 79.8079 79.227 53.4351 103.069 72.4012 37.5774 101.232 37.4531 40.8083 34.6271 45.0749 33.6568 32.7946 37.022 47.0008 32.2863 32.1483 40.0709
threshold=0.0093041370953782249 28.500000000000004 50.500000000000007 34.500000000000007 20.500000000000004 0.12916666666666668 1.0000000180025095e-35 0.26783087956985069 306.50000000000006 46734.890000000007 29.500000000000004 3557.5150000000003 1.0357532637267706 15.500000000000002 8.5000000000000018 14.500000000000002 68081.86000000003 1.3928463973765937 20.500000000000004 1.5000000000000002 10.500000000000002 246.30500000000004 5.5000000000000009 350.50000000000006 23851.255000000001 7.5000000000000009 95487.580000000031 93187.175000000017 1.5000000000000002 2.0968957485233952 -28155.364999999994 -51990.099999999999 -60.234999999999978 49.500000000000007 13.500000000000002 62.500000000000007 5445544.4486689428 16.500000000000004 1.5000000000000002 21.500000000000004 0.59433024773269938 4427.7000000000016 -1117.5599999999999 19183016.440000001 12.500000000000002 20.500000000000004 93.500000000000014 15.500000000000002 49.500000000000007 26.500000000000004 3371034.8650000007 0.27419476604014364 2927.2450000000013 27.500000000000004 7.5000000000000009 13777963.245000001 919.7600000000001 23.500000000000004 8.5000000000000018 184.095 13.500000000000002 0.25902431266143938
decision_type=2 10 2 2 2 2 2 2 2 2 2 2 10 2 2 2 8 10 2 10 2 2 2 2 2 2 8 2 2 10 10 10 10 2 2 2 10 2 2 2 10 2 10 10 2 2 2 2 2 2 10 2 10 2 2 8 2 2 2 10 2 2
left_child=-1 5 3 -3 -4 6 7 19 55 10 11 12 14 15 -10 17 24 18 -14 60 -21 26 -23 -13 33 -26 28 -24 29 30 31 -11 -22 34 37 46 -37 56 -39 -40 59 43 53 44 -42 -46 47 -35 -49 50 -16 52 -19 54 -43 -9 57 58 -12 -41 61 -2
right_child=1 2 4 -5 -6 -7 -8 8 9 21 16 23 13 -15 49 -17 -18 51 -20 20 32 22 27 -25 25 -27 -28 -29 -30 -31 -32 -33 -34 35 -36 36 -38 38 39 40 41 42 -44 -45 45 -47 -48 48 -50 -51 -52 -53 -54 -55 -56 -57 -58 -59 -60 -61 -62 -63
leaf_value=-0.050874134507873606 0.16359259054389061 0.16253982183625629 0.25039439287103887 -0.029154724491804142 0.11683300745857156 0.15633402377561567 0.15138996333681409 -0.051042967924147503 -0.043826563198443441 0.17833898740241594 0.13791033604940459 0.11554613309388739 -0.050093419456259405 -0.051501687618704065 0.10816515578712792 0.29069404374337776 -0.0037521803102843997 -0.045182762284802239 0.23477016663292849 -0.023717286512590079 0.24224115505170049 0.23407097265967769 -0.0032569624165925157 -0.050687535075831937 -0.047814942172830985 0.11682440258359801 0.10528805074777176 0.11361394903891649 0.12105779602267455 0.096147448359634832 0.2043064506745764 0.50352481416092654 0.092032396945125994 0.29387880524890253 -0.047687846965248859 -0.047855356802155281 0.12366391560845519 -0.048569714047152879 -0.0050485045040591639 0.14165401520701365 -0.048355938646360987 0.12320230193338735 -0.050150923354324466 0.16053189047378713 0.14286789736155722 -0.0057196155356825078 0.23859334144555217 0.15060374997704315 0 0.11373122620073578 0.35612938063560107 0.15806550017934795 0.11636712346262437 0.160809000976329 -0.045201648101516334 0.12453522487779436 0.13868487647735547 0.11607256815599537 0.33850523746890859 0.2434809752294248 0.17426140271444529 0.13043416500734636
leaf_weight=719.60464178957045 248.26048265397549 8.9421223048120755 9.7892264910042268 21.633056694641709 36.594029115512967 3272.3201016783714 4929.2866279520094 18.882109826430682 5.1445057932287446 5.9263247605413198 7.2059426102787318 5.3843494355678585 16.14914073236287 19.015965906903148 9.0722070783376747 5.1418446525931349 10.63780803978443 5.8890300765633556 2.7436184473335734 18.451282573863864 11.892193863168359 13.899207985028623 10.283176444470881 19.547230165451765 8.042578015476467 11.637404479086397 22.36685474589467 58.850287776440382 20.393195597454906 9.8578619770705682 50.707569528371096 4.7109945658594352 10.392223227769136 11.381938118487595 10.006734738126395 8.4985869675874692 49.980433039367199 9.4352528247982246 10.788223166018723 28.973340433090925 7.6572813186794511 8.0110330581665057 13.865696875378488 90.888740399852395 50.442459741607308 10.697449550032614 38.742537196725607 52.981983622536063 9.341722369194029 11.826130298897622 9.2817315366119129 24.102347277104855 8.4504485260695219 16.712687550112605 6.3266711663454762 2.1843348089605561 43.152900150045753 8.7800801377743465 9.7064936403185111 16.716044891625643 263.57418034411967 204.37492767162621
leaf_count=39260 206 12 50 555 179 2449 1336 446 141 72 49 76 380 427 42 26 233 123 11 474 70 79 200 463 174 58 126 266 88 36 265 46 88 22 233 195 200 215 218 104 156 1 305 204 234 202 99 185 157 72 93 147 11 48 141 23 97 33 70 66 577 1200
internal_value=0.136938 0.15053 0.103323 0.0301227 0.149816 0.150887 0.148162 0.138529 0.12477 0.128416 0.120113 0.0783011 0.0974492 0.0670443 0.163678 0.103448 0.130706 0.0818743 0.000745539 0.154886 0.0888961 0.15682 0.121983 -0.0115227 0.133366 0.0502412 0.180877 0.0963603 0.197944 0.217914 0.235545 0.353678 0.179368 0.136399 0.125552 0.15768 0.098268 0.1308 0.119643 0.125903 0.131565 0.119123 0.0626542 0.134486 0.0981979 0.117116 0.187394 0.157581 0.128363 0.199481 0.245743 0.12059 0.0510745 0.113177 0.050464 -0.0277924 0.172229 0.221076 0.265787 0.183433 0.158503 0.148952
internal_weight=10665.5 9945.93 76.9584 30.5752 46.3833 9868.97 6596.65 1667.37 910.422 889.356 692.361 141.749 116.817 81.4924 35.3246 62.4764 550.612 57.3346 18.8928 756.945 40.7357 196.995 83.0327 24.9316 539.974 19.68 113.963 69.1335 91.5959 71.2028 61.3449 10.6373 22.2844 520.294 349.367 170.927 58.479 339.36 270.515 261.08 250.291 204.602 44.9161 159.686 68.7972 61.1399 112.448 73.7056 62.3237 30.1801 18.3539 38.4418 14.3395 31.0504 14.3377 21.0664 68.8454 25.6925 16.9124 45.6894 716.21 452.635
internal_count=53814 14554 796 567 229 13758 11309 9973 7358 6889 5711 2012 1473 1125 348 698 3699 672 391 2615 632 1178 545 539 3466 232 633 466 507 419 383 118 158 3234 2376 858 395 2143 1894 1679 1461 1291 495 796 592 436 463 364 342 207 135 281 134 190 142 469 249 152 119 170 1983 1406
is_linear=0
shrinkage=0.05


Tree=6
num_leaves=63
num_cat=0
split_feature=182 149 46 18 24 182 46 41 181 11 4 156 116 18 129 24 127 44 126 123 155 46 46 111 46 116 114 123 118 129 123 131 18 124 124 46 24 128 122 121 155 116 18 155 4 127 155 116 155 123 46 111 18 118 118 24 131 155 4 181 7 4
split_gain=8917.71 48.2752 137.316 64.7943 41.0743 36.3804 112.115 296.242 129.594 163.931 140.74 150.928 107.387 121.208 107.437 127.808 115.797 101.139 135.802 258.968 109.095 113.409 105.83 98.9196 97.6265 94.9548 89.8876 184.361 86.231 84.9689 93.7667 81.6536 77.8704 70.7858 70.4424 73.8865 69.3076 72.8759 104.341 66.6876 76.2601 106.444 63.8235 63.79 65.033 69.9127 61.6359 75.3706 57.2555 58.5345 55.9228 52.1189 51.1368 48.3342 58.5076 46.6559 44.5166 68.1258 43.9494 42.2636 41.0919 44.5008
threshold=0.0093041370953782249 28.500000000000004 166.50000000000003 3542.5000000000005 1.7795243928666336 0.12916666666666668 44.500000000000007 1.0000000180025095e-35 12.500000000000002 17763.970000000005 6878.7750000000005 1.0000000180025095e-35 24.500000000000004 1228.5000000000002 7.5000000000000009 1.5881027000637531 37.500000000000007 147.50000000000003 3.5000000000000004 9.5000000000000018 808927.80575819698 271.50000000000006 319.50000000000006 18.500000000000004 1030.5000000000002 10.500000000000002 60.500000000000007 22.500000000000004 42.500000000000007 7.5000000000000009 9.5000000000000018 5.5000000000000009 853.50000000000011 25.500000000000004 22.500000000000004 953.50000000000011 0.95968219803641575 9.5000000000000018 10.500000000000002 22.500000000000004 1688358.9811666671 89.500000000000014 757.50000000000011 535128.67725000007 -61514.404999999992 12.500000000000002 358843.62966666667 11.500000000000002 1583718.5475000003 24.500000000000004 277.50000000000006 50.500000000000007 763.50000000000011 13.500000000000002 16.500000000000004 1.76551939327472 17.500000000000004 770373.05816666665 18771.225000000002 13.500000000000002 -63192.819999999992 58129.685000000005
decision_type=2 10 2 2 10 2 2 2 2 2 2 10 2 2 2 10 2 10 2 2 10 2 2 2 2 2 2 2 2 2 2 2 2 2 2 2 8 2 2 2 10 2 2 10 2 2 10 2 10 2 2 2 2 2 2 10 2 10 2 2 10 2
left_child=-1 5 -3 4 -4 6 -2 8 9 10 12 31 24 14 -14 33 -17 18 19 23 43 -22 -23 25 29 -10 42 -28 39 30 46 32 52 34 35 50 37 38 -11 -29 48 -42 -24 44 -20 -46 -8 -48 49 -41 -16 -44 -12 -15 -55 60 57 -52 -19 -47 -33 -62
right_child=1 2 3 -5 -6 -7 7 -9 17 36 11 -13 13 53 15 16 -18 58 20 -21 21 22 26 -25 -26 -27 27 28 -30 -31 -32 55 -34 -35 -36 -37 -38 -39 -40 40 41 -43 51 -45 45 59 47 -49 -50 -51 56 -53 -54 54 -56 -57 -58 -59 -60 -61 61 -63
leaf_value=-0.050823098393928436 0.13851667937555981 0.14057159518754833 -0.050047811903395079 0.170259122079366 0.15491808968721663 0.14020013406984733 -0.045548218319032913 0.13507592617716235 -0.045047734997523847 0.16534589870880831 0.076353679391563095 0.14802896525117995 0.17571376015330561 0.10597414814935822 -0.044695330120790404 0.025273119059579699 0.29828436106504808 0.11158733152983401 0.23983759115218384 0.33975319580501467 -0.049708167182807794 0.25929401226006671 0.19927319257082005 -0.048197307568535019 -0.049647277876952917 0.15567777004793271 -0.037537118091623495 0.0030239431318957442 -0.046024880611548441 -0.012829841340088756 0.23654575657390256 -0.042170186751327506 -0.045271276157099777 -0.049327950985938306 0.19892897582939234 -0.025515966886287572 0.13479116627848248 0.086415198433206317 0.40499787988068769 0.24673926270392946 -0.008193392776855388 0.191361588536235 -0.045274472388350889 -0.051300478049482436 -0.04961147083379748 0.18913464108344763 0.19372983960102227 0.001109691964133828 0.34935444874546911 -0.038305956672190548 0.21024301104157087 0.16568831511873006 0.26352913635533065 0.3684927154411195 0.18812014941398761 0.1188319813644204 0.19551223734290663 0.011453767054597672 0.3154891021115625 0.02812904338762072 -0.040739907551355904 0.18497330082682265
leaf_weight=685.18015972152352 4237.0363766197115 52.767759464681149 22.147019840776927 3.8654298894107333 1.7488949038088311 3461.1876266077161 7.3143257088959244 1996.6443293765187 6.8215494062751523 11.646012777462607 11.089414335787302 30.523277059197426 55.873104367405176 8.9912517201155406 5.5666436906903973 6.1242841146886375 10.89694172888994 8.5948889926075918 2.7153833135962477 11.017666609957812 16.647249044850469 7.4674564246088257 19.532805923372511 11.396038647741078 13.682351216673849 28.757762316614389 36.937538430094719 8.5304547734558565 7.5037078894674769 13.206450751051305 13.332694498822091 48.583379104733467 6.4345669746398917 12.247116841375826 9.4027924928814155 18.640215335413814 35.187114868313074 6.7528938688337794 10.448692750185726 2.6366880908608419 11.920700032263996 13.852309247478841 6.4461944345384818 35.675062537193298 17.767509054392576 5.6238344814628389 11.845304934307935 8.5052425190806371 6.8523060847073793 3.06184465251863 5.1117048282176318 3.8977269865572453 5.6962037552148095 8.9655243530869502 18.201597977429628 5.2213383540511122 11.53654635325074 15.258078305050729 4.7661850787699214 11.984735665842889 3.5956761781126252 3.5246213357895613
leaf_count=39260 691 67 638 50 41 2449 189 881 187 69 137 86 113 120 113 89 60 105 26 101 400 90 170 290 292 155 909 164 186 263 66 937 143 235 74 297 283 92 60 30 258 97 152 908 456 63 26 134 35 78 67 26 38 55 114 48 69 228 38 215 77 24
internal_value=0.123878 0.135283 0.0939419 0.00333015 -0.0292258 0.135593 0.133281 0.125076 0.0973362 0.114776 0.101423 0.0546438 0.122167 0.141835 0.120539 0.0864678 0.207185 0.0709875 0.0639693 0.131556 0.0455371 0.0705393 0.0864025 0.0765565 0.0666967 0.116877 0.0736717 0.0479939 0.105833 0.0965226 0.131334 0.0193693 0.0970737 0.0576861 0.0782066 0.0547609 0.188981 0.248182 0.291524 0.130711 0.158206 0.102017 0.147879 -0.0039242 0.040496 0.018885 0.0739708 0.117283 0.257177 0.109982 0.0944484 0.0413767 0.151399 0.224801 0.258792 -0.0112546 0.119497 0.069077 0.201575 0.0872203 -0.0254169 0.0793945
internal_weight=11184.4 10499.2 80.5291 27.7613 23.8959 10418.7 6957.49 2720.46 723.813 433.405 369.371 114.668 254.702 186.816 150.657 94.7843 17.0212 290.408 277.047 57.993 219.054 145.287 128.64 46.9754 67.8864 35.5793 121.172 91.2955 54.358 54.204 40.9976 84.1452 23.2202 77.7631 65.516 56.1132 64.0347 28.8476 22.0947 46.8543 38.3238 25.773 29.8767 73.7665 38.0915 35.3761 27.6649 20.3505 12.5508 5.69853 37.473 10.3439 16.7856 36.1584 27.1671 60.925 31.9063 20.3698 13.3611 17.6086 55.7037 7.1203
internal_count=53814 14554 796 729 679 13758 11309 10618 9737 4598 4094 1490 2604 1634 1345 1232 149 5139 4996 733 4263 2595 2195 632 970 342 2105 1757 848 678 415 1404 318 1083 848 774 504 221 129 662 498 355 348 1668 760 734 349 160 143 108 477 178 175 289 169 1086 364 295 143 278 1038 101
is_linear=0
shrinkage=0.05


Tree=7
num_leaves=63
num_cat=0
split_feature=182 41 46 182 182 133 155 134 116 182 23 13 2 112 112 11 4 44 11 23 127 129 129 65 16 144 13 17 154 137 17 23 4 126 46 18 16 16 118 111 18 111 9 16 18 122 1 132 132 23 127 122 155 154 17 128 126 113 155 132 122 154
split_gain=7476.12 56.3863 191.381 251.472 121.825 113.54 108.914 110.359 129.957 133.964 170.084 146.01 104.233 101.828 97.9746 92.6265 92.9001 92.1516 91.9806 87.6618 147.48 131.199 150.026 85.5075 85.1808 81.6406 80.3184 79.664 76.2736 77.55 75.9552 75.9491 93.0205 72.0258 71.6708 71.1748 70.9451 74.4545 69.1684 63.9711 62.3336 60.9033 67.2943 59.7773 57.4372 77.6636 56.8651 55.1445 52.1108 131.932 109.526 107.909 51.1115 49.6317 64.621 57.5682 49.0757 51.8653 48.9202 83.2552 99.2759 60.3327
threshold=0.0093041370953782249 1.0000000180025095e-35 44.500000000000007 0.12916666666666668 0.50581395348837221 32.500000000000007 4015711.4600833338 1.5000000000000002 24.500000000000004 0.087121212121212141 583.07000000000073 23851.255000000001 55815.960000000006 49.500000000000007 39.500000000000007 23167.400000000005 -10873.789999999999 25.500000000000004 50611.410000000011 -17658.634999999998 50.500000000000007 23.500000000000004 11.500000000000002 1.0000000180025095e-35 10.355000000000002 207.50000000000003 -15539.624999999998 405.22000000000008 9256558.1300000008 11.500000000000002 226.75500000000002 3694.8149999999991 6878.7750000000005 24.500000000000004 312.50000000000006 595.50000000000011 18.225000000000005 21.715000000000003 15.500000000000002 53.500000000000007 739.50000000000011 50.500000000000007 -52904.499999999993 16.865000000000006 640.50000000000011 19.500000000000004 1.5000000000000002 7.5000000000000009 8.5000000000000018 837.36000000000013 12.500000000000002 3.5000000000000004 2487804.7465000008 18635744.305000003 459.98500000000007 3.5000000000000004 19.500000000000004 68.500000000000014 2394780.3351666671 10.500000000000002 18.500000000000004 14080758.315000003
decision_type=2 2 2 2 2 2 10 2 2 2 10 2 10 2 2 2 2 10 2 8 2 2 2 2 2 2 2 2 10 2 2 8 2 2 2 2 2 2 2 2 2 2 2 2 2 2 2 2 2 10 2 2 10 10 2 2 2 2 10 2 2 10
left_child=-1 2 -2 5 23 6 7 -4 12 10 18 19 17 14 25 16 -12 31 26 30 21 22 38 28 -24 -14 -10 35 46 58 -11 -9 43 39 -18 -26 53 -38 -21 41 -19 42 -28 -33 -37 -46 48 -20 50 -50 51 -5 -35 54 55 -36 57 -23 59 60 -30 -61
right_child=1 -3 3 4 -6 -7 -8 8 9 11 15 -13 13 -15 -16 -17 34 40 47 20 -22 56 24 -25 27 -27 33 -29 29 -31 -32 32 -34 52 36 44 37 -39 -40 -41 -42 -43 -44 -45 45 -47 -48 -49 49 -51 -52 -53 -54 -55 -56 -57 -58 -59 -60 61 -62 -63
leaf_value=-0.050774255561207952 0.127839725655751 0.12570828806413767 0.1301091062624527 0.1153009371018833 0.22075418810113001 -0.050272364206481179 0.20458114888593251 -0.03191940209250093 0.17771096018486235 0.33363712010935076 -0.044866564478375406 -0.023439372137960116 0.22994561260735732 -0.046218579045844081 0.23909792518013534 -0.046449944734963722 0.0074613206414745536 -0.044973735735315469 0.24825910626402267 0.16960402135365391 -0.049013032229479114 0.14869024765729391 -0.050299636632839706 0.22478881830643274 -0.047507013410072713 -0.047223824997974763 0.17645729254052314 -0.049138698287632988 0.13548121350288084 0.020028451231251788 0.12039482629892269 0.019562180056892947 -0.047892822954034547 0.14756184186987478 0.14886739963273976 0.23690038417665593 0.34151833834891682 0.13939539074439067 0.031690046249396489 -0.051524667416000342 0.1254172475390298 0.12820307362747679 -0.024692822702968287 0.22137185129808903 -0.011953670329946257 0.12992657662353174 0.0038206249280028255 0.030467830186112672 -0.053423980053399593 0.12977570416386144 0.17113492948031184 -0.027094083082547571 -0.041846697257296943 0.178789672450332 0.19990771779911387 -0.048408490534266997 0.091108471294559443 0.29656052978387931 0.21390386104053116 0.0023697630304839331 0.26549785911966034 0.11644266897820005
leaf_weight=652.37564212456346 1760.4426785446703 7947.7722672894597 113.01617534086108 40.740579839795828 36.912118636071682 14.614766610786317 18.890389185398817 75.073556058108807 5.9172135666012755 8.5113775506615656 6.3457775153219691 17.789908533915877 2.8180247712880391 7.1312542222440234 15.014684459194539 7.5122473537921897 8.1987414713948947 6.1812558621168163 5.9858866389840824 70.444877240806818 12.595715221017597 15.048699112609031 14.765869155526159 20.277248671278358 6.8119737673550835 7.8811045847833157 3.6762416064739218 9.9048674553632718 85.971919059753418 13.238293785601853 10.928201217204331 6.3711771052330759 10.016472393646835 11.896768964827062 4.2120458651334074 8.0245889686048013 9.6860820911824721 12.439719172194598 11.119744554162024 52.47213795222342 24.691678304225206 10.458966998383401 36.477295817807317 8.6079310681670886 12.787051506340502 35.675861673429608 16.805500684306026 5.6217552181333303 16.929356839507818 21.017165865749121 52.349938271567225 18.97595782391727 4.3555922023951998 18.905314238741994 5.24229722470045 11.728346860036252 9.784136785194276 16.876383328810334 26.374682994559407 16.662930781021714 19.0646140743047 38.104053683578968
leaf_count=39260 358 1820 639 57 32 300 117 1731 54 48 167 315 19 154 102 173 171 144 29 385 250 77 257 59 111 161 31 163 248 143 74 97 238 87 17 41 115 132 127 1378 191 121 787 85 222 243 170 96 211 107 228 230 115 129 33 293 82 93 99 148 69 181
internal_value=0.113578 0.123397 0.117183 0.101658 0.132915 0.0848051 0.0874106 0.0842225 0.0759981 0.0890801 0.0599464 0.113415 0.0371467 0.115432 0.160502 0.115434 0.131735 0.016746 0.0251553 0.123498 0.11363 0.123537 0.102822 0.123965 0.0564605 0.0387668 0.0120542 0.0784498 0.117772 0.139066 0.22576 -0.0067252 0.0670695 0.00239024 0.148126 0.0989459 0.166173 0.239037 0.151474 -0.0132711 0.0908047 0.0265209 -0.00231483 0.142444 0.117213 0.0929052 0.0916109 0.153959 0.101322 0.048642 0.118528 0.0702691 0.0970277 0.120996 0.0634561 0.0091346 0.20324 0.233643 0.147351 0.135074 0.161408 0.0824903
internal_weight=11576.5 10924.1 2976.38 1215.93 423.424 792.51 777.895 759.005 645.989 482.202 221.132 261.069 163.787 32.8451 25.7138 84.2706 76.7583 130.942 136.862 243.279 223.84 211.244 169.535 386.512 87.9702 10.6991 125.254 73.2043 366.235 199.416 19.4396 100.069 24.9956 119.337 70.4125 63.2995 62.2138 22.1258 81.5646 103.085 30.8729 50.6125 40.1535 14.9791 56.4875 48.4629 166.818 11.6076 150.013 37.9465 112.066 59.7165 16.2524 40.088 21.1827 15.9404 41.7092 31.9251 186.178 159.804 105.037 54.767
internal_count=53814 14554 12734 12376 1982 10394 10094 9977 9338 6416 3928 2488 2922 436 282 1230 1057 2486 2698 2173 2051 1801 1549 1950 1037 180 2573 780 1891 888 122 2151 420 2519 890 617 719 247 512 2317 335 939 818 182 506 465 1003 125 833 318 515 287 202 472 343 310 252 170 745 646 317 329
is_linear=0
shrinkage=0.05


Tree=8
num_leaves=63
num_cat=0
split_feature=182 145 19 43 144 182 47 2 17 151 3 124 55 151 144 44 151 23 152 17 152 135 17 23 120 151 24 111 134 3 55 144 111 44 151 151 181 151 152 154 150 55 55 23 182 182 132 44 55 24 151 181 24 23 111 17 3 16 16 24 24 145
split_gain=6378.97 33.9554 51.1624 73.6834 149.037 100.103 76.807 110.582 91.9526 68.1815 84.6354 63.9703 48.2882 43.679 87.0046 35.9918 35.755 47.0826 41.7046 61.6501 89.3154 63.7792 44.9081 83.9002 39.8515 38.9144 35.245 102.017 33.8537 41.0889 83.7554 42.0609 49.5935 31.7511 61.0033 27.8163 41.69 30.3835 58.5194 58.9644 43.4376 68.4324 29.5028 27.4968 26.3966 68.4963 25.5954 25.514 24.1998 23.3408 31.6259 31.3548 24.7377 22.0223 21.8083 19.6831 19.5254 21.3714 62.9264 69.4226 18.9185 17.346
threshold=0.0093041370953782249 0.26783087956985069 1.0000000180025095e-35 14.500000000000002 301.50000000000006 0.50581395348837221 65.01711156741959 244186.75500000003 459.98500000000007 1.0441791125486375 -149131.30499999996 1.5000000000000002 1083.5000000000002 1.3672768515180735 383.50000000000006 77.500000000000014 0.14543164102729625 3520.2649999999999 53.500000000000007 331.14500000000004 26.500000000000004 5.5000000000000009 121.93500000000002 232.11500000000004 9.5000000000000018 1.121944300375703 0.78134751057535146 38.500000000000007 1.5000000000000002 1142.4150000000002 855.50000000000011 847.50000000000011 23.500000000000004 177.50000000000003 2.275181277369835 1.3103896871926592 4.5000000000000009 1.1758244185826856 29.500000000000004 14233087.880000001 23.057786885245907 691.50000000000011 1564.5000000000002 -37211.249999999985 0.10818713450292398 0.057189542483660136 15.500000000000002 51.500000000000007 765.50000000000011 1.5975783661042571 1.0659355435431899 8.5000000000000018 0.99384640391652568 521.75999999999976 27.500000000000004 292.90500000000003 159256.29500000001 17.725000000000005 21.715000000000003 0.97081543536712633 0.71809119791249487 0.27357804770113808
decision_type=2 2 2 10 2 2 2 10 2 10 2 2 10 10 2 10 10 8 10 2 10 2 2 8 2 10 8 2 2 2 8 2 2 8 10 10 2 10 10 10 10 10 8 10 2 2 2 8 8 10 10 2 10 10 2 2 2 2 2 10 8 2
left_child=-1 -2 3 4 11 6 8 15 13 12 -11 -3 -10 14 -6 26 17 -16 19 22 47 -22 23 25 -24 -18 27 -8 -15 30 -30 32 -32 34 -31 37 -37 38 39 54 -40 -42 -43 -9 45 -23 -33 -21 -41 51 -51 52 -28 -20 -26 -55 57 60 59 -59 -35 -39
right_child=1 2 -4 -5 5 -7 7 43 9 10 -12 -13 -14 28 16 -17 18 -19 53 20 21 44 24 -25 35 -27 49 -29 29 33 31 46 -34 56 -36 36 -38 61 40 48 41 42 -44 -45 -46 -47 -48 -49 -50 50 -52 -53 -54 55 -56 -57 -58 58 -60 -61 -62 -63
leaf_value=-0.050727461711937087 0.11730646125972262 0.079448741697811021 0.11540972248653419 0.11594326298194815 -0.051224900750647895 0.16663063438035797 0.11721157510956513 0.33724690880752073 -0.0010123198370504773 0.1800785071896083 -0.054291438992813593 -0.053184696678666168 0.14317831753967378 0.1750153642869004 -0.048484026212042522 0.14326653571887893 -0.007231049305449825 0.12321304932284803 0.10482714358894003 0.085442755077854884 -0.04899529589012639 0.1209848631451088 -3.9711928012461764e-05 -0.052422901002654655 0.079467688485146681 0.09705749520695249 0.16566744414710288 -0.051954136057601276 -0.050424836530899714 -0.050494350205300402 0.095321459260632721 0.14190121558391311 -0.05025027731110579 0.14741393405506206 0.10687867154626043 0.10660500843862977 -0.048507769426131088 0.14338643288337646 0.1980539960604461 0.13005386133433391 0.11750242492946519 -0.05036776161915274 0.07837323287769897 0.14956225164309089 0.10489248545811246 -0.049733943597379759 0.059243031994865115 -0.053672401568450427 0.037763864630240049 0.18154270704818426 0.10545768350810243 0.09251394904131266 0.10038699757583021 0.10546990165407509 -0.051841242668319888 0.21834653678031035 0.070271611989884686 0.1073467501411115 0.11495029033285689 0.28014325615003627 0.098140422899051408 0.091274463770167957
leaf_weight=621.11780379712582 4673.636372057721 13.954290509223936 3657.2055544294417 1186.0604736655951 10.731117540970443 58.166718220338225 22.900759931653738 6.2289356086403131 9.1966562718153018 3.47613472118974 26.88003489561379 22.182915402576327 14.37703421153128 19.075656797736883 10.389552649110554 81.430721743032336 10.31058041192591 5.1499067302793256 95.186139786615968 2.9245195016264915 8.9117083344608528 10.882833970710637 9.1643958948552591 13.419674478471277 3.0046365186572102 57.132901281118393 33.896739989519119 13.425555650144814 11.607726396992801 8.4800186585634965 12.013830959796907 32.629565915092826 9.7240958791226131 28.9406384434551 17.384487865492702 8.4637031555175763 7.1206224597990504 81.377951335161924 13.505622351542113 15.235180307179691 86.064732730388641 9.3723690193146485 6.7893625460565081 6.867226552218197 57.982070537284017 10.754900824278591 16.397607920691371 21.252052439376715 15.023650258779524 27.276199411600828 42.339489247649908 238.45826918259263 40.060775745660067 11.805526619777085 14.56139071844518 10.497861884534357 26.48896219022572 12.583786865696313 81.186183873564005 14.622239291667936 138.59081078879535 30.21399256773293
leaf_count=39260 3909 78 889 313 200 30 97 34 132 3 430 441 50 45 274 175 144 86 388 19 168 23 132 250 20 194 71 254 199 159 22 85 172 80 40 1 133 266 30 45 241 155 47 67 118 222 95 383 111 85 144 1230 51 87 262 71 98 85 171 99 493 158
internal_value=0.105184 0.1138 0.111287 0.106074 0.0992339 0.101379 0.0989519 0.11534 0.0913527 0.0269206 -0.0224068 -0.00107377 0.0889706 0.0945765 0.0858127 0.111118 0.0882459 0.0121248 0.0901508 0.083341 0.050042 0.0731494 0.0930278 0.0585676 0.102077 0.0811684 0.104522 0.0548401 0.107331 0.103757 0.0703902 0.0907039 0.0306364 0.111876 0.0551368 0.105302 0.0367796 0.109018 0.0937933 0.0457365 0.113047 0.0999585 0.00483894 0.256777 0.087321 0.0374607 0.116092 -0.0339204 0.0870654 0.109078 0.137488 0.102313 0.132184 0.117766 -0.0260413 0.165904 0.116514 0.120666 0.13979 0.207035 0.107506 0.130257
internal_weight=11866.1 11245 6571.34 2914.13 1728.07 1691.94 1633.77 512.885 1120.88 53.9299 30.3562 36.1372 23.5737 1066.95 637.229 499.789 626.498 15.5395 610.958 493.469 112.708 88.5315 380.761 80.8632 299.898 67.4435 418.358 36.3263 429.726 410.65 82.3728 70.7651 21.7379 328.277 25.8645 290.733 15.5843 275.149 163.557 47.8249 115.732 102.226 16.1617 13.0962 79.6198 21.6377 49.0272 24.1766 30.2588 382.031 69.6157 312.416 73.9575 117.49 17.566 22.3034 302.413 275.924 108.392 27.206 167.531 111.592
internal_count=53814 14554 10645 9756 9443 8924 8894 2208 6686 615 433 519 182 6071 4228 2107 4028 360 3668 3122 933 531 2189 588 1601 338 1932 351 1843 1798 573 374 194 1225 199 1469 134 1335 911 438 473 443 202 101 363 245 180 402 156 1581 229 1352 122 546 282 158 1026 928 355 184 573 424
is_linear=0
shrinkage=0.05


Tree=9
num_leaves=63
num_cat=0
split_feature=182 46 41 182 111 155 24 134 116 111 151 123 18 147 153 46 151 55 55 51 146 146 55 147 153 120 123 16 155 126 55 151 123 143 109 116 135 24 55 147 147 16 123 46 111 182 46 2 13 24 55 182 153 147 135 121 135 18 152 155 2 51
split_gain=5513.79 104.551 257.4 176.953 89.3896 85.2874 91.0947 105.615 121.473 126.943 92.8696 91.6255 81.7649 79.4809 80.2206 75.1594 96.3291 73.3132 73.8483 64.5667 96.2807 86.3982 63.2371 63.0098 62.69 102.892 138.204 84.9184 61.3017 59.9866 59.7978 76.7858 90.9186 69.6371 83.6241 69.2307 94.2744 76.4348 82.7007 70.4097 89.502 68.6173 57.7897 56.7494 55.3655 52.891 50.7655 58.2747 63.6437 50.6598 49.6365 47.1261 46.8049 45.0543 44.6597 44.6089 44.1569 43.6988 263.007 191.655 43.673 43.1715
threshold=0.0093041370953782249 44.500000000000007 1.0000000180025095e-35 0.12916666666666668 163.50000000000003 4015711.4600833338 1.9723996467646436 1.5000000000000002 25.500000000000004 39.500000000000007 1.2961849864058137 7.5000000000000009 352.50000000000006 20.730175530572911 594708.59723446553 277.50000000000006 0.15469352385155316 855.50000000000011 381.50000000000006 1.0000000180025095e-35 34.500000000000007 33.500000000000007 1.0000000180025095e-35 15.415172471639108 6948863.4543420756 25.500000000000004 18.500000000000004 22.325000000000003 764299.47541666694 11.500000000000002 840.50000000000011 1.087210853111938 29.500000000000004 1.5000000000000002 818.50000000000011 42.500000000000007 10.500000000000002 1.0526726305104035 1648.5000000000002 156.94498957074316 50.932396743042929 10.655000000000003 8.5000000000000018 790.50000000000011 51.500000000000007 0.087121212121212141 471.50000000000006 14778.140000000001 548.54000000000008 1.4175443599249002 453.50000000000006 0.087121212121212141 1748866.0241837904 248.68582412018412 3.5000000000000004 15.500000000000002 3.5000000000000004 320.50000000000006 8.5000000000000018 147718.37616666671 114787.65000000001 1.0000000180025095e-35
decision_type=2 2 2 2 2 10 10 2 2 2 10 2 2 10 10 2 10 8 10 2 2 2 10 10 10 2 2 2 10 2 10 10 2 2 2 2 2 8 10 10 10 2 2 2 2 2 2 8 2 8 8 2 10 8 2 2 2 2 10 10 10 2
left_child=-1 -2 3 4 5 6 7 10 13 19 11 -3 -5 14 -9 22 -17 18 61 20 -10 51 45 56 25 26 43 -27 50 -20 31 33 41 34 55 -32 37 38 -37 40 -38 52 -25 46 -31 -11 47 48 -19 -34 -18 60 -33 -54 -53 -30 -16 -4 59 -59 -21 -14
right_child=1 2 57 12 -6 -7 -8 8 9 15 -12 -13 17 -15 23 16 28 24 29 21 -22 -23 -24 42 -26 27 -28 -29 30 44 35 32 49 -35 -36 36 39 -39 -40 -41 -42 -43 -44 -45 -46 -47 -48 -49 -50 -51 -52 54 53 -55 -56 -57 -58 58 -60 -61 -62 -63
leaf_value=-0.050682596462153874 0.10977434784334168 -0.050202873259234108 0.1221982985714859 0.14320312470971569 -0.030453114747760926 0.17375460649511101 0.15071925231611596 -0.02918796661346142 0.12121428585759149 -0.044320586891299224 0.1327390206267928 0.11123536274600639 0.15208951311682259 -0.015686363044784785 0.063850509773360639 -0.049206575730927148 0.08218858951649223 -9.7255072344741166e-06 -0.055270296875835151 -0.047304968336337044 0.30014900027103791 -0.049366308427042149 -0.051414050314333298 0.07660722278624818 0.17502309052398274 -0.034848534763538837 0.20585402907849729 0.13023747130613691 0.017408462028250093 0.14976689300552568 0.039483744121878335 0.14092141556216889 0.036381621020585918 0.1401513467853287 -0.025977888590287199 -0.047146330038265967 0.12578150212696593 0.19885054627228282 0.15536848260150146 0.14753378923147872 -0.050778734058782166 -0.041597386946338383 0.21353271754551578 0.055103724008554678 -0.011302875445295145 0.13630892319198479 0.13238020176883625 -0.052095484533671001 0.17852461387881347 0.17095092692001748 -0.050933969655433654 0.074818802495060302 -0.049169590161627599 0.11809225582866426 0.21170500500238845 0.18644810787503915 -0.049059388533541783 -0.030034344293381983 0.10834654391966181 0.092054870832895971 0.13218902896927609 0.048014843504510366
leaf_weight=591.33621191419661 6892.7511680871248 16.094072407111526 479.71147223934531 115.83268011361361 21.910431426018476 19.016866680234671 31.628902049735188 23.470460332930088 42.33618601039052 5.7496481817215672 91.631983807310462 17.218834424391389 18.774145497009158 80.21467262133956 25.138211747631431 17.192851973697543 10.173365972936155 8.9300698190927523 20.735920619219542 7.621121656149624 9.3249369300901872 10.254793111234902 27.260152868926525 29.35378885269165 30.181637197732925 24.346215026453137 31.658990198746324 10.253406872972844 6.6212499625980881 8.8432533480227011 36.527387285605073 9.5895644109696168 15.976032478734853 38.352234847843647 20.015096601098776 7.9565772395581034 10.431596489623191 41.756268057972193 11.096287004649637 14.775628384202717 18.30663825199008 44.710647467523813 10.78684116154909 69.364384105429053 11.253023242577909 9.9717130120843631 88.190396703779697 8.5656746234744805 10.159832961857317 12.695360641926525 17.753097001463175 13.869823407381775 11.367205156013371 4.9674164652824393 12.686316097155212 9.6585045121610147 12.026257103309034 60.310968689620495 2623.1550000756979 66.816476032137871 4.6126500070095062 23.294686812907457
leaf_count=39260 1045 317 109 155 418 83 270 585 236 148 213 94 86 1501 341 494 81 81 230 148 46 187 582 242 78 275 94 50 91 17 445 60 193 273 388 161 71 202 42 39 347 826 82 367 101 89 158 88 43 65 356 48 223 9 68 34 281 250 739 35 15 159
internal_value=0.0981338 0.1058 0.0998114 0.0814162 0.0679476 0.0704923 0.0679483 0.0645263 0.0566397 0.0692581 0.106906 0.0339058 0.105945 0.0213136 0.0506785 0.0564313 0.0638763 0.0937334 0.0513497 0.119467 0.158694 0.0757024 -0.0058337 0.0750535 0.105965 0.0969964 0.109727 0.0162175 0.0696903 0.00297255 0.0759696 0.0557325 0.0264322 0.0937812 0.0422043 0.100359 0.121048 0.161129 0.0724142 0.0625638 0.0152167 -0.00429305 0.11782 0.0922519 0.0630774 0.0712498 0.11379 0.0517833 0.0989158 0.0998891 -0.00110095 0.109302 0.0590143 0.0052851 0.145703 0.122972 0.0268542 0.107542 0.10494 0.0343127 0.0248689 0.0970295
internal_weight=12076.6 11485.2 4592.48 1362.49 882.102 860.191 841.174 809.545 684.601 503.61 124.945 33.3129 480.384 180.99 100.776 402.905 359.923 364.552 82.901 100.706 51.6611 49.0447 42.9815 77.3051 281.651 251.469 216.869 34.5996 342.73 40.8322 314.804 173.953 99.3062 74.6471 36.2949 140.85 104.323 60.8091 19.0529 43.5139 28.7382 70.6348 40.1406 185.21 20.0963 15.7214 115.846 27.6556 19.0899 28.6714 27.9265 38.7899 25.9242 16.3346 26.5561 16.2798 37.1645 3229.99 2750.28 127.127 12.2338 42.0688
internal_count=53814 14554 13509 12376 10394 9976 9893 9623 8999 5967 624 411 1982 3032 1531 5219 4400 1827 593 748 282 466 819 946 1234 1156 831 325 3906 348 3469 2162 1376 786 513 1307 862 405 203 457 418 1118 324 737 118 237 370 212 124 258 437 279 292 232 116 125 622 1133 1024 285 163 245
is_linear=0
shrinkage=0.05


Tree=10
num_leaves=63
num_cat=0
split_feature=182 149 13 46 41 182 114 23 116 115 113 143 55 24 182 24 154 17 113 2 114 155 2 23 23 55 123 128 23 152 116 125 17 23 148 137 120 125 148 2 152 3 115 133 152 3 44 23 55 23 126 13 125 114 113 121 154 154 123 116 121 155
split_gain=4894.53 104.347 78.8881 69.7816 154.671 117.721 107.524 116.738 107.498 92.9811 134.808 122.114 92.4608 90.4565 90.135 91.0412 94.2487 99.0786 100.967 87.2865 84.9211 82.5793 81.7651 79.7598 78.9353 75.457 74.189 81.4624 72.444 72.4415 70.2039 66.3522 64.9087 62.191 60.9342 59.7537 61.4559 56.0364 56.0016 55.1682 54.6349 99.5209 54.4419 80.5308 57.466 51.218 49.4804 47.169 44.2213 42.5688 41.4461 41.4381 57.9143 40.9834 39.8799 39.6156 38.6167 58.2579 38.5778 72.827 45.721 54.0842
threshold=0.0093041370953782249 1.5000000000000002 6341.7650000000012 44.500000000000007 1.0000000180025095e-35 0.17156862745098042 35.500000000000007 4687.3150000000005 17.500000000000004 48.500000000000007 64.500000000000014 2.5000000000000004 1176.5000000000002 0.94523170366069065 0.087121212121212141 0.60207909598847331 7080980.8450000016 448.59000000000009 53.500000000000007 14778.140000000001 16.500000000000004 2394780.3351666671 2979.5250000000005 492.48499999999996 -243.72999999999993 1436.5000000000002 21.500000000000004 12.500000000000002 2815.3400000000001 19.500000000000004 27.500000000000004 18.500000000000004 164.68500000000003 837.36000000000013 83.500000000000014 10.500000000000002 9.5000000000000018 7.5000000000000009 142.50000000000003 120641.40500000001 25.500000000000004 6536.8250000000007 57.500000000000007 30.500000000000004 25.500000000000004 4427.7000000000016 56.500000000000007 1690.5350000000003 1738.5000000000002 -137.91499999999999 10.500000000000002 6738.130000000001 11.500000000000002 65.500000000000014 71.500000000000014 3.5000000000000004 2242880.4850000003 6331917.915000001 8.5000000000000018 21.500000000000004 9.5000000000000018 472899.52516666672
decision_type=2 10 2 2 2 2 2 10 2 2 2 2 10 8 2 8 10 2 2 8 2 10 10 10 10 10 2 2 8 10 2 2 2 8 10 2 2 2 10 10 10 2 2 2 10 2 8 8 8 10 2 2 2 2 2 2 10 10 2 2 2 10
left_child=-1 3 35 -2 5 6 8 9 12 11 -11 14 19 32 23 -16 17 18 22 29 -21 30 49 24 38 58 -9 -28 42 55 -18 33 -12 50 -24 36 -3 -25 48 56 -7 -42 54 44 -44 -35 -31 -47 -8 -17 51 52 -32 -39 -15 -5 -22 -58 59 -10 61 -60
right_child=1 2 -4 4 -6 40 7 26 25 10 13 -13 -14 28 15 16 21 -19 -20 20 39 -23 34 37 -26 -27 27 -29 -30 46 31 -33 -34 45 -36 -37 -38 53 -40 -41 41 -43 43 -45 -46 47 -48 -49 -50 -51 -52 -53 -54 -55 -56 -57 57 -59 60 -61 -62 -63
leaf_value=-0.050639608190398422 0.10379112650814924 -0.0021762633544378678 -0.015769119029894613 0.19276161060493743 0.10148641336267086 0.1237128286272261 0.081823187546625972 -0.033505720973480584 -0.018719175228020024 0.18125013603772794 0.08500556136370041 -0.052479035496721442 -0.031263610500368251 0.12432043071299646 0.22271050821716118 -0.046778632118386218 -0.05241887920631131 0.24173601688769578 -0.020639993219037048 -0.045821984480910252 0.26903254432117601 0.14858462847254333 0.064653587808801802 -0.045561450550726162 -0.051634034757135218 0.1786532129993208 0.12105757811365025 -0.011030131421817623 -0.046924110873864645 0.12641843159611135 -0.052338321898352205 -0.052235158460451715 -0.051671038608569253 0.17214227354313894 0.242649348444541 -0.048506628852154635 0.09219445517565894 0.1510402833294352 -0.049476859318531581 0.016940506588455119 -0.02929538352590956 0.10400289051245895 0.098826101234950711 0.0068900253423696631 0.2370860459964563 0.14614144429299494 -0.03541617585218769 -0.047709838014586205 -0.016563113910660798 0.094188739417529477 -0.005844789566346713 0.12718586244935956 0.087516012550859112 0.042352373555244342 -0.047030929310375384 0.022866395357152378 0.012504117272450599 0.18014626236062087 0.093312665676986484 0.09862485790881266 0.049014211172046851 0.217368801359061
leaf_weight=563.50564877968282 7312.7866024039686 19.125317186117172 26.147103246301413 7.4969819784164411 3209.374273724854 198.73783873021603 47.492029818706214 48.981703682802618 14.791708724573253 40.352895116433501 13.86170034855604 23.177330718375742 23.259498685598373 4.9079764503985626 10.351979084312914 6.210544414818286 17.815666515380144 13.124374080449341 15.12043717317283 5.8062290027737609 8.7465810030698758 18.531953621655703 8.0112366881221551 6.0918347369879475 34.362660643644631 41.518901554867625 22.022083973512053 23.241155551746488 6.3219282217323771 4.5980870928615332 11.815437601879241 12.867949683219193 19.898983744904399 19.202982088550929 16.589118665084243 8.5006705652922374 162.14033366553485 23.59813417121768 13.846584018319843 6.8214814793318501 18.069546170532703 55.290531851351261 15.478106955066322 8.1961672902107221 20.294674141332507 4.3493979088962043 29.222758747637272 6.7085355054587144 14.444642994552849 22.504922596737746 30.118137538433075 17.65496739000082 16.686281813308597 15.224389173090456 7.0653216727077961 6.3872355557978153 7.341227617114785 18.654076889157295 18.904429528862238 100.4203873462975 12.687127431854604 21.58103995397687
leaf_count=39299 1072 316 538 44 1105 369 582 795 233 156 123 399 401 27 62 103 274 80 190 107 49 59 88 128 790 96 85 327 108 24 157 167 341 64 91 192 1086 146 326 87 145 139 108 129 127 27 572 100 284 128 320 61 101 229 115 98 109 74 59 199 71 85
internal_value=0.0932949 0.100061 0.0649702 0.100698 0.0956104 0.0805335 0.0723186 0.0604326 0.0958216 0.0690526 0.105117 0.0572735 0.0568855 0.0715336 0.0637167 0.0824331 0.0753842 0.118868 0.0920912 0.0786036 0.126064 0.0519683 0.123945 0.0334539 0.0102251 0.117375 0.00876626 0.0543545 0.106807 0.0297533 0.0379032 0.0517447 0.00513382 0.0647194 0.189669 0.0761455 0.0822527 0.0888466 0.0386464 0.150706 0.109872 0.0711501 0.124787 0.150115 0.181714 0.124494 -0.0102718 0.0339192 0.0588999 0.062984 0.039636 0.0689137 0.0295608 0.110677 0.026991 0.121727 0.175622 0.135205 0.10127 0.083485 0.137461 0.163208
internal_weight=12558.4 11994.9 215.913 11779 4466.23 1256.86 984.762 656.524 328.238 562.279 136.378 425.902 118.334 96.0249 402.724 247.664 237.312 81.5606 68.4363 95.0747 47.3696 155.751 53.3158 155.06 110.146 209.904 94.2449 45.2632 62.2642 47.7051 137.219 119.404 33.7607 106.536 24.6004 189.766 181.266 44.9144 75.7833 41.5634 272.098 73.3601 55.9422 43.9689 35.7728 30.2609 33.8208 11.0579 61.9367 28.7155 76.2748 46.1567 28.5017 38.8225 11.9733 13.8842 34.7419 25.9953 168.385 115.212 53.1726 40.4855
internal_count=53966 14667 2132 12535 11463 10358 9705 7397 2308 6190 1234 4956 1565 1078 4557 2072 2010 680 600 1164 426 1330 410 2485 1982 743 1207 412 614 738 1271 997 464 830 179 1594 1402 503 1192 319 653 284 506 364 235 191 596 127 866 231 639 319 258 375 142 142 232 183 647 432 215 144
is_linear=0
shrinkage=0.05


Tree=11
num_leaves=63
num_cat=0
split_feature=180 46 41 145 183 145 54 9 183 123 111 131 2 111 115 111 142 145 17 16 111 140 183 153 5 153 2 121 46 121 119 125 2 16 54 1 181 113 153 2 123 137 140 117 18 145 121 54 24 145 113 118 138 131 129 132 18 147 18 16 183 148
split_gain=4313.32 121.675 235.848 118.733 118.7 86.3774 123.769 136.914 103.22 121.299 124.462 112.102 113.995 108.684 96.5894 100.106 95.8821 93.4454 89.301 88.2224 88.0958 118.336 74.8315 68.8372 67.6251 91.6454 67.596 67.5664 63.3543 60.8195 91.1429 60.6872 70.6678 59.9377 55.1845 52.6156 56.5384 50.1944 88.2854 56.9245 70.508 49.3826 59.1776 48.3505 48.1472 48.5176 46.8482 53.23 45.173 48.911 43.3985 56.138 42.3032 41.5377 41.0259 59.4968 40.1089 197.32 114.399 37.4716 36.8138 36.4979
threshold=1.0000000180025095e-35 44.500000000000007 1.0000000180025095e-35 0.26077632198625406 0.11695969116993817 0.27280370066719445 728.50000000000011 -54431.07499999999 0.062437850331357535 5.5000000000000009 122.50000000000001 40.500000000000007 53821.210000000014 48.500000000000007 53.500000000000007 58.500000000000007 4.5000000000000009 0.26704179771523323 310.3300000000001 18.225000000000005 27.500000000000004 1.5000000000000002 0.05953054466182648 8361517.8563660914 -1179544.5449999997 2985851.7837247862 48633.500000000007 7.5000000000000009 765.50000000000011 32.500000000000007 57.500000000000007 15.500000000000002 95317.170000000013 23.695000000000004 3550.5000000000005 1.5000000000000002 6.5000000000000009 76.500000000000014 1580793.2567496106 2336.4100000000003 9.5000000000000018 2.5000000000000004 2.5000000000000004 69.500000000000014 1320.5000000000002 0.2711178485486711 4.5000000000000009 1050.5000000000002 0.97798148024828746 0.27959764299902551 55.500000000000007 16.500000000000004 3.5000000000000004 8.5000000000000018 23.500000000000004 4.5000000000000009 105.50000000000001 1.0000000180025095e-35 320.50000000000006 9.8550000000000022 0.069197275292347468 203.50000000000003
decision_type=2 2 2 2 2 2 2 2 2 2 2 2 8 2 2 2 2 2 2 2 2 2 2 10 10 10 8 2 2 2 2 2 10 2 2 2 2 2 10 8 2 2 2 2 2 2 2 2 8 2 2 2 2 2 2 2 2 10 2 2 2 10
left_child=-1 -2 3 -3 5 8 23 54 11 33 14 12 18 17 15 31 -13 -14 19 50 21 27 -23 26 25 -17 48 -9 52 34 -31 32 35 -10 41 37 -37 39 -39 40 -11 42 -22 -15 45 -27 47 -20 49 -7 51 59 -21 -54 55 -8 -4 58 -58 -5 -60 -6
right_child=1 2 56 4 61 6 7 20 9 10 -12 16 13 43 -16 24 -18 -19 46 28 29 22 -24 -25 -26 44 -28 -29 -30 30 -32 -33 -34 -35 -36 36 -38 38 -40 -41 -42 -43 -44 -45 -46 -47 -48 -49 -50 -51 -52 -53 53 -55 -56 -57 57 -59 60 -61 -62 -63
leaf_value=-0.05059784966558957 0.098374963926846526 0.10571023726574602 0.11481054198135072 0.052340025723666674 0.078701645495254713 0.080775330468484105 0.16788277741440449 -0.051888713369794427 -0.05333838238396621 -0.050190172408041425 -0.051306408100539339 0.36466192341958087 0.0079003959232067274 -0.029318858236277581 0.19255677595209242 -0.040049631398460496 0.041776970114780647 0.15458449838658894 0.22040101317741537 -0.048381786756214407 -0.030244019916866767 0.26137191837107215 0.051148254947824504 0.1675338535136465 0.11834473198815117 -0.052122761883091819 -0.050823206083063323 0.074039811189814439 0.1321357723520514 0.095016156021990941 -0.050736247765302549 0.19678766631665395 -0.016960200296407917 0.12820268479621791 0.084702601170495009 0.14138337697676814 -0.022632627878447449 0.069927220314795965 0.31670043976117263 0.12763268966485208 0.08992103313912965 -0.049682241515555774 0.10439544919808781 0.13555894293656881 0.15763514209422946 0.092561606536706198 -0.037788333588513946 -0.040052967803449045 0.037167276607894914 0.22210364401027327 -0.035440571502973195 0.12092100066769916 0.16898969897507457 0.0027359808772748975 0.22447327757749622 -0.046882824722081579 0.10298814633668343 0.095587010952185955 -0.065458828040447337 -0.049678386166952193 0.026486230783178074 0.1275304364098325
leaf_weight=535.56842062622309 7395.6272082366049 211.31635652389377 266.9080026820302 17.84325024113059 85.759316446259618 24.807256586849689 6.0210196338593978 19.162945930846035 21.524289252236489 10.340550772845743 13.645010486245154 4.1054215021431428 14.05688522569835 22.017559126019481 25.649292474612594 32.708379413932562 4.7908678501844406 49.623240848071873 2.9814681205898514 10.234738089144232 20.913316578604281 9.0160414371639508 8.49588495492935 20.189786225557327 22.180857861414552 9.3503139745444077 10.437995742075143 21.601000908762217 34.804163754917681 28.871917631477118 15.895715041086076 18.132091073319316 11.852207500487564 4.7020284142345181 10.004729931242762 6.8270548507571247 15.216507790610192 7.709706246852873 7.4879203476011753 110.52172847092152 46.407196529209614 97.874714671634138 12.033232882618902 4.5100582689046851 10.955228466540573 12.30945463106036 64.475394055247307 3.3065213337540627 31.390132956206799 8.4328814130276424 31.690505795180798 13.642254703678189 6.0321137756109229 8.2730940431356412 8.2962519256398064 5.2732552066445351 21.146346598863602 2918.4708682205528 31.006066896021366 16.224106844514608 15.724415123462675 84.965258732438087
leaf_count=39243 1107 591 47 215 271 228 24 352 308 151 204 37 177 443 91 415 69 285 35 219 336 68 70 49 114 100 165 128 372 183 302 62 110 25 76 13 176 85 25 450 175 1694 117 19 33 55 1322 72 339 34 725 126 28 126 35 87 27 855 163 383 47 83
internal_value=0.0881706 0.094324 0.0879157 0.0709092 0.0648233 0.0584452 0.0383025 0.0204601 0.0687478 0.0859837 0.0935064 0.0468809 0.041239 0.0879488 0.0993354 0.0913211 0.213078 0.122905 0.0207811 0.0440001 0.00994211 0.0630232 0.167925 0.0868728 0.0448605 0.0184251 0.0631959 0.0148967 0.0895892 -0.00694684 0.0431766 0.108373 0.100069 -0.0170935 -0.0231081 0.106925 0.0318785 0.115741 0.203868 0.106541 0.0638764 -0.031971 0.0204104 0.00243716 0.0766629 0.0303382 -0.0246529 0.0960526 0.0821804 0.122215 0.00917382 0.0390302 0.02624 0.0796282 0.144307 0.0715455 0.0954015 0.0936273 0.00912786 0.0035814 -0.0345086 0.103633
internal_weight=12621.3 12085.8 4690.15 1436.89 1225.57 1054.85 358.718 263.46 696.131 387.52 361.294 308.612 299.715 90.2077 347.648 321.999 8.89629 63.6801 209.508 138.744 243.869 58.2759 17.5119 95.2581 87.5042 65.3234 75.0683 40.7639 59.3441 185.594 44.7676 234.495 216.363 26.2263 140.826 204.511 22.0436 182.467 15.1976 167.269 56.7477 130.821 32.9465 26.5276 32.615 21.6598 70.7634 6.28799 64.6303 33.2401 79.4001 47.7096 24.5399 14.3052 19.5905 11.2943 3253.26 2986.35 67.8768 34.0674 46.7305 170.725
internal_count=53966 14723 13616 12477 11886 11532 4287 3472 7245 2592 2259 4653 4547 924 2055 1964 106 462 3623 2194 3326 618 138 815 717 603 766 480 745 2708 485 1247 1185 333 2223 1075 189 886 110 776 326 2147 453 462 188 155 1429 107 601 262 1449 724 373 154 146 111 1139 1092 237 598 210 354
is_linear=0
shrinkage=0.05


Tree=12
num_leaves=63
num_cat=0
split_feature=182 46 41 15 138 13 116 110 123 2 182 138 46 133 115 23 114 149 141 116 55 23 181 55 15 2 23 44 113 113 182 134 4 23 48 15 113 138 3 183 123 59 128 27 113 51 23 46 23 50 133 182 114 129 131 15 133 3 150 5 23 48
split_gain=3845.87 137.25 251.567 150.154 80.3464 71.0804 63.1536 75.3298 81.2162 71.3322 68.6591 189.383 81.7825 67.027 70.0946 66.7232 59.7293 59.4589 57.1331 66.9645 55.8118 52.7336 51.1813 75.9617 85.6354 51.812 66.5076 51.9933 50.9496 50.0605 49.3778 46.699 46.4864 45.4355 69.1258 47.9153 46.5363 42.0714 41.7028 40.2815 40.1314 46.7259 41.1479 60.3508 43.9121 43.1963 65.0503 64.6229 45.8493 38.3237 38.0888 70.3274 50.5786 52.6084 37.3053 36.3741 33.0347 32.6624 32.6413 32.2147 31.9458 33.1437
threshold=0.0093041370953782249 44.500000000000007 1.0000000180025095e-35 24.500000000000004 10.500000000000002 102248.09500000002 8.5000000000000018 398.50000000000006 7.5000000000000009 21281.340000000004 0.087121212121212141 8.5000000000000018 1429.5000000000002 19.500000000000004 54.500000000000007 716.0350000000002 24.500000000000004 27.500000000000004 1.5000000000000002 17.500000000000004 123.50000000000001 -243.72999999999993 11.500000000000002 131.50000000000003 33.500000000000007 266047.31000000006 -77623.809999999983 119.50000000000001 55.500000000000007 91.500000000000014 0.13809523809523813 7.5000000000000009 5654.1850000000004 -89.475000000000009 4418.5000000000009 34.500000000000007 67.500000000000014 12.500000000000002 1142.4150000000002 0.11695969116993817 39.500000000000007 3.5000000000000004 7.5000000000000009 1.0000000180025095e-35 46.500000000000007 1.0000000180025095e-35 393.45499999999987 856.50000000000011 7398.7050000000017 1.0000000180025095e-35 11.500000000000002 0.17156862745098042 90.500000000000014 19.500000000000004 8.5000000000000018 39.500000000000007 5.5000000000000009 358788.66000000009 9.0416666666666696 -82304.989999999976 -17658.634999999998 7190.5000000000009
decision_type=2 2 2 2 2 2 2 2 2 10 2 2 2 2 2 10 2 10 2 2 10 8 2 10 2 8 10 10 2 2 2 2 2 10 2 2 2 2 2 2 2 2 2 2 2 2 10 2 8 2 2 2 2 2 2 2 2 2 10 10 8 2
left_child=-1 -2 3 5 17 6 -3 9 31 18 11 12 15 14 50 57 -7 22 19 20 -8 -15 25 24 30 26 -5 40 -26 37 -24 -9 -17 34 35 -25 -35 -13 -31 -27 41 42 45 44 -44 48 47 54 56 -45 60 52 53 -52 -47 -46 -28 59 -36 -10 -12 -62
right_child=1 2 -4 4 -6 16 7 8 10 -11 13 29 -14 21 -16 32 -18 -19 -20 -21 -22 -23 23 33 28 39 27 -29 -30 38 -32 -33 -34 36 58 -37 -38 -39 -40 -41 -42 -43 43 49 55 46 -48 -49 -50 -51 51 -53 -54 -55 -56 -57 -58 -59 -60 -61 61 -63
leaf_value=-0.050558586687950081 0.093736154621031409 -0.019749313159775257 0.090480154986251962 0.19245918202096177 -0.05163147422764152 0.10126242343794707 0.068509283597813359 -0.052243137673028753 -0.052076020925849044 0.15399324827633487 0.14521936903370578 -0.044672161980276799 0.14853175425146181 0.073457822956665753 0.16841459335179781 0.087407762650656001 -0.053810475820775278 -0.048765220853005581 0.15897692392073137 0.097264022094583846 -0.051376510709931968 -0.051288965366264205 -0.050888643378076359 0.10984986975665972 0.10994702866655758 -0.052531955458335125 0.048535892463719449 -0.050821673133797644 0.024092373812799588 0.25384800448175837 0.080792601570459421 0.075405080662540355 -0.019475644917337009 -0.043052304003588476 0.096724455313149202 0.0047748595353301043 0.038849214766465384 0.15280948451267412 0.097892862488490204 0.092601293015758881 0.15246182569124855 -0.020986701621797072 -0.017111833907746617 0.075044394890090529 0.10371606252014327 0.073296151803321885 -0.024926271590778974 -0.015584562673067704 0.20968873245523661 -0.054894516959110365 -0.017817978251052299 0.10758254374619369 -0.051976855544118419 0.1235614790800636 0.16823391692078843 0.019897457604784962 0.12415652548811101 0.12327505452516858 -0.027337449083537885 0.10876373190226343 0.069377818493960422 0.11133506893615255
leaf_weight=510.73208485357463 7374.0119579061866 14.435209652408956 3258.6281941011548 10.274595554918049 19.029642796143889 8.3466504141688365 22.536039565689862 19.127255280502144 51.135402578860521 64.044904300943017 33.486264873296022 5.0886552073061484 9.4358908887952548 18.597647646442056 30.713152511045337 26.465340482071042 17.494964497163892 13.950686600059269 25.792204106226563 106.64120161160827 15.559045860543845 13.960216738283632 20.340285507962111 34.049501974135637 72.192277634516358 15.015573048964145 25.836085725575686 8.4250868801027519 23.703432470560074 12.479488477110865 9.6801507435739023 10.122377078048883 15.558158017694948 48.087692629545927 5.1888539921492329 15.997201718389986 25.841251308098435 3.9806424900889397 9.3456029519438726 5.8148252964019767 13.777293413877485 14.273119559511541 12.715389061719177 6.8719122093170908 51.011404013261199 32.702538650482893 17.219634061679244 12.829041700810192 10.606214443221686 19.459754208102822 12.052133806049826 35.027743572369218 17.240495840087533 12.799787495285271 17.035443065688014 18.177073299884796 39.760875977575779 2.1564239282160989 35.982195058837533 2.3718420453369609 107.90288228914142 99.06236619874835
leaf_count=39299 1106 226 1136 36 344 28 159 337 1225 189 62 101 97 122 68 217 269 381 110 173 275 208 446 172 407 214 167 110 315 63 38 64 314 886 11 216 316 11 105 11 48 162 133 41 208 135 227 161 38 245 135 80 262 34 57 138 138 14 601 13 684 378
internal_value=0.0837549 0.089423 0.0826899 0.0654708 0.0474739 0.0797321 0.0823748 0.0842875 0.073815 0.108319 0.0783776 0.0475314 0.0154833 0.0893893 0.0957968 0.00120625 -0.00163024 0.0505195 0.0903386 0.077066 0.0193551 0.0198852 0.0528259 0.0372616 0.0663772 0.066311 0.0714125 0.0666357 0.0892448 0.154529 -0.00703088 -0.00687041 0.0481877 0.0147664 0.0382134 0.0771126 -0.0142212 0.0480764 0.194501 -0.00940284 0.0702003 0.0655821 0.0703387 0.0458542 0.06684 0.0868955 0.0597843 0.0832023 0.114075 -0.0192958 0.0882514 0.056265 0.0119389 0.0567679 0.108586 0.0823638 0.0956236 -0.0343988 -0.00966031 -0.0429901 0.0982142 0.0899232
internal_weight=12622.2 12111.4 4737.44 1478.81 655.849 822.96 797.118 782.683 548.11 234.573 518.86 138.017 107.123 380.843 348.285 97.6872 25.8416 636.819 170.528 144.736 38.0951 32.5579 622.869 291.063 125.916 331.806 310.975 300.701 95.8957 30.8944 30.0204 29.2496 42.0235 165.147 91.2178 50.0467 73.9289 9.0693 21.8251 20.8304 292.276 278.498 264.225 108.236 81.9039 155.99 79.7867 62.567 76.2032 26.3317 317.572 77.1202 42.0924 24.8519 49.738 69.1885 65.597 55.6637 41.171 53.5072 240.452 206.965
internal_count=53966 14667 13561 12425 6402 6023 5726 5500 4594 906 4193 2160 1880 2033 1703 1783 297 6058 717 607 434 330 5677 3408 1206 2269 2044 2008 722 280 484 401 531 2202 1000 388 1202 112 168 225 1898 1850 1688 765 479 923 580 353 343 286 1635 511 431 169 192 346 305 1252 612 1238 1124 1062
is_linear=0
shrinkage=0.05


Tree=13
num_leaves=63
num_cat=0
split_feature=182 19 43 116 111 110 24 116 136 54 182 3 15 117 148 111 138 23 148 9 1 121 138 24 112 23 155 15 113 1 24 16 140 150 3 121 23 124 24 136 113 15 130 116 133 153 112 113 133 133 23 129 54 23 148 23 110 23 134 128 16 110
split_gain=3444.46 53.1756 56.7687 62.2055 89.4874 63.7801 53.41 48.7325 170.89 96.8718 46.7936 45.6917 39.7542 58.4782 37.6734 45.0164 33.3042 32.7066 41.2456 32.6735 31.7107 25.5365 41.3043 27.813 70.7208 26.2228 51.3299 25.602 31.4052 25.4135 35.9229 24.0078 64.1839 28.0747 23.3867 34.5122 44.6534 32.4418 41.008 22.7544 21.7289 32.2686 20.662 34.9121 53.3061 27.5813 31.0897 20.2076 34.4556 19.6387 18.2541 22.2086 17.6744 19.5659 33.6795 17.5657 36.3941 15.5169 28.0786 14.3867 50.3291 13.9625
threshold=0.0093041370953782249 1.0000000180025095e-35 23.500000000000004 17.500000000000004 40.500000000000007 376.50000000000006 1.3227649986704975 42.500000000000007 6.5000000000000009 282.50000000000006 0.16025641025641027 142542.10500000004 27.500000000000004 73.500000000000014 37.500000000000007 16.500000000000004 6.5000000000000009 -10107.124999999998 22.500000000000004 -27959.164999999997 1.5000000000000002 19.500000000000004 2.5000000000000004 1.0526726305104035 66.500000000000014 216.96500000000006 1385507.7078333336 11.500000000000002 97.500000000000014 2.5000000000000004 2.2943835464707529 10.005000000000001 3.5000000000000004 30.421448087431695 21408.565000000006 5.5000000000000009 -443.17999999999989 4.5000000000000009 0.84286826137180404 2.5000000000000004 44.500000000000007 28.500000000000004 5.5000000000000009 20.500000000000004 5.5000000000000009 844993.27776213118 72.500000000000014 101.50000000000001 13.500000000000002 5.5000000000000009 -18975.334999999995 7.5000000000000009 2028.5000000000002 169.79500000000004 498.50000000000006 95487.580000000031 1028.5000000000002 -839.24499999999898 6.5000000000000009 7.5000000000000009 11.525 909.50000000000011
decision_type=2 2 10 2 2 2 10 2 2 2 2 2 2 2 10 2 2 8 10 2 2 2 2 8 2 8 8 2 2 2 10 2 2 10 2 2 8 2 10 2 2 2 2 2 2 10 2 2 2 2 8 2 2 8 10 8 2 8 2 2 2 2
left_child=-1 2 3 5 42 6 17 8 11 -10 19 21 55 29 -8 -16 -11 20 39 -7 -2 23 -23 31 -25 26 -26 -24 -29 40 -31 32 -6 49 37 -36 -37 52 57 -19 41 -14 -5 44 45 -44 -47 61 -49 -33 51 -45 -20 54 -54 -9 -57 -39 -59 -27 -61 -42
right_child=1 -3 -4 4 7 10 14 12 9 16 -12 -13 13 -15 15 -17 -18 18 34 -21 -22 22 27 24 25 59 -28 28 -30 30 -32 33 -34 -35 35 36 -38 38 -40 -41 47 -43 43 50 -46 46 -48 48 -50 -51 -52 -53 53 -55 -56 56 -58 58 -60 60 -62 -63
leaf_value=-0.050520272398153758 -0.052753828398725125 0.088324673766229073 0.088732330178883045 0.096706702711857148 -0.051822172566078475 0.061991576838901691 -0.055787026896154571 0.085383084777663362 0.099181399011969235 -0.05864979043283735 0.061159118214929913 -0.022546595396587564 0.077929753707592211 -0.029944512268440655 0.11470392440941829 -0.021833232493610483 0.045095398618344738 -0.051485081447155502 0.09103623268007105 -0.054674274532188996 0.082709053195892418 0.15853369396743605 0.098835396499048156 -0.054562425362147088 -0.05324365310261419 0.081219004126560634 0.085654463985314289 -0.051279536528017845 0.080860036355172693 -0.050145767143445333 0.08162949753433861 0.075711297959915991 0.16875938549383063 0.069638709318572301 0.080472806840035341 0.22179705315314382 0.073220629155423975 0.082430035091017137 -0.049756813663317689 0.063309253757633771 0.092051521638970568 -0.051869851560116476 0.10417304600398863 0.078916781462068958 -0.051804677751609032 -0.050239668177779001 0.079723822653267218 0.07575223033128918 -0.048643718296217699 0.13914281708059675 0.083514372656179753 0.13799414320905509 -0.050824750646772957 0.077168945947570053 0.078773939014953345 0.094862796010178829 -0.047907145062393242 -0.050239282916064859 0.075163430596498437 0.075166051946770174 -0.051637497361362611 0.069788283655321207
