tree
version=v4
num_class=1
num_tree_per_iteration=1
label_index=0
max_feature_idx=186
objective=binary sigmoid:1
feature_names=avg_balance num_chequebooks monthly_avg_balance quarterly_avg_balance daily_avg_balance loan_sum loan_count cc_sum cc_count od_sum od_count ka_sum ka_count sa_sum sa_count branch_employee_count branch_turnover branch_asset_size account_age_days is_frozen product_family_S product_family_K product_family_O balance_monthly_daily_diff balance_monthly_daily_ratio nomination_flag_num cheque_allowed_num cheque_availed_num kyc_compliant_num rural_branch_num pan_available_num aadhaar_available_num passport_available_num mobile_banking_flag_num internet_banking_flag_num atm_card_flag_num demat_flag_num credit_card_flag_num fastag_flag_num joint_account_flag_num nri_flag_num was_frozen was_unfrozen freeze_duration_days days_since_mobile_update mobile_updated_recently days_since_kyc customer_age_years relationship_duration_days kyc_doc_count digital_adoption_score pin_match_branch pin_match_permanent is_male days_since_address_update days_since_passbook_update branch_type_urban branch_type_semi_urban branch_type_rural total_product_count total_outstanding has_loans has_credit_cards scheme_APY scheme_PMJDY scheme_PMJJBY scheme_PMSBY scheme_REGULAR scheme_SCSS scheme_SSA txn_count txn_total_amount txn_total_abs_amount txn_min_amount txn_max_amount txn_max_abs_amount txn_structuring_count txn_round_1k_count txn_round_5k_count txn_round_10k_count txn_round_50k_count txn_month_boundary_count txn_night_txn_count txn_weekend_txn_count txn_unique_counterparties_part txn_unique_mcc_part txn_unique_channels_part txn_credit_count txn_credit_total txn_debit_count txn_debit_total txn_unique_credit_cp txn_unique_debit_cp txn_mean_amount txn_mean_abs_amount txn_std_amount txn_credit_debit_count_ratio txn_credit_debit_amount_ratio txn_active_span_days txn_per_day txn_structuring_pct txn_fan_ratio txn_round_1k_pct txn_round_5k_pct txn_round_10k_pct txn_round_50k_pct txn_month_boundary_pct txn_night_txn_pct txn_weekend_txn_pct ch_UPC ch_UPD ch_END ch_IPM ch_STD ch_P2A ch_FTD ch_NTD ch_MCR ch_FTC ch_MAC ch_TPD ch_APD ch_CHQ ch_ATW ch_TPC ch_STC ch_OCD ch_RCD ch_IFD ch_ETD ch_NWD ch_CSD ch_IFC ch_PCA ch_MAD ch_CHD ch_RTD ch_CCL ch_OPI ch_CTC ch_SID ch_ASD ch_IAD ch_SCW txn_dominant_channel_count txn_channel_concentration txn_active_channels txn_monthly_txn_std txn_monthly_txn_max txn_monthly_txn_min txn_monthly_txn_mean txn_monthly_txn_cv txn_active_months txn_monthly_amount_std txn_monthly_amount_max txn_monthly_amount_mean txn_burst_months txn_add_lat_min txn_add_lat_max txn_add_lon_min txn_add_lon_max txn_add_geo_txn_count txn_add_unique_ip_part txn_add_bal_after_min txn_add_bal_after_max txn_add_bal_after_sum txn_add_bal_after_count txn_add_ptt_CI_count txn_add_ptt_BI_count txn_add_ptt_IP_count txn_add_ptt_IC_count txn_add_subtype_NORMAL_count txn_add_subtype_LOAN_count txn_add_atm_deposit_count txn_add_geo_lat_spread txn_add_geo_lon_spread txn_add_geo_spread_km txn_add_bal_after_mean txn_add_bal_after_range txn_add_ci_ratio branch_mule_count branch_total_count branch_mule_rate_raw branch_mule_rate_smoothed dormant_ratio income_mismatch_ratio volume_balance_ratio
feature_infos=[-75945400.180000007:189352987.5] [0:3] [-82365133.659999996:209856381.56] [-88036218.930000007:227640719.33000001] [-101552329.90000001:162747451.59] [-18040788.98:-6424.2600000000002] [0:3] [-1341310.1499999999:2063870.6299999999] [0:2] [-2004335:2264846.7400000002] [0:1] [-35528924.289999999:77624430.430000007] [0:2] [-23235727.489999998:20017487.100000001] [0:2] [1:49] [5:245.56] [10.210000000000001:499.95999999999998] [10:3650] [0:1] [0:1] [0:1] [0:1] [-11868243.819999997:62740284.899999999] [0.00043359017406965293:1931.6197758011456] [0:1] [0:1] [0:1] [0:1] [0:1] [0:1] [0:1] [0:1] [0:1] [0:1] [0:1] [0:1] [0:1] [0:1] [0:1] [0:1] [0:1] [0:1] [-888:1044] [1:179] [0:1] [5:1499] [18.496919917864478:80.492813141683783] [30:11138] [0:3] [0:6] [0:1] [0:1] [0:1] [30:3649] [1:1824] [0:1] [0:1] [0:1] [1:7] [-18086756.309999999:2264846.7400000002] [0:1] [0:1] [0:1] [0:1] [0:1] [0:1] [0:1] [0:1] [0:1] [5:11679] [42560.550000000003:446673739.81999999] [42560.550000000003:448026065.25999999] [-6980900:663.75] [25807.630000000001:333771851.56] [25807.630000000001:333771851.56] [0:81] [2:2230] [1:266] [0:99] [0:8] [2:4020] [1:654] [0:2290] [4:115] [4:85] [3:42] [3:5414] [11752.92:309077761.29000002] [2:6265] [30807.630000000001:345113716.00999999] [3:59] [2:70] [8512.1100000000006:266352.6503637713] [8512.1100000000006:266366.82219747588] [8844.1381525595825:9091422.0244832579] [0.62820512820512819:2.1132075471698113] [0.039590730232246386:6.2343396715580157] [0.26126157407407408:1823.4729861111111] [0.10013036895371941:156.06517570176476] [0:0.24409448818897639] [0.32692307692307693:1.5] [0.12727272727272726:0.40000000000000002] [0.0018450184501845018:0.20000000000000001] [0:0.07874015748031496] [0:0.047244094488188976] [0.057839912280701754:0.58181818181818179] [0.023622047244094488:0.20000000000000001] [0:0.31496062992125984] [0:5785] [0:5583] [0:406] [0:666] [0:251] [0:515] [0:210] [0:308] [0:201] [0:133] [0:190] [0:162] [0:132] [0:145] [0:130] [0:119] [0:109] [0:88] [0:200] [0:91] [0:132] [0:119] [0:103] [0:89] [0:90] [0:73] [0:59] [0:57] [0:49] [0:38] [0:38] [0:27] [0:22] [0:18] [0:14] [1:5785] [0.125:0.5] [1:35] [0.25819888974716115:1926.3148585904198] [1:15045] [0:214] [0.033333333333333333:251.06666666666666] [0.059735974655214255:7.8102496759066566] [1:61] [86.044624421304064:376052732.18010473] [672.02999999999997:2916409431.4299998] [11.016885245901639:53198021.245999999] [0:5] [0:34.034034119018145] [8.5737858129706339:34.133608250430385] [0:93.817753253805165] [70.852047793593897:93.917511902126478] [1:3032] [3:4028] [-100000000:1505884.27] [-1510525.3600000001:100000000] [-267950681813.97:594257621741.19995] [5:11679] [5:11246] [0:408] [0:60] [0:60] [2:11492] [0:221] [0:46] [0.092914412355124654:31.683894184865988] [0.09293293007421255:91.943288444580801] [12.997160187364647:8316.840248785682] [-78924481.496755213:86283131.278191984] [927072.52000000002:105506189.97] [0.65454545454545454:1] [0:30] [1:109] [0:0.58139534883720934] [0.0023463402907030794:0.48837442733215591] [0:0.99962888980955389] [0.48370834637522803:598948.68327695364] [0.79770568864015068:796374.80262815498]
tree_sizes=6673 6699 6731 6749 6774 6751 6727 6766 6773 6773 6748 6798 6785 6823 6781 6809 6809 6839 6815 6823 6817 6831 6832 6830 6820 6827 6806 6841 6839 6834 6825 6849 6844 6850 6843 6854 6848 6864 6832 6855 6834 6810 6862 6837 6863 6837 6840 6867 6872 6874 6869 6849 6842 6865 6857 6866 6888 6869 6871 6838 6878 6848 6874 6865 6857 6843 6835 6888 6885 6876 6926 6872 6869 6886 6870 6900 6877 6886 6872 6894 6890 6879 6874 6916 6891 6887 6919 6843 6876 6904 6892 6919 6858 6959 6890 6927 6870 6860 6902 6869 6891 6885 6894 6948 6946 6965 6931 6903 6932 6889 6864 6908 6885 6877 6923 6970 6885 6943 6937 6899 6888 6945 6919 6898 6893 6921 6934 6920 6881 6918 6897 6885 6870 6902 6851 6884 6922 6874 6954 6960 6903 6943 6925 6938 6936 6901 6903 6898 6965 6913 6869 6862 6861 6902 6933 6913 6870 6869 6901 6888 6905 6877 6913 6965 6953 6946 6961 6953 6956 6953 6945 6921 6940 6941 6954 6932 6932 6885 6926 6959 6869 6860 6889 6898 6922 6942 6925 6889 6946 6951 6947 6979 6887 6970 6956 6885 6915 6896 6893 6919 6946 6900 6900 6937 6895 6962 6897 6940 6952 6959 6960 6954 6933 6965 6933 6918 6922 6936 6952 6922 6962 6942 6958 6947 6951 6968 6939 6888 6922 6881 6948 6940 6941 6935 6923 6946 6952 6957 6965 6933 6918 6924 6972 6942

Tree=0
num_leaves=63
num_cat=0
split_feature=183 46 19 42 156 183 110 147 183 181 181 123 129 134 113 46 180 17 46 129 155 0 0 147 116 136 46 0 151 113 134 3 120 123 17 113 4 127 117 16 116 133 115 113 119 46 13 116 110 18 116 127 119 136 134 117 13 15 155 114 127 46
split_gain=606732 107429 103355 53691.1 7483.12 5023.69 3137.43 1709.06 1314.75 994.761 763.104 757.961 1422.83 675.137 664.505 631.496 448.845 396.582 383.343 616.525 528.981 411.66 391.031 381.227 371.198 362.583 362.367 355.102 324.808 323.255 316.313 307.446 291.762 609.694 508.917 372.489 272.779 265.637 310.394 239.022 224.408 259.048 214.827 197.805 194.127 181.081 166.865 242.978 440.004 426.254 303.661 487.2 285.156 373.044 275.973 206.971 189.719 216.129 224.195 461.821 184.747 156.882
threshold=0.024325505210811851 44.500000000000007 1.0000000180025095e-35 1.0000000180025095e-35 1.5000000000000002 0.079272254586977384 450.50000000000006 207.22221481440982 0.11695969116993817 10.500000000000002 11.500000000000002 8.5000000000000018 6.5000000000000009 1.0000000180025095e-35 86.500000000000014 232.50000000000003 1.0000000180025095e-35 422.86500000000007 1022.5000000000001 31.500000000000004 2745950.3416666673 -6454.8499999999995 21185.255000000001 9.9858303519099376 21.500000000000004 2.5000000000000004 526.50000000000011 19614.545000000002 3.351675758958466 97.500000000000014 6.5000000000000009 35854.370000000003 8.5000000000000018 4.5000000000000009 176.96000000000004 55.500000000000007 17600.775000000005 13.500000000000002 8.5000000000000018 20.320000000000004 36.500000000000007 8.5000000000000018 60.500000000000007 36.500000000000007 12.500000000000002 1230.5000000000002 -60696.07499999999 48.500000000000007 1169.5000000000002 835.50000000000011 88.500000000000014 67.500000000000014 15.500000000000002 4.5000000000000009 10.500000000000002 34.500000000000007 1691.0850000000003 27.500000000000004 805309.54100000008 61.500000000000007 38.500000000000007 705.50000000000011
decision_type=2 2 2 2 10 2 2 8 2 2 2 2 2 2 2 2 2 2 2 2 10 10 8 10 2 2 2 10 10 2 2 2 2 2 2 2 2 2 2 2 2 2 2 2 2 2 2 2 2 2 2 2 2 2 2 2 2 2 10 2 2 2
left_child=16 -2 3 4 5 9 -6 -4 10 11 14 27 -13 26 24 -10 -1 18 19 20 21 -14 61 -12 43 44 -11 -3 -8 -20 -26 -29 33 -15 -35 37 -18 38 -36 -30 -27 -42 -43 -7 -25 46 -34 52 49 54 55 -52 53 -48 -49 60 -54 58 -58 -60 -50 -23
right_child=1 2 7 -5 6 8 28 -9 15 13 23 12 17 32 -16 -17 36 -19 29 -21 -22 22 -24 25 30 40 -28 31 39 -31 -32 -33 45 34 35 -37 -38 -39 -40 -41 41 42 -44 -45 -46 -47 47 48 50 -51 51 -53 56 -55 -56 -57 57 -59 59 -61 -62 -63
leaf_value=-3.7566566319718699 -1.6385229389287899 -3.7154213794690909 -1.6873697237041707 -1.8137197158206917 -2.0197203968925148 -3.1030413401301207 -3.7412984515116423 -2.3765751638686146 -3.7293420994845672 -2.6941351494554597 -3.7455876315475396 -2.5980199476534995 -3.7421410593960336 -3.7032671803411068 -3.7374651188239545 -2.4977005970514998 -3.6604459050379652 -3.678449854079469 -3.6287058805590995 -3.7451030020146239 -2.4634169387958993 -3.2240106024743236 -3.5216776835214425 -3.4323552122916183 -2.3819110436681292 -3.6671920766224058 -3.5743992060439846 -2.9955294603883598 -3.4934181783924081 -3.100513377064861 -3.0534376076148457 -3.6383890091282338 -3.1626676719137832 -3.666860673387446 -3.407160120213351 -3.6212151301063962 -3.092835185392429 -3.5770974031590637 -2.7336876616701913 -2.7825306056937267 -2.8336047782714182 -3.665510156107139 -3.1508245952573612 -3.7366608820810185 -2.6939849337897508 -3.6590563486060295 -3.5939900015187272 -3.4648753176191258 -3.7386258326590998 -3.5737771020467957 -3.0854637264758895 -3.6794464488479139 -3.7376896826151018 -3.1986827281938091 -2.7159246735969478 -3.7268545556499371 -3.7437895122397222 -3.7497529828198362 -2.9105760732221402 -3.651242942032181 -3.1665131454882176 -2.8146402535490282
leaf_weight=920.37645603530109 663.16747244074941 13.009793685749175 234.68861769326031 77.072131970897317 15.565363783389332 2.2669398766011062 2.6467117834836227 17.577830899506807 1.0540002677589679 3.139839155599474 4.0520454738289144 8.0555874388664943 2.8575118370354167 9.6369928289204854 1.9206227101385582 17.429096492007375 4.9057027380913487 6.2641919720917931 11.601951867341993 3.8412454202771178 2.670558549463748 10.852865103632221 5.8635059650987413 2.3631369173526791 7.0120442211627942 5.3507250733673564 2.1184575855731964 3.1778986472636452 3.1430971156805754 3.0503304563462725 7.2353849150240421 3.8048580139875412 2.5948510710149995 5.3273028451949385 3.6149720605462807 3.1958800815045825 3.0034860000014305 2.1653020419180384 7.8949760124087334 2.2644317485392094 1.8792190477251987 5.23361393250525 2.524584386497736 1.8035115692764518 3.4669143073260784 26.214914118871093 18.542880328372124 2.7378925681114179 2.1080005355179336 4.9630042444914579 6.8501722142100316 6.3578808847814798 29.405353406444192 8.4428837299346906 4.0629270616918802 18.373483937233686 3.3493786286562699 7.0735129080712786 3.3757335226982832 4.3904137182980776 2.6182732991874218 7.9200703259557477
leaf_count=39295 1039 546 571 358 110 59 113 261 45 53 173 148 122 402 82 309 200 258 467 164 29 350 222 82 94 219 81 79 116 83 205 153 73 218 126 127 81 83 171 40 33 214 70 77 63 1072 735 98 90 193 198 262 1246 266 79 775 143 302 78 178 74 187
internal_value=-2.76902 -2.0933 -2.53399 -3.00288 -3.26292 -3.32613 -2.41825 -1.72994 -2.92848 -3.42178 -3.09869 -3.2772 -3.19267 -3.48735 -2.86919 -2.56581 -3.75328 -3.29822 -3.2509 -3.15855 -3.08483 -3.18683 -3.12331 -3.31075 -2.78095 -3.22792 -2.97036 -3.55546 -3.29011 -3.4868 -2.65748 -3.29291 -3.50612 -3.36823 -3.22936 -3.10139 -3.39976 -2.99427 -2.90405 -3.09737 -3.39446 -3.26135 -3.45325 -3.33555 -2.90873 -3.53715 -3.51225 -3.52402 -3.43645 -3.18019 -3.53147 -3.34908 -3.58333 -3.45644 -2.9473 -3.64643 -3.65903 -3.53655 -3.40801 -3.27477 -3.38378 -3.01473
internal_weight=2279.53 1351.24 688.076 435.809 358.737 335.117 23.6196 252.266 63.5918 271.526 45.1087 82.9704 62.9778 188.555 20.2385 18.4831 928.286 54.9222 48.658 34.0058 30.1645 27.494 24.6364 24.8702 18.3179 20.8182 5.2583 19.9926 8.05424 14.6523 14.2474 6.98276 183.297 31.8354 22.1984 16.8711 7.90919 13.6753 11.5099 5.40753 14.9881 9.63742 7.7582 4.07045 5.83005 151.462 125.247 122.652 48.0716 11.7638 36.3078 13.2081 74.5802 26.9858 6.80082 23.0998 47.5944 18.189 11.1155 7.76615 4.72627 18.7729
internal_count=53840 14264 13225 12393 12035 11656 379 832 1725 9931 1371 2808 2030 7123 517 354 39576 1882 1624 1074 910 881 759 854 435 681 134 778 269 550 299 232 6989 1127 725 507 281 380 297 156 536 317 284 136 145 5862 4790 4717 1769 370 1399 460 2948 1001 177 939 1947 701 399 256 164 537
is_linear=0
shrinkage=1


Tree=1
num_leaves=63
num_cat=0
split_feature=182 149 44 13 182 41 156 4 132 0 125 24 125 153 152 18 180 130 3 4 4 0 4 151 121 124 117 0 147 129 18 18 124 3 0 4 3 152 0 137 140 111 129 18 151 0 151 3 153 120 151 147 121 182 147 147 151 121 121 121 121 121
split_gain=38666.3 475.193 179.089 164.731 161.177 382.581 222.248 131.775 120.493 152.83 142.054 126.952 118.484 168.867 75.9449 84.3992 67.112 68.9635 65.55 109.179 192.904 125.316 94.2504 157.821 89.5729 135.649 110.132 81.9699 74.2559 158.23 62.2416 101.484 104.502 52.5653 80.963 77.9852 61.4113 48.5254 85.077 45.2949 44.0934 117.929 42.7038 113.855 41.177 39.4074 38.1335 37.7626 37.0894 55.0357 34.7661 32.7225 25.862 22.443 21.9159 18.1922 23.5348 16.8243 40.6658 47.6625 18.3173 36.9201
threshold=0.014658290500666287 2.5000000000000004 90.500000000000014 180.37500000000003 0.093073593073593086 1.0000000180025095e-35 1.0000000180025095e-35 -192518.13999999998 11.500000000000002 4883.8000000000011 4.5000000000000009 0.8602496326427399 3.5000000000000004 1058226.7454133707 59.500000000000007 107.50000000000001 1.0000000180025095e-35 15.500000000000002 116376.85000000002 2864.5650000000005 4439.5150000000003 2562.9600000000005 190917.98000000001 1.3354848812101225 9.5000000000000018 2.5000000000000004 15.500000000000002 2361.4250000000006 93.170764633170407 47.500000000000007 593.50000000000011 107.50000000000001 2.5000000000000004 29609.030000000002 22279.250000000004 67915.520000000004 64291.935000000005 24.500000000000004 127863.69000000002 3.5000000000000004 3.5000000000000004 129.50000000000003 13.500000000000002 904.50000000000011 1.3670329388154376 -1230652.97 1.5130101205854583 16347.245000000001 702659.26924492081 10.500000000000002 1.1775361574186867 71.539997098365106 7.5000000000000009 0.080128205128205135 125.57736429991785 13.480630584445954 1.1126846596158815 30.500000000000004 21.500000000000004 24.500000000000004 16.500000000000004 14.500000000000002
decision_type=2 10 10 2 2 2 10 2 2 10 2 8 2 10 8 2 2 2 2 2 2 10 2 8 2 2 2 8 10 2 2 2 2 2 8 2 2 10 10 2 2 2 2 2 10 10 10 2 8 2 10 10 2 2 10 8 10 2 2 2 2 2
left_child=16 4 3 12 5 6 7 -2 10 -10 11 -5 -3 48 -6 -16 -1 -18 19 21 46 27 23 -20 25 -22 55 57 33 -30 31 -8 -33 34 42 -35 -37 38 -24 45 53 -42 50 44 -44 -15 -21 -11 49 -14 -26 -36 -29 -41 -34 56 -27 58 60 -60 61 -9
right_child=1 2 -4 8 14 -7 30 18 9 47 -12 -13 13 39 15 -17 17 -19 22 20 24 -23 37 -25 28 26 -28 52 29 -31 -32 32 54 35 51 36 -38 -39 -40 40 41 -43 43 -45 -46 -47 -48 -49 -50 -51 -52 -53 -54 -55 -56 -57 -58 -59 59 -61 -62 -63
leaf_value=-0.051104156355223668 -0.040106071718219213 0.47814008200207925 -0.04488382268758144 0.36628088900037115 0.31090965540309634 0.30654599055295367 0.29580181054651716 0.2282150267036118 -0.042817785951957607 0.29431266739285444 -0.048795175008490274 -0.037413982029525693 -0.037943148145532041 0.24014262466265396 0.42369939319992433 0.32774571689213838 -0.039013596313008818 0.26653688217909022 0.5773443084520703 -0.04609977720058734 0.26673151887481544 0.35895478747100662 0.24663584574885383 0.21291420073788012 0.17825371926793809 -0.034266683650834455 0.17399157946266197 0.15655576774177865 -0.045071514719367822 0.23511533002337251 0.34250512808221567 0.27204488513557751 -0.04590640527774964 0.31482788325685562 -0.041257100516179118 0.21809294950251876 -0.038562862394690992 0.28007454879598159 -0.040842158028894959 0.21645183345851704 -0.040607296882797225 0.33114562563397815 -0.043888247931937796 0.24433436114488929 0.13619158005062218 0.039554109879086488 0.16983217454839011 0.13581106859624412 -0.042015623731645191 0.21376668221530984 0.30718178103377336 0.17900890180171963 -0.03947231012721597 0.34682935878282684 0.10763913665969078 -0.047545412070810242 0.17538186322958377 0.2959516733865537 -0.037043657109418225 0.17811867108847657 0.28454179964076132 0.057022522194363712
leaf_weight=876.63776084780693 3.866170745342969 6.3029616121202698 6.290769711136817 4.0769033674150732 3308.9115064591169 1903.2357534710318 50.700496705248952 67.330730080604553 4.8805284183472422 18.416474636644129 13.27837862074375 2.8496214728802443 2.9345093760639402 4.995874859392643 43.621649939566851 194.23185275122523 3.4799941033124915 2.4291199371218681 7.3715173359960291 9.0092502254992706 14.718842465430496 32.553415907546878 4.8652693238109332 7.5805495474487552 14.016778349876402 2.244038358330728 14.299576204270123 1.7275409549474705 7.4486360289156464 12.818046309053896 97.13998082652688 6.0002061743289223 5.6839887052774412 50.546849112957716 4.4793728273361912 5.4855072963982803 3.1813237704336643 29.522777291014791 4.1013322491198778 11.8755667489022 3.8930858690291634 3.2095096483826637 6.2755982950329798 18.182709660381079 4.727132523432374 5.055143600329755 1.5689893476665009 8.3088562004268152 4.4443587418645629 5.031324053183198 25.386872824281454 1.4583500549197195 3.5624291263520718 32.270897511392832 2.5607834588736296 11.156862825155258 1.5022667739540336 32.638445563614368 2.8355437573045483 11.105611780658363 37.288636557757854 4.2083619534969321
leaf_count=39297 128 90 184 47 4903 910 118 1099 151 91 398 94 93 11 16 209 120 62 118 321 102 180 6 83 167 78 173 41 261 74 42 6 112 350 166 27 110 164 139 95 131 63 231 140 92 114 47 112 145 86 169 30 125 124 71 364 35 252 106 168 263 136
internal_value=0.259697 0.303706 0.208695 0.221081 0.305832 0.295032 0.259308 0.240023 0.146576 0.206312 0.0475752 0.2158 0.266858 0.242566 0.313433 0.347064 -0.0499257 0.106266 0.242496 0.233799 0.205687 0.262889 0.302289 0.417825 0.216751 0.147021 0.0796843 0.241298 0.235529 0.134626 0.31209 0.262018 0.129932 0.24967 0.213885 0.290326 0.129122 0.247836 0.123737 0.276338 0.297164 0.146899 0.229059 0.170535 0.0379642 0.152418 -0.00173836 0.251891 0.0672071 0.126593 0.26699 0.0301257 0.0384617 0.317439 0.0077278 -0.0157398 0.0679876 0.24788 0.232772 0.134471 0.24398 0.219138
internal_weight=7091.81 6209.27 138.115 131.824 6071.15 2524.39 621.151 459.065 51.8108 31.6059 20.2049 6.92652 80.0132 73.7103 3546.77 237.854 882.547 5.90911 455.199 401.758 208.507 193.251 53.4414 14.9521 197.929 43.9216 29.2027 160.697 154.007 20.2667 162.085 64.9455 14.245 133.74 74.5268 59.2137 8.66683 38.4894 8.9666 61.3001 51.2491 7.1026 68.5891 29.1854 11.0027 10.051 10.5782 26.7253 12.4102 7.96583 39.4037 5.93772 5.28997 44.1465 8.24477 14.9032 3.74631 155.407 122.769 13.9412 108.828 71.5391
internal_count=53840 14361 2029 1845 12332 7204 6294 5945 893 354 539 141 952 862 5128 225 39479 182 5817 5307 2937 2370 510 201 2569 752 650 2190 1817 335 349 307 189 1482 995 487 137 309 145 538 413 194 799 463 323 125 368 203 324 179 336 196 166 219 183 477 113 2024 1772 274 1498 1235
is_linear=0
shrinkage=0.05


Tree=2
num_leaves=63
num_cat=0
split_feature=180 149 46 151 146 23 111 113 119 126 41 46 183 46 126 148 152 133 181 134 129 115 136 124 111 115 151 46 0 4 130 151 134 139 124 0 121 126 18 18 148 0 119 110 120 110 115 115 46 3 121 119 4 151 151 0 131 181 120 46 151 151
split_gain=24638.3 261.631 155.522 171.19 193.998 184.83 172.851 157.328 114.805 178.817 110.864 357.478 168.143 500.606 215.74 185.466 156.434 149.214 146.263 143.128 137.259 165.084 166.748 126.706 117.929 167.451 117.013 116.693 111.708 120.856 99.0469 136.812 96.3127 95.7057 327.952 159.07 131.256 119.266 110.936 274.991 110.406 95.1741 88.0978 84.3611 80.7674 122.116 85.5238 104.509 75.6335 225.118 228.399 173.281 150.152 139.555 179.92 268.635 275.017 104.197 97.6234 86.4965 95.5269 85.5808
threshold=1.0000000180025095e-35 2.5000000000000004 44.500000000000007 0.23939507702085819 33.500000000000007 -525.26999999999964 56.500000000000007 83.500000000000014 50.500000000000007 19.500000000000004 1.0000000180025095e-35 1375.5000000000002 0.062437850331357535 56.500000000000007 5.5000000000000009 41.500000000000007 28.500000000000004 1.5000000000000002 12.500000000000002 7.5000000000000009 9.5000000000000018 17.500000000000004 4.5000000000000009 6.5000000000000009 14.500000000000002 19.500000000000004 1.0642550098272738 194.50000000000003 29843.575000000004 56543.605000000003 6.5000000000000009 3.5503641972275424 4.5000000000000009 3.5000000000000004 15.500000000000002 96073.610000000015 18.500000000000004 19.500000000000004 898.50000000000011 826.50000000000011 222.50000000000003 2935.0700000000006 14.500000000000002 1115.5000000000002 32.500000000000007 1096.5000000000002 33.500000000000007 52.500000000000007 257.50000000000006 34923.710000000014 30.500000000000004 39.500000000000007 1610.7200000000003 1.5033219943056977 0.32805185076323101 1795.7250000000001 5.5000000000000009 12.500000000000002 33.500000000000007 916.50000000000011 1.2043302476322089 1.3031015850364711
decision_type=2 10 2 10 2 10 2 2 2 2 2 2 2 2 2 10 10 2 2 2 2 2 2 2 2 2 10 2 10 2 2 10 2 2 2 10 2 2 2 2 10 8 2 2 2 2 2 2 2 2 2 2 2 10 10 8 2 2 2 2 10 10
left_child=-1 10 -3 4 -4 -5 7 42 -8 -10 11 12 13 -2 15 -15 18 -13 30 20 21 27 41 -21 -20 -26 32 -16 -19 -30 -17 -32 -18 34 35 -25 -36 -38 39 44 43 -23 -6 -41 45 -35 -47 -48 -14 50 51 53 -53 54 -50 -56 -57 59 -51 -58 -61 -52
right_child=1 2 3 5 6 -7 8 -9 9 -11 -12 17 48 14 19 16 26 28 24 23 -22 22 -24 33 25 -27 -28 -29 29 -31 31 -33 -34 38 36 -37 37 -39 -40 40 -42 -43 -44 -45 -46 46 47 -49 49 58 61 52 -54 -55 55 56 57 -59 -60 60 -62 -63
leaf_value=-0.051042828393557893 0.23817583392642183 0.22536242057598754 -0.049682432196216986 -0.04204725195595533 0.22920219010058598 0.31525288202376955 -0.022787123778147456 0.37546423821632452 0.4247628536460637 0.017804363260184277 0.2403031631069574 0.35398277081755547 0.23122539355801189 0.061864686411234653 0.28168635557896721 0.37180173648021275 0.32027007122447959 -0.028950296053327704 0.26635499127726842 0.41304085375754823 -0.031495014421285383 0.44702864015110139 -0.039428527374257671 -0.048143116082765836 -0.021216924036380841 0.274798341763553 0.53231128033422492 -0.048477702225828333 0.31639888058598942 -0.040254685810493532 -0.042264240788977704 0.30061275608969745 -0.035806656801452161 -0.044247753392070793 0.052489603955245129 0.28027799313062463 0.42418615650696023 0.075004631965245705 -0.04717958274425621 0.28869078592544362 0.49241242038024735 0.084001179604453233 -0.043836923596332185 -0.037614555323648061 -0.021978953841751334 0.38678384022022672 -0.042160877650114177 0.33238853716124339 0.36360986622003982 0.35689671232264847 -0.047040153085610124 0.4741585643652152 0.17786400261227145 0.29187995239220815 0.058227512714782305 0.023750961329093941 0.35804368720330981 0.084925935147161791 0.13845832439438413 0.026121150197789118 0.2966122203205887 0.16219815765813447
leaf_weight=834.86149073578417 480.32925643399358 71.099571585655212 19.313128441572189 4.2299624886363771 4.7112748604267853 16.976062504574656 18.540664723142985 10.0661683101207 3.4669961780309659 7.1257016286253929 5587.4220781531185 2.9695753268897525 762.48513480555266 17.70204689539969 2.2662411965429845 15.437513194978239 4.7304374426603299 23.732258694246411 9.3823870867490751 3.5868955366313449 27.473960010334849 6.3938544150441876 3.5150663629174224 14.584152333438398 17.280761033296589 5.5255196113139382 7.4029269721359015 13.820158667862414 4.7775234747678024 3.6514737028628588 4.8623919021338207 5.4509058594703674 2.5288336854428053 6.269429778680208 4.4528916999697712 3.8393128160387269 15.531121911481025 3.4858095590025178 11.229861842468379 3.7168975826352817 4.8371195141226053 3.1613539885729542 5.5195685289800167 3.0182163380086422 18.360913654789329 3.8562380596995336 4.836345611140132 1.8344847280532119 13.666575856506823 74.303253684192896 8.9065203554928321 15.563727781176569 8.2264653742313367 67.075473804026842 36.760284926742315 13.193241825327275 30.825051425024867 6.899462714791297 7.4106456469744435 6.1804166026413423 6.5808868948370218 8.9047279357910138
leaf_count=39297 195 40 588 115 73 162 560 141 21 189 1860 42 778 455 39 158 80 660 50 43 879 62 103 482 441 99 49 399 57 101 147 5 80 192 130 51 250 101 357 43 57 74 168 104 571 38 157 20 61 509 205 76 108 361 644 263 297 120 119 119 64 131
internal_value=0.206698 0.235085 0.169494 0.123287 0.0826714 0.245073 0.134443 0.243142 0.0529915 0.176584 0.236485 0.224716 0.22781 0.208064 0.149558 0.211685 0.24681 0.0643471 0.203237 0.113381 0.0481796 0.121977 0.247103 0.148226 0.125668 0.0588223 0.394702 0.0115067 0.027585 0.173482 0.29169 0.149068 0.206305 0.134663 0.192362 0.0309462 0.312424 0.367375 0.0903173 0.123761 0.324911 0.346732 0.0906645 0.155858 0.0502583 0.126303 0.223335 0.0900926 0.241121 0.265046 0.236483 0.251395 0.383212 0.232051 0.194607 0.168205 0.229732 0.281957 0.33906 0.310429 0.177392 0.0603641
internal_weight=8416.15 7581.29 161.049 89.9495 68.7435 21.206 49.4304 20.297 29.1334 10.5927 7420.24 1832.82 1797.69 730.703 250.374 90.3037 72.6017 35.1308 57.9395 160.07 56.6306 29.1567 13.0703 103.44 32.1887 22.8063 14.6622 16.0864 32.1613 8.429 25.7508 10.3133 7.25927 99.8528 41.8933 18.4235 23.4698 19.0169 57.9595 46.7296 11.5722 9.55521 10.2308 6.73511 35.1574 16.7965 10.5271 6.67083 1066.98 304.497 222.783 204.972 23.7902 181.181 114.106 100.439 63.6791 50.4858 81.7139 43.5864 12.7613 17.8112
internal_count=53840 14543 2057 2017 1740 277 1152 382 770 210 12486 10626 9766 5911 5716 1564 1109 860 900 4152 1556 677 239 2596 590 540 209 438 818 158 310 152 160 2553 1014 533 481 351 1539 1182 204 136 241 147 978 407 215 177 3855 3077 2449 2113 184 1929 1568 1507 863 600 628 480 183 336
is_linear=0
shrinkage=0.05


Tree=3
num_leaves=63
num_cat=0
split_feature=180 41 46 145 151 180 127 116 145 0 116 144 46 23 115 126 114 127 116 123 116 13 132 145 120 155 114 115 122 44 121 155 155 18 145 23 110 110 153 122 116 44 23 0 46 115 132 123 2 113 121 117 114 114 128 122 115 126 114 155 120 113
split_gain=17573.7 175.59 319.181 691.099 329.05 237.654 221.142 199.397 195.232 186.02 191.237 397.224 206.181 191.067 151.373 373.234 147.548 197.456 138.657 135.431 133.551 126.985 144.333 211.32 122.543 182.037 134.242 157.917 119.791 116.588 110.693 105.969 102.344 100.208 96.7433 93.3164 224.732 176.61 90.1218 124.632 141.947 100.375 100.086 88.9797 88.872 88.6874 87.2943 82.2676 82.0502 80.6767 97.6735 79.6827 77.6346 74.4654 74.2563 105.349 82.192 73.3414 72.6653 68.0032 66.3468 64.2503
threshold=1.0000000180025095e-35 1.0000000180025095e-35 44.500000000000007 0.26561336808505581 0.23939507702085819 18.500000000000004 6.5000000000000009 17.500000000000004 0.25689838201918153 19614.545000000002 27.500000000000004 711.50000000000011 1213.5000000000002 -1786.3449999999987 44.500000000000007 19.500000000000004 93.500000000000014 37.500000000000007 13.500000000000002 5.5000000000000009 30.500000000000004 289.64000000000004 30.500000000000004 0.27238487661692873 35.500000000000007 2113637.7745833336 30.500000000000004 16.500000000000004 44.500000000000007 27.500000000000004 48.500000000000007 641736.4910833335 4478547.5792500013 563.50000000000011 0.2785982909090175 2396.5050000000006 852.50000000000011 1036.5000000000002 2745824.4232731718 24.500000000000004 36.500000000000007 116.50000000000001 2746.0350000000008 -78313.304999999978 1355.5000000000002 36.500000000000007 15.500000000000002 19.500000000000004 14897.620000000001 36.500000000000007 4.5000000000000009 14.500000000000002 45.500000000000007 35.500000000000007 9.5000000000000018 18.500000000000004 15.500000000000002 5.5000000000000009 48.500000000000007 1750801.9846666672 23.500000000000004 67.500000000000014
decision_type=2 2 2 2 10 2 2 2 2 10 2 2 2 8 2 2 2 2 2 2 2 2 2 2 2 10 2 2 2 8 2 8 8 2 2 8 2 2 10 2 2 10 10 8 2 2 2 2 10 2 2 2 2 2 2 2 2 2 2 8 2 2
left_child=-1 2 -2 4 45 6 -5 8 19 10 18 20 13 -13 16 -16 17 35 33 61 31 22 46 -24 25 26 -11 -28 -26 -20 -30 52 -18 -8 38 37 -37 51 39 40 42 -42 -29 -31 -44 -4 -17 53 -35 50 -10 -15 -12 -9 55 -45 -56 -40 -55 -53 -39 -6
right_child=1 -3 3 5 7 -7 9 47 49 24 11 12 -14 14 15 21 32 -19 29 -21 -22 -23 23 -25 28 -27 27 34 30 43 -32 -33 -34 48 -36 36 -38 60 57 -41 41 -43 44 54 -46 -47 -48 -49 -50 -51 -52 59 -54 58 56 -57 -58 -59 -60 -61 -62 -63
leaf_value=-0.050984306606709676 0.19666181411937378 0.19899082958001291 -0.048090702132907587 -0.029904349388126156 -0.042256876411410821 0.27053093322561261 0.24367238374150207 0.27784667036735555 -0.043465353643989388 0.26055004393099213 0.04834357055335662 -0.025036102852495884 -0.018010566861858521 0.22838101732809368 0.31947744346594026 0.23224550548398018 -0.05014862269474888 0.38097762957820996 0.24527758898196181 0.35669002943055356 0.30449829362537567 -0.048063567988437056 0.42176636521956418 -0.039317253823113407 -0.048214004954748778 0.3552780285572586 0.017111675859804411 0.26825149746732385 0.24931212221410767 0.17414030745867556 -0.041543661985243917 -0.044635767914209333 0.23051641445090648 -0.0086641884201338112 -0.043175966453600327 0.29999153467958439 -0.045340279080522884 0.30290492147113401 0.25519440403603 0.32031019426022822 -0.016483939373704969 0.29274943575343376 0.00072550817577286537 -0.044381664182731491 0.2597764550840938 0.2186505650545538 -0.047389740445820366 0.38474248352395601 0.26870925316122363 -0.047741425204754717 0.22164619164950372 -0.035623332262568648 0.34571452312984174 0.051636302891728103 0.25268083689699011 0.22102277104977297 -0.040908481991410388 -0.0051326671775960859 0.22732879335877287 0.16126202621398239 0.051292655505177101 0.22735370795627918
leaf_weight=795.0344892218709 1439.0040995515883 6386.9821045286953 12.865061670541762 22.525064755231142 4.5078854411840465 28.268529063090682 13.037493010982873 114.58930267207325 4.9383958466351059 31.050410801544785 4.4344207718968356 19.939688948914409 31.198389476165175 2.861307229846715 31.257375536486506 2.7935065943747786 21.466008186340336 6.318780066445469 4.3836839329451323 12.603294193744658 37.316506769508123 12.101659074425696 6.798303382471202 3.3859577849507332 12.002545245923104 14.378711352124808 21.652736680582166 26.031161904335022 9.4801710303872806 6.088068388402462 4.3458874728530636 5.9110976494848737 2.7969875354319802 12.103350594639776 4.7361182458698741 13.879905328154566 6.5136680621653786 7.888058338314293 2.5368906036019316 17.251240910962224 14.852356523275377 2.1585710551589719 9.5143451895564777 63.210127187892795 4.1145795341581097 3.0201549585908642 9.6429824922233802 19.262510834261775 2.387771723791956 10.87765860557556 8.6586474291980249 32.674446113407612 4.3578641060739756 9.3610852211713809 4.2442196495830995 2.9790385570377103 3.883009159937501 11.201021924614905 19.586372872814536 4.0424752756953231 4.4633255358785391 2.8684741631150246
leaf_count=39297 353 1895 405 462 116 59 77 254 113 254 63 500 889 25 317 16 560 54 38 42 337 328 68 88 310 80 417 248 110 93 118 148 4 282 106 148 162 50 24 180 344 25 202 1466 19 51 239 76 23 284 115 820 51 180 32 38 99 273 261 40 92 20
internal_value=0.173941 0.194571 0.182121 0.157107 0.232751 0.129564 0.122381 0.249486 0.149811 0.128453 0.108013 0.130682 0.100433 0.12002 0.137223 0.196538 0.0976178 0.130513 0.0523949 0.262108 0.254222 0.0798816 0.147678 0.278214 0.170016 0.186419 0.167335 0.139869 0.0653721 0.0199897 0.160916 0.115041 -0.00975226 0.147829 0.168092 0.103665 0.192496 0.0657076 0.179921 0.2017 0.16058 0.0365534 0.211446 0.00478329 0.0916865 0.0122728 0.0276603 0.275592 0.0511129 0.0512521 0.128635 0.0122088 0.216498 0.258349 -0.0111521 -0.0292502 0.122749 0.0566546 0.174301 -0.0101131 0.223008 0.0766163
internal_weight=9464.62 8669.58 2282.6 843.599 223.139 620.46 592.191 207.254 44.4544 569.666 384.359 272.043 220.023 188.824 168.885 65.9798 102.905 78.642 112.317 19.9797 52.0199 34.7224 22.6208 10.1843 185.307 159.478 145.099 114.049 25.8286 84.7881 13.8261 14.7034 24.263 27.5286 92.3963 72.3232 20.3936 51.9296 87.6602 73.9223 56.671 17.0109 39.6601 80.4045 13.6289 15.8852 12.4365 162.799 14.4911 24.4747 13.597 39.5782 8.79228 143.537 74.3164 66.1892 8.12723 13.7379 28.9475 36.7169 12.3514 7.37636
internal_count=53840 14543 12648 12295 1917 10378 10319 1461 690 9857 7147 4999 4400 3511 3011 1056 1955 1391 2148 178 599 739 411 156 2710 2172 2092 1838 538 1766 228 262 564 382 1421 1337 310 1027 1315 1018 838 369 469 1728 221 456 255 771 305 512 228 885 114 695 1635 1504 131 297 441 860 142 136
is_linear=0
shrinkage=0.05


Tree=4
num_leaves=63
num_cat=0
split_feature=180 41 46 145 182 151 152 46 132 126 155 181 154 145 118 134 16 154 46 18 129 126 182 151 152 24 126 145 16 128 145 13 155 24 4 46 148 123 113 135 44 117 119 16 145 120 148 139 145 137 148 113 120 136 129 145 46 145 124 117 119 126
split_gain=13398.8 167.482 323.722 441.924 241.691 208.462 179.672 145.245 133.99 148.879 106.867 95.8592 115.761 118.445 113.363 148.903 113.574 94.6857 94.6651 92.8175 87.6527 100.598 173.49 89.6705 85.3093 82.3509 116.945 81.5788 80.4533 102.532 79.9921 74.9193 88.3137 116.696 110.97 94.8793 70.0647 146.421 69.1928 68.7744 81.3727 92.246 102.856 100.602 86.4193 82.5733 81.0488 103.12 80.5832 69.6449 71.6574 62.9819 88.3675 59.7062 58.5599 55.3568 53.9465 50.6956 50.333 79.4175 49.3306 71.4064
threshold=1.0000000180025095e-35 1.0000000180025095e-35 44.500000000000007 0.26561336808505581 0.12916666666666668 0.23939507702085819 18.500000000000004 1375.5000000000002 5.5000000000000009 22.500000000000004 6093198.6530833347 12.500000000000002 30163537.185000006 0.2764345027502923 6.5000000000000009 2.5000000000000004 10.395000000000001 44621019.340000011 1000.5000000000001 1208.5000000000002 7.5000000000000009 6.5000000000000009 0.069047619047619066 1.3995058300189307 24.500000000000004 1.6094664887271632 12.500000000000002 0.27328778238696744 9.8350000000000026 8.5000000000000018 0.26996389041703178 30829.025000000005 1858849.2037431693 1.2035295580384131 1176.0800000000002 588.50000000000011 22.500000000000004 7.5000000000000009 60.500000000000007 2.5000000000000004 5.5000000000000009 21.500000000000004 22.500000000000004 17.055000000000003 0.27259570148693502 13.500000000000002 142.50000000000003 10.500000000000002 0.26700619258010422 7.5000000000000009 188.50000000000003 55.500000000000007 9.5000000000000018 5.5000000000000009 16.500000000000004 0.27031776387772394 201.50000000000003 0.2686581194422698 21.500000000000004 34.500000000000007 27.500000000000004 11.500000000000002
decision_type=2 2 2 2 2 10 10 2 2 2 10 2 10 2 2 2 2 10 2 2 2 2 2 10 10 10 2 2 2 2 2 2 10 8 2 2 10 2 2 2 10 2 2 2 2 2 10 2 2 2 10 2 2 2 2 2 2 2 2 2 2 2
left_child=-1 2 -2 5 7 54 -6 10 53 31 11 12 13 14 16 -16 -5 18 20 25 -13 22 24 58 -22 26 51 30 29 -15 -25 32 33 34 57 -35 37 -7 -19 -17 41 43 -43 45 -45 55 60 49 -42 50 -48 52 -20 -8 -4 -41 -30 -10 -23 -60 -44 -62
right_child=1 -3 3 4 6 36 8 -9 9 -11 -12 17 -14 28 15 39 -18 38 19 -21 21 23 -24 27 -26 -27 -28 -29 56 -31 -32 -33 -34 35 -36 -37 -38 -39 -40 40 48 42 46 44 -46 -47 47 -49 -50 -51 -52 -53 -54 -55 -56 -57 -58 -59 59 -61 61 -63
leaf_value=-0.050928422276203179 0.17012560528944887 0.17163363325594794 -0.047600738306184727 0.16854731504439935 0.22102604996902395 -0.046456766568986313 -0.051146715339141724 -0.028681800384652636 0.22028490882980606 -0.047996935918509488 0.26142079948822977 -0.05107075040420838 -0.0012658796147534354 -0.041292122908057699 0.31100855222032608 0.0029462719667234568 -0.050238687652550643 0.24209098291505621 0.18006921414205157 -0.045749203088431563 0.052557969254430827 -0.050368115769780564 -0.045652394678165814 -0.037728113375388991 0.33528899335037793 0.2625914502788444 -0.047070303931947416 -0.043145428863281605 0.11598279661621447 0.27557033490745203 0.2446878704670008 0.22971950889729295 0.2225388735428232 0.0080891751065219324 -0.051898913785473122 0.20391587820321969 0.20550747710623984 0.30269405000136823 0.02887248911089621 0.043558675865563057 0.24965919866662734 -0.046298114497009157 0.069795200482115502 0.32729547117496394 0.13382148900701354 0.0021911673171860911 -0.043696787096017015 0.25505589835280434 -0.014574733234577761 -0.048529376850147653 0.17358036148047828 0.29284534626922726 -0.0040670692865081804 0.1399960021921495 0.14946257524659687 0.26180323914748937 -0.051502776721866241 0.023770955277933839 0.19436634899512906 -0.014947458150325816 0.31768055025514252 0.13880572927422599
leaf_weight=757.07023696415126 1576.4220577254891 7016.4750383496284 11.577211370691655 8.5605004858225602 71.014958010986447 8.3297974672168476 14.670524995774032 23.666643433272839 6.6818613968789595 9.2045960109680873 9.0328447986394149 26.374659944325686 19.963967457413673 3.7955110780894739 13.422851903364061 9.0485599189996702 14.738215105608104 11.43484682403505 14.637364529073244 8.1364474352449161 4.3617186453193453 31.89337570592761 7.2132613137364379 2.9252889882773188 8.5213724821805936 9.0334599185734969 10.154667504131792 5.3029590621590605 5.2989966478198793 5.46924495883286 9.635637750849126 27.527715031057596 19.713048236444592 8.0961750186979753 18.046426109969616 27.260336671024561 233.68453279696405 3.5020953156054011 5.9960688650608054 4.8303643297404077 2.5952370930463102 7.7804230917245141 7.831378871574997 20.960218958556656 10.850119417533277 9.1405387073755247 5.0826616827398565 5.8921825718134633 13.998882422223685 12.529049413278697 10.615350123494862 5.1515491157770148 11.005977297201751 4.525710627436637 4.3845769949257365 9.0084766522049886 19.324579132720828 6.3120068814605474 5.4833657257258919 14.517153823748229 11.730646450072529 15.42653135024011
leaf_count=39297 353 1895 379 97 233 214 241 696 24 181 74 664 394 86 125 174 306 98 145 255 87 960 186 79 98 95 292 158 48 55 121 103 124 126 280 188 1233 14 149 77 25 185 136 149 73 179 110 52 311 306 118 53 310 29 77 67 394 99 65 396 85 217
internal_value=0.151473 0.16754 0.156092 0.132568 0.111143 0.188072 0.155551 0.0908172 0.121464 0.140517 0.0971809 0.0932098 0.113894 0.123964 0.138999 0.153077 0.0335709 0.065995 0.0541785 0.105804 0.0276384 0.0511046 0.14691 0.0217475 0.250608 0.130986 0.0962675 0.11516 0.0362161 0.153897 0.180616 0.156115 0.130161 0.0997649 0.0273881 0.160668 0.199414 0.0720334 0.174563 0.137691 0.145805 0.158924 0.12057 0.209532 0.267546 0.121206 0.13982 0.0810592 0.0383071 0.0370837 0.104528 0.143684 0.103665 -0.00113479 0.0118565 0.194032 -0.0121449 0.133702 -0.0118836 0.0487229 0.193138 0.224787
internal_weight=10296.9 9539.8 2523.33 946.905 685.427 261.478 213.053 472.373 142.038 122.842 448.707 439.674 247.894 227.931 194.042 170.743 23.2987 191.779 174.348 58.1195 116.229 89.8541 20.0964 69.7578 12.8831 49.983 40.9496 17.8639 33.8883 9.26476 12.5609 113.638 86.1099 66.3968 31.0403 35.3565 245.516 11.8319 17.4309 157.321 148.272 131.678 76.8882 54.7897 31.8103 22.9794 69.1078 34.1192 16.5941 28.2271 15.698 30.7949 25.6433 19.1962 15.9618 13.8388 24.6236 12.9939 51.8939 20.0005 34.9886 27.1572
internal_count=53840 14543 12648 12295 10378 1917 1628 8750 1395 1125 8054 7980 3769 3375 2792 2389 403 4211 3964 1150 2814 2150 371 1779 185 895 800 358 583 141 200 944 841 717 403 314 1461 228 247 2264 2090 1754 1209 545 222 323 1024 586 336 534 228 508 455 270 456 144 442 123 1421 461 438 302
is_linear=0
shrinkage=0.05


Tree=5
num_leaves=63
num_cat=0
split_feature=182 149 5 15 116 41 145 5 182 182 152 154 123 15 15 110 154 122 151 110 15 122 153 153 154 123 121 153 151 15 151 119 110 117 130 122 44 110 55 182 121 122 145 145 145 155 153 130 151 155 145 153 110 153 55 180 145 145 151 154 153 155
split_gain=10915.8 80.7254 148.014 111.132 60.9612 101.438 218.782 163.84 143.459 80.2661 123.927 70.9627 110.683 112.093 94.5128 85.9531 79.3812 82.5604 57.0404 56.8768 55.6057 67.4787 57.8236 56.0758 63.2668 60.8123 49.8018 45.8537 45.0376 41.7483 36.9679 64.0848 36.4473 35.1092 37.2817 34.5926 33.9456 33.8398 31.0172 30.2362 29.9355 25.2582 24.4642 24.4202 22.0806 21.4879 20.0507 19.998 18.5844 18.0631 16.9645 14.4412 13.9197 13.7049 13.5716 12.0347 24.8722 11.2333 10.6958 7.22306 45.7851 7.10276
threshold=0.014658290500666287 2.5000000000000004 -32723.924999999999 42.500000000000007 27.500000000000004 1.0000000180025095e-35 0.26142830158130509 -410654.25499999995 0.06458333333333334 0.13809523809523813 7.5000000000000009 5701373.1000000006 12.500000000000002 27.500000000000004 11.500000000000002 412.50000000000006 7749879.8150000004 13.500000000000002 4.3134012886827948 355.50000000000006 20.500000000000004 8.5000000000000018 1782595.7316713592 1893332.1984833751 2039480.3250000004 9.5000000000000018 8.5000000000000018 2718093.4560500891 0.20589733981893585 29.500000000000004 0.21878755191548177 32.500000000000007 421.50000000000006 16.500000000000004 6.5000000000000009 9.5000000000000018 69.500000000000014 698.50000000000011 1077.5000000000002 0.087121212121212141 3.5000000000000004 2.5000000000000004 0.26957106155851335 0.26337055704964946 0.25768536823520677 1141451.7196666668 7196372.6674986919 7.5000000000000009 1.3995058300189307 3282115.0830000001 0.27001525950866873 1533773.6227096778 493.50000000000006 777519.64119267429 446.50000000000006 1.0000000180025095e-35 0.2770786946586829 0.27425292904201115 2.2706050847408892 3833398.73 625546.27617698384 1658205.6014166668
decision_type=2 10 8 2 2 2 2 10 2 2 10 10 2 2 2 2 10 2 10 2 2 2 10 10 10 2 2 10 10 2 10 2 2 2 2 2 8 2 10 2 2 2 2 2 2 10 10 2 10 10 2 10 2 10 10 2 2 2 10 10 10 10
left_child=55 4 36 20 5 6 -2 8 33 10 -10 12 13 14 -12 48 -17 26 28 40 23 -22 29 24 -4 -26 52 -25 -6 47 31 -27 -21 -8 -35 -34 -3 57 -24 -31 -16 -9 -28 -15 -41 51 -29 -23 -13 50 -39 -44 -18 -14 -20 -1 -57 -30 -50 60 -11 -52
right_child=1 2 3 -5 18 -7 7 41 9 59 11 15 53 43 19 16 17 -19 54 32 21 22 38 27 25 30 42 46 37 39 -32 -33 35 34 -36 -37 -38 49 -40 44 -42 -43 45 -45 -46 -47 -48 -49 58 -51 61 -53 -54 -55 -56 56 -58 -59 -60 -61 -62 -63
leaf_value=-0.050874984452928533 0.16202278921218261 0.13292238270848208 0.27349171953179335 -0.04696659370247723 0.18838907322098308 0.15011330474796852 -0.050007877709445182 0.090444615315479579 -0.055173320319571152 0.11899354927425716 -0.04821224200207487 0.11883212435846635 0.11474698904948816 0.078700406917079205 0.1056835988030585 -0.049316928425198657 -0.04425685529490439 -0.048024732448632076 0.16477719823064607 0.21025248186654211 -0.047033021628592832 0.1166980568012429 -0.047221886725630248 0.27998193172978753 -0.04527761722292032 -0.046990424065120356 0.20487347101890663 0.11315601854589896 0.16181559171325616 0.23608679186363113 0.1814231019870326 0.12292208747256589 0.14954904990824139 0.16539179039072624 -0.039940059762297891 -0.042395984948302184 -0.050174608369824882 0.15251947162913562 0.098312221570283201 0.18308048601877669 -0.045172476416749097 -0.051625093242777656 0.093491151695987693 -0.051686905953394625 0.068839205038908932 0.14590872802283303 0.2051536833920424 -0.042078847769608442 0.20206674787458484 0.15956510602660534 0.14582035273689059 -0.039917208987598492 0.078023001412047613 0.27093683189492251 0.2007655924600385 -0.044206793583727928 0.12468015735831317 0.14607832933165385 0.14455456542723674 0.13677538971990613 0.24054513130750857 0.1341793550083604
leaf_weight=720.55517136491835 332.2408907879144 2.0109872240573168 5.4738564267754546 7.945164766162633 110.89025608822703 3654.7268516272306 15.327897489070894 2.8003772348165539 11.502807283774017 23.557032164186239 8.8876982815563661 38.793486939743161 5.1840034238994104 3.2549209501594332 5.5379835087805969 9.8610545713454467 4.1685341112315646 7.1200421825051299 112.92930127866566 16.943831946700815 6.6513962540775529 2.3122991658747187 6.94273394346237 14.943695792928336 5.8321992233395568 6.876918867230418 15.321211177855732 18.419999528676271 1401.6142501551658 11.556038312613966 15.327537169679998 20.060834277421236 4.3059738408774129 3.9168691877275696 3.3840355612337589 3.5244885738939047 15.205706963315608 1211.9229790940881 5.8271156121045351 8.077953305095436 5.7256059441715479 17.523458182811737 2.7817993592470875 24.01549101434648 12.255997052416204 9.7647762205451709 16.033593188971281 4.0091602709144354 29.691409634426236 544.87961526587605 978.37899889051914 3.449384581297636 3.2366558965295553 5.5747749824076891 98.737726751714945 6.0113565139472467 2.1627627536654472 263.28563655167818 39.223498553037643 175.60870707593858 15.339420860633252 413.43264310434461
leaf_count=39279 380 14 42 221 90 1095 375 19 112 101 197 243 39 40 50 200 81 144 64 74 165 29 171 90 156 178 79 89 983 116 14 78 42 29 86 69 403 1627 59 5 124 353 29 524 103 22 25 104 95 538 2099 82 40 65 53 162 19 346 24 342 52 1285
internal_value=0.13646 0.150309 0.115847 0.130046 0.150961 0.146372 0.130077 0.109198 0.114907 0.120787 0.101033 0.10854 0.0693551 0.0453815 0.0931911 0.127859 0.0751565 0.10252 0.154953 0.128559 0.13907 0.0964624 0.115825 0.161713 0.121714 0.0991201 0.130839 0.201716 0.153733 0.145993 0.119747 0.0792369 0.16972 -0.00755063 0.0762701 0.067571 -0.0223909 0.152895 0.0211417 0.168709 0.031161 -0.0284917 0.157669 -0.033714 0.120912 0.102768 0.160689 0.0233231 0.154127 0.149394 0.147204 0.0236417 0.0115183 0.212262 0.182454 -0.0501895 0.00865306 0.159419 0.17194 0.143933 0.171882 0.142465
internal_weight=10552.9 9824.13 185.763 168.546 9638.37 4502.29 847.568 515.327 495.003 472.375 257.869 246.367 82.9548 72.196 44.9256 163.412 55.7035 45.8424 5136.07 36.0379 160.601 57.6327 50.9813 102.969 53.5713 48.0975 38.7224 49.3973 4924.4 38.2114 42.2653 26.9378 24.7743 22.6288 7.3009 7.83046 17.2167 4813.51 12.7698 31.89 11.2636 20.3238 31.3172 27.2704 20.334 15.996 34.4536 6.32146 107.708 3148.61 2603.73 6.23118 7.40519 10.7588 211.667 728.729 8.17412 1664.9 68.9149 214.505 38.8965 1391.81
internal_count=53814 14354 2062 1645 12292 5207 4112 3732 3360 2870 2375 2263 1224 1120 556 1039 677 477 7085 359 1424 752 587 672 468 426 333 204 6968 357 270 256 185 490 115 111 417 6878 230 224 174 372 212 564 108 133 114 133 362 5549 5011 111 121 104 117 39460 181 1329 119 495 153 3384
is_linear=0
shrinkage=0.05


Tree=6
num_leaves=63
num_cat=0
split_feature=182 149 59 7 50 123 55 147 46 118 18 46 147 18 41 46 18 123 116 16 123 155 55 183 155 123 18 11 123 16 116 147 122 123 16 46 55 116 182 116 147 182 55 18 55 122 122 155 155 182 122 46 16 44 16 16 16 16 18 155 46 18
split_gain=8933.31 69.2216 106.227 95.1045 73.9496 60.8982 58.492 70.8865 52.4876 60.1652 51.194 124.935 108.989 220.249 41.5021 103.716 168.176 182.652 125.311 136.085 114.5 106.43 100.973 114.641 146.803 125.308 109.764 91.0215 90.4159 104.935 87.4966 104.858 101.556 108.81 97.5646 84.9138 79.0154 128.756 74.8238 71.17 67.1594 89.2792 65.8987 65.535 84.9473 64.1062 132.557 70.2895 69.994 62.8491 59.6154 58.8508 69.0319 57.4909 50.6306 49.8684 47.3383 52.6989 65.3794 46.259 44.6598 42.9993
threshold=0.014658290500666287 2.5000000000000004 1.5000000000000002 -95193.309999999983 2.5000000000000004 19.500000000000004 1203.5000000000002 9.0917715949049374 861.50000000000011 13.500000000000002 84.500000000000014 637.50000000000011 1.0000000180025095e-35 324.50000000000006 1.0000000180025095e-35 140.50000000000003 1781.5000000000002 12.500000000000002 17.500000000000004 8.5650000000000031 4.5000000000000009 3282115.0830000001 1551.5000000000002 0.08941533786482847 1770567.4680095632 11.500000000000002 865.50000000000011 13507.075000000003 42.500000000000007 18.345000000000002 40.500000000000007 19.427305439809555 28.500000000000004 26.500000000000004 14.085000000000003 730.50000000000011 258.50000000000006 34.500000000000007 0.087121212121212141 23.500000000000004 25.091199492505641 0.07417582417582419 54.500000000000007 465.50000000000006 358.50000000000006 13.500000000000002 18.500000000000004 765685.28633333335 1160410.6393333336 0.10263157894736843 10.500000000000002 1150.5000000000002 6.7550000000000008 23.500000000000004 18.995000000000001 20.465000000000003 12.365 18.345000000000002 623.50000000000011 624649.74233333336 558.50000000000011 674.50000000000011
decision_type=2 10 2 8 2 2 8 10 2 2 2 2 10 2 2 2 2 2 2 2 2 10 10 2 10 2 2 2 2 2 2 10 2 2 2 2 8 2 2 2 10 2 8 2 10 2 2 8 10 2 2 2 2 8 2 2 2 2 2 10 2 2
left_child=-1 10 4 -4 5 8 -7 -8 9 -3 11 -2 13 -12 15 -14 18 -18 19 51 -20 22 23 24 25 27 49 42 -23 -30 31 -27 34 61 38 -29 37 -33 -32 -28 -38 -42 -22 -25 60 50 -47 -48 -49 -24 59 52 -17 -26 -35 -31 -21 58 -58 -43 -45 -34
right_child=1 2 3 -5 -6 6 7 -9 -10 -11 12 -13 14 -15 -16 16 17 -19 20 56 21 28 26 43 53 30 39 35 29 55 32 36 33 54 -36 -37 40 -39 -40 -41 41 45 -44 44 -46 46 47 48 -50 -51 -52 -53 -54 -55 -56 -57 57 -59 -60 -61 -62 -63
leaf_value=-0.050108403001172953 0.13728053531751869 0.13505458364779341 0.1192044630618921 -0.031417353921062305 -0.045050502520379648 0.12841960800654403 0.35221426515290066 0.14551155434835258 0.013982749727383554 -0.0024286614498509208 0.13525803163103209 0.18784466856795576 0.13719236471696378 -0.0038275527201864475 0.13741938292570532 0.14967201104341854 0.10681837280253825 0.31898405621865256 0.16268749766328283 -0.0501953340036181 0.13620365457888642 0.22307234828494901 0.23574773403293159 0.17824133773250861 0.16850665180740698 -0.046224428919419733 0.18808699675405291 0.21586620234795706 -0.046900064666624233 0.31831755558107561 0.010756907534073844 0.10871944118285409 0.12683291809728012 0.1172557877182796 -0.019365756981038137 0.0080531879321549885 0.22901492186155728 0.48575880640083291 0.15067052825077529 -0.049202344059484253 0.011034966997969181 0.17507678652162742 0.0069801816302088497 0.041807741364483897 0.046752200959257917 -0.048933608634351526 0.31764360378812206 -0.044032691451587655 0.1966427039969561 0.12639211528779271 0.23478522205681529 0.25172148523339527 -0.045066637392967228 -0.012533288618941488 0.35271551360452152 0.057120007932468075 0.15967082350693684 0.0020825886621234926 0.023869040605973141 -0.043462311468076956 0.16446171198201467 -0.044223785466275527
leaf_weight=694.23493350297213 559.00343520753086 62.771888570860028 16.971946127712727 24.31184770539403 5.7891303524374953 41.834682727232575 8.1120333299040812 12.722574668005107 15.038764275610445 8.9708832465112192 80.158617541193962 170.78685630857944 1579.7618327271193 43.649505406618118 6819.7467488870025 15.02703581936658 22.507682651281357 20.286434091627598 123.41317208856344 14.873887836933134 10.383625112473963 35.236144283786416 31.409147081896663 51.440701995044947 3.7910188436508179 6.1850640065968028 3.5163603276014319 12.518920728936793 8.3904308695346099 3.3429221212863913 15.723049895837901 5.6897921171039325 7.7746721301227826 5.3937718123197538 30.969470530748367 7.9303318839520207 17.858363004401326 3.9390476308763027 24.365304332226515 9.5763673018664104 15.950261319056152 3.6981388591229942 75.799283914268017 9.9130827095359546 39.348201414570212 10.773788088932635 4.7369269561022493 5.0920866727828979 5.4135244749486446 30.953437067568302 22.853554382920265 9.3631319459527713 5.7672772109508506 50.686182305216789 6.7841145526617765 4.1891001891344786 15.95768387801945 35.888709645718336 19.660798752680421 4.2954809460788965 46.429224971681833 5.5766858868300915
leaf_count=39460 141 335 111 611 149 172 117 77 338 152 43 94 924 211 1439 102 105 91 239 306 35 146 331 103 18 117 42 90 185 29 303 81 70 85 604 126 74 44 233 178 349 28 1351 91 351 214 30 100 49 182 144 82 111 1001 38 84 141 578 373 74 209 123
internal_value=0.123465 0.135089 0.104144 0.0317404 0.123041 0.129841 0.168323 0.238666 0.100394 0.117998 0.135676 0.149361 0.134603 0.0865445 0.135231 0.129208 0.11537 0.212496 0.110393 0.0611993 0.117826 0.108898 0.1025 0.0941385 0.0786413 0.0919163 0.157126 0.047307 0.178814 0.0731819 0.114969 0.146505 0.0790057 0.162928 0.0469426 0.139641 0.158778 0.294623 0.0975141 0.0229967 0.141241 0.116834 0.0239905 0.131674 0.105004 0.145721 0.0826939 0.173324 0.0858643 0.1844 0.194455 0.150925 0.0958424 0.0027853 0.265618 0.197354 0.0284481 0.0453421 0.087546 0.0653109 0.144074 0.0569334
internal_weight=11064.5 10370.3 196.524 41.2838 155.24 149.451 62.6693 20.8346 86.7815 71.7428 10173.8 729.79 9443.99 123.808 9320.18 2500.44 920.673 42.7941 877.879 116.539 761.341 637.928 586.769 511.314 364.182 309.705 75.4553 106.632 51.1586 15.9225 203.073 106.486 96.5871 25.5292 71.0578 20.4493 100.301 9.62884 40.0884 13.0927 90.6721 72.8138 86.1829 147.131 95.6905 56.8635 26.0163 15.2425 10.5056 62.3626 30.8472 30.1574 20.7943 54.4772 12.1779 7.53202 86.3811 71.5072 35.6185 7.99362 56.3423 13.3514
internal_count=53814 14354 2062 722 1340 1191 366 194 825 487 12292 235 12057 254 11803 10364 9440 196 9244 1693 7551 7312 6868 6135 5381 4362 733 1602 444 298 2760 1304 1456 316 1140 216 1187 125 536 220 1062 988 1386 754 651 639 393 179 149 513 246 295 213 1019 123 113 1398 1092 514 102 300 193
is_linear=0
shrinkage=0.05


Tree=7
num_leaves=63
num_cat=0
split_feature=182 149 59 155 116 122 55 125 46 154 148 46 41 17 41 46 18 54 182 155 183 116 51 148 148 154 155 154 154 11 46 133 122 113 116 54 148 46 122 182 46 147 148 122 148 112 54 46 113 46 18 122 116 46 155 44 44 46 154 154 46 54
split_gain=7487.79 66.6235 82.4333 51.9105 91.6377 48.3806 75.436 62.4334 74.8224 72.3896 40.5068 63.2127 140.41 126.865 61.2116 152.329 267.097 263.214 129.64 120.744 84.6746 82.16 71.2729 106.709 89.9174 80.0432 86.8407 79.345 69.8034 68.9676 68.7672 67.5038 72.4521 123.422 71.6901 68.1934 95.3702 98.7129 92.308 87.6115 73.405 57.7211 80.6551 67.279 62.2119 129.482 66.4973 56.7244 51.0915 50.5266 116.399 48.8259 47.9912 64.2952 91.0495 53.7779 67.5687 61.811 46.72 113.493 57.7943 45.2141
threshold=0.014658290500666287 2.5000000000000004 1.5000000000000002 992958.98308333347 30.500000000000004 16.500000000000004 833.50000000000011 12.500000000000002 570.50000000000011 9703141.3600000013 579.50000000000011 630.50000000000011 1.0000000180025095e-35 318.25500000000005 1.0000000180025095e-35 44.500000000000007 2790.5000000000005 2541.5000000000005 0.07417582417582419 3990721.6935000005 0.080675711788081847 15.500000000000002 1.0000000180025095e-35 317.50000000000006 34.500000000000007 4998121.5500000007 342138.47291666671 2115378.1500000004 76112972.37000002 51403.260000000002 194.50000000000003 19.500000000000004 40.500000000000007 74.500000000000014 118.50000000000001 724.50000000000011 133.50000000000003 1253.5000000000002 26.500000000000004 0.087121212121212141 898.50000000000011 78.64343296140953 448.50000000000006 24.500000000000004 97.500000000000014 48.500000000000007 3326.5000000000005 782.50000000000011 36.500000000000007 263.50000000000006 677.50000000000011 30.500000000000004 20.500000000000004 484.50000000000006 240333.85058333338 164.50000000000003 68.500000000000014 1370.5000000000002 3790909.8800000004 3689031.3550000009 904.50000000000011 2964.5000000000005
decision_type=2 10 2 10 2 2 10 2 2 10 10 2 2 2 2 2 2 2 2 10 2 2 2 10 10 10 10 10 10 2 2 2 2 2 2 2 10 2 2 2 2 10 8 2 10 2 2 2 2 2 2 2 2 2 10 8 8 2 10 10 2 2
left_child=-1 10 5 4 -4 6 -3 8 -7 -9 14 -12 13 -13 15 -2 17 19 28 22 21 -20 24 25 -17 27 -27 -24 -19 -22 51 32 33 35 -33 -32 37 40 -38 -39 48 43 -43 44 45 46 -23 -29 -37 50 -26 -28 53 -51 -55 56 -54 -57 59 60 -49 -46
right_child=1 2 3 -5 -6 7 -8 9 -10 -11 11 12 -14 -15 -16 16 -18 18 20 -21 29 41 23 -25 49 26 30 47 -30 -31 31 34 -34 -35 -36 36 38 39 -40 -41 -42 42 -44 -45 61 -47 -48 58 -50 52 -52 -53 55 54 -56 57 -58 -59 -60 -61 -62 -63
leaf_value=-0.050021767319985803 0.12604717637989213 0.096776335797533197 -0.048530630555301296 -0.050004645073036258 0.13196554827404913 0.11343109799786166 -0.048354092298887735 -0.0096040164664782587 0.29747286736115863 0.12779235141624107 0.12774886059052432 0.16080654609917791 0.13581711521752765 0.38447200494223155 0.12546499920457813 -0.04640840005030606 0.26921110234333295 -0.051598713726208091 -0.021910180881937968 0.23595076883643495 -0.026246929721058007 0.0098354683052646642 0.12019248806463925 -0.050654206223294113 0.12501992746281845 0.17470429537272714 -0.049901623513399544 -0.033697314211190453 0.14001520919419899 0.13395397489026292 0.15816716844233888 -0.049350552957354861 0.26171737037096904 -0.050316815329092004 0.17701380567928132 0.002281831024645479 -0.051752224271895068 0.35675581164325976 0.1096862947924572 0.1183578733965315 0.0021046073732886631 -0.049407249020620388 0.19623580431567769 0.19171161247359689 0.16770815860433905 -0.033056393909379908 0.19208099560190195 0.12227202386420054 0.13112004432196608 0.15635141102963093 -0.049712674970959908 0.12001569232603251 0.14002376646132314 0.18987031118204203 -0.025644076227064185 0.16056854599918691 -0.048073482424374266 0.048754708008173823 -0.014607105682655939 0.24835710339903258 -0.049455872167130287 0.074011096058398174
leaf_weight=661.49348996579647 1564.4601147100329 60.232423825189471 10.365146581083538 13.045863913372157 18.243819383904338 14.414347406476738 9.8106081094592792 11.174543038010595 10.955319762229918 58.897937541827559 303.85793062858284 16.600741248577837 75.014034852385521 12.963932009413837 7587.4288927726448 6.937393467873334 22.356620088219643 37.553729966282845 15.878487421199678 18.675703337416053 34.454308565706015 7.7262358814477947 31.693839052692056 11.882836399599908 33.80780066549778 45.468421250581741 12.601662628352644 25.189791155979037 4.4394336640834799 7.2874699458479872 64.959649981930852 13.002134386450054 7.3550672680139533 11.36268658004701 3.6616543550044289 8.8602170739322883 19.021653436124325 6.7610226571559933 14.899727798998354 11.06749553978443 17.758974572643638 13.27769969776273 3.3623324651271096 20.141491001471877 29.811190443113446 24.439986761659384 14.172532852739094 7.6620013974607053 63.907869866117835 16.753051221370697 12.448226993903516 5.1331492587923995 9.7083378601819259 5.5507551971823004 18.640821235254407 203.19120595417917 7.857841424643996 14.442054171115158 13.150094384327529 7.6516060009598723 10.34958118572831 27.351830637082458
leaf_count=39460 295 429 278 343 101 58 256 195 96 306 181 101 16 62 1745 148 81 867 255 145 399 111 189 211 159 52 229 415 19 26 564 270 44 199 21 130 351 84 156 82 274 272 32 160 132 393 45 39 408 81 228 41 91 36 328 1164 140 136 212 23 195 255
internal_value=0.113201 0.12321 0.0938366 0.0299053 0.0669717 0.109623 0.0759837 0.133214 0.201362 0.105984 0.123776 0.140396 0.175538 0.268416 0.123094 0.116097 0.100778 0.0967471 0.0507296 0.111154 0.0676123 0.0844273 0.107696 0.0932523 0.125474 0.0976389 0.110209 0.056691 -0.0284399 0.00408436 0.0983014 0.105222 0.112357 0.10614 0.00731237 0.114943 0.0942063 0.116956 0.0201257 0.223176 0.0937723 0.0965688 0.00825531 0.108252 0.0902843 0.0456123 0.131238 0.0238033 0.115744 0.12932 0.0778339 0.00279315 0.137614 0.0838209 0.0291813 0.146563 0.057556 0.153428 0.0611558 0.0992569 0.0259219 0.125004
internal_weight=11452.6 10791.1 207.14 41.6548 28.609 165.485 70.043 95.4421 25.3697 70.0725 10584 408.437 104.579 29.5647 10175.6 2588.13 1023.67 1001.31 239.897 761.414 197.904 156.162 742.739 413.401 329.337 401.518 305.821 95.6969 41.9932 41.7418 260.353 242.618 225.954 218.599 16.6638 207.237 142.277 108.356 33.9214 17.8285 90.5271 140.283 16.64 123.643 103.502 46.3388 21.8988 64.0031 72.7681 322.4 46.256 17.7348 276.144 40.9446 24.1916 235.199 17.5662 217.633 38.8133 25.6632 18.0116 57.163
internal_count=53814 14354 2062 722 379 1340 685 655 154 501 12292 360 179 163 11932 10187 9892 9811 2966 6845 2080 1655 6700 4189 2511 3978 2905 1073 886 425 2853 2583 2292 2248 291 2049 1485 978 507 166 812 1400 304 1096 936 549 156 884 538 2363 387 270 1976 445 364 1531 231 1300 469 257 234 387
is_linear=0
shrinkage=0.05


Tree=8
num_leaves=63
num_cat=0
split_feature=182 145 153 19 43 183 3 17 145 145 17 111 148 147 181 54 54 3 3 152 151 113 54 154 148 145 24 152 148 55 54 5 148 153 148 151 11 148 54 154 136 182 24 113 54 151 183 153 181 47 54 3 111 148 122 11 145 19 43 148 183 148
split_gain=6386.14 41.8478 37.8444 56.5715 72.1583 81.0163 70.6498 62.6368 53.5448 89.7978 52.9503 69.5941 52.1898 110.821 61.156 51.9009 71.7389 47.3267 38.243 56.9679 80.1936 44.5599 34.6876 32.8314 51.8787 32.4397 39.2752 31.0473 68.0994 30.4673 36.8353 29.6307 29.5964 42.2681 28.5433 83.3331 40.2674 27.5704 27.2438 53.39 54.4369 34.7285 24.0364 23.9617 23.5261 22.8161 24.322 25.2969 22.664 24.4071 17.4517 15.594 14.4472 14.0204 13.0542 39.601 22.3538 47.3839 69.6655 85.8948 50.5411 77.8956
threshold=0.014658290500666287 0.27162688361663129 11914216.748271277 1.0000000180025095e-35 19.500000000000004 0.091270521841647148 889.57500000000016 131.97500000000002 0.27270895833428016 0.27217197135054544 481.86500000000007 163.50000000000003 101.50000000000001 26.559340866968235 15.500000000000002 90.500000000000014 3326.5000000000005 -119665.51999999999 1964.4300000000001 21.500000000000004 2.0385733848390046 39.500000000000007 724.50000000000011 3634576.7950000004 35.500000000000007 0.27369292038389775 0.83522997213354899 10.500000000000002 601.50000000000011 422.50000000000006 3060.5000000000005 -831343.08499999985 113.50000000000001 635564.69351339643 182.50000000000003 1.3670329388154376 6900.8150000000014 147.50000000000003 1614.5000000000002 3937672.4700000002 1.0000000180025095e-35 0.097619047619047633 0.9870288154541017 10.500000000000002 869.50000000000011 1.3670329388154376 0.11695969116993817 2692193.3984003994 108.00000000000001 24.625598904859689 3523.5000000000005 5058.8200000000006 126.50000000000001 1031.5000000000002 21.500000000000004 -68945.354999999981 0.26142830158130509 1.0000000180025095e-35 31.500000000000004 29.500000000000004 0.074385479829692611 35.500000000000007
decision_type=2 2 10 2 10 2 2 2 2 2 2 2 10 10 2 2 2 2 2 10 10 2 2 10 10 2 10 10 10 10 2 8 10 8 10 10 2 10 2 10 2 2 10 2 2 10 2 10 2 2 2 2 2 10 2 2 2 2 10 10 2 10
left_child=48 53 3 4 5 6 7 -3 9 -9 11 12 13 14 23 -10 17 -17 29 20 22 -21 -20 24 -8 26 -15 28 -22 -14 -31 -19 33 -23 36 -36 -34 -38 41 -40 -41 42 -25 -33 -4 46 51 -48 -1 -50 -42 -7 -12 54 56 -56 -2 58 59 -58 61 -61
right_child=1 2 44 -5 -6 45 10 8 15 -11 52 -13 18 25 -16 16 -18 31 19 21 27 32 -24 38 -26 -27 -28 -29 -30 30 -32 43 34 -35 35 -37 37 -39 39 40 50 -43 -44 -45 -46 -47 47 -49 49 -51 -52 -53 -54 -55 55 -57 57 -59 -60 60 -62 -63
leaf_value=-0.050739355039690098 0.11864697958571679 -0.051351437291542401 0.15285641513715439 0.11330228184048369 0.11399991553886882 0.070078850075163818 0.10401326973221924 -0.045806239445954834 0.16255915948337801 0.16737991298842955 -0.051418763794271606 -0.048209384546148495 0.10823743803842326 0.10766201110134313 -0.046838065341868247 0.085443411235723396 0.11666023381546971 0.10928136877437805 0.070777054936511749 0.20098620341932044 -0.02529827626414187 0.1051858089980775 -0.052383217617218092 0.1071575435831524 -0.050259578069854594 -0.052354610361953186 -0.047626063444847211 0.13671440706543667 0.10739629078671836 0.24428655709926861 0.10599855793809604 0.079522351411856457 0.10526245474748136 -0.049768946761829788 -0.04935202375242248 0.1139567463012061 0.23957730333526889 0.11195457414524637 0.20665842019820346 0.11874277213846374 -0.051838545350740728 0.082638386727948959 0.20818866604703198 -0.054402477341085526 0.11687524049845462 0.12276304369245095 -0.011557991291463525 0.097350728232798028 0.1695861633630803 -0.036177498513108787 0.065283352983101103 0.11507202065507388 0.059257105089263268 0.13818171147107397 0.19277287623071659 0.11922533239220852 -0.022826981986712919 0.11693270170014347 0.11920285811205047 -0.049360203678505965 0.11139026604595506 0.089451427807301781
leaf_weight=626.11840956099331 2121.446330178529 14.289345713332294 82.438532065600157 2066.1887347437441 605.48378137499094 34.803456906229258 11.92467180453241 5.937268994748595 6.1773499231785527 19.956221990287304 8.1019789855927211 8.253352187573908 41.582376979291439 8.5675159040838462 6.9728460907936087 9.8873035628348571 13.941626213490961 2.5029026940464973 7.2632628753781345 13.023198524489997 14.324028102681039 8.499968528747555 17.601570816710591 14.795669037848709 8.5663920938968641 19.510355517268181 6.2571523133665314 22.840824857354164 26.519080983474851 13.040994837880135 11.631183464080095 2.7624708712100974 98.205952420830727 7.315306283533574 10.318135272711514 25.726060178130865 11.496763948351147 11.72851870767772 4.9700973667204407 10.749770972877743 11.740056263282893 24.284556178376079 18.517265727743506 36.242431720718741 200.45088358409703 202.77930763177574 11.001396039500834 8.8970426823943836 1.522692410275339 2.6539516486227512 3.2772320229560128 80.54629029519856 3.3782756011933079 98.376783601939678 20.462887175381184 1695.6853677313775 14.649559149518607 1806.8170609027147 519.90837471187115 9.6691677458584291 396.99262014403939 511.58611991256475
leaf_count=39344 1020 284 42 636 175 150 50 126 22 97 140 175 87 64 164 93 74 40 61 26 157 1 332 74 158 379 117 50 64 88 24 3 304 129 228 11 69 36 10 19 230 96 51 706 123 235 80 26 7 109 16 140 20 46 16 2049 279 314 115 224 721 3088
internal_value=0.104815 0.113598 0.109158 0.107664 0.100154 0.0913136 0.0802782 0.0435749 0.0579314 0.118426 0.0881907 0.0906303 0.0930663 0.0675156 0.0907396 0.0346279 0.0201889 -0.00761196 0.104067 0.0950116 0.0607222 0.11087 -0.0148681 0.0999464 0.0399484 -0.0110198 0.0429348 0.0900867 0.0612473 0.139588 0.185957 -0.0313843 0.102955 0.0345173 0.109535 0.0670022 0.121469 0.182617 0.113205 0.0709823 0.0378826 0.134056 0.167893 -0.0430417 0.12788 0.111331 0.0933776 0.0392265 -0.0499354 0.0561412 -0.0234867 0.102259 -0.0163113 0.115998 0.11567 0.120217 0.114197 0.111265 0.104136 0.0956156 0.0975335 0.0867773
internal_weight=11741.2 11110.9 3915.27 3632.38 1566.19 960.709 622.681 111.697 97.4076 25.8935 510.984 499.504 491.251 150.134 115.799 71.5141 65.3367 51.3951 341.117 274.863 88.5488 186.314 24.8648 108.826 20.4911 34.335 14.8247 63.6839 40.8431 66.2546 24.6722 41.5078 173.291 15.8153 157.475 36.0442 121.431 23.2253 88.3346 30.7372 25.7671 57.5975 33.3129 39.0049 282.889 338.027 135.248 19.8984 630.295 4.17664 15.0173 115.35 11.4803 7195.59 7097.22 1716.15 5381.07 3259.62 1452.81 932.897 918.248 521.255
internal_count=53814 14354 6482 6317 5681 5506 4875 1445 1161 223 3430 3270 3095 1428 868 938 916 842 1667 1468 664 804 393 704 208 560 181 271 221 199 112 749 778 130 648 239 409 105 496 275 265 221 125 709 165 631 396 106 39460 116 246 290 160 7872 7826 2065 5761 4741 4427 4312 4033 3312
is_linear=0
shrinkage=0.05


Tree=9
num_leaves=63
num_cat=0
split_feature=182 41 46 148 54 55 116 11 121 148 141 183 116 150 116 134 54 50 147 18 46 54 54 13 119 15 113 134 151 46 46 136 150 59 127 46 148 51 24 151 183 119 111 155 153 151 153 121 24 155 127 55 59 46 136 127 50 16 24 183 119 125
split_gain=5520.47 94.1561 208.065 180.261 138.354 125.706 98.1072 96.9392 83.3698 119.573 82.6716 163.171 90.1592 127.162 125.971 107.069 89.7895 88.963 86.4515 85.8763 85.6618 73.9746 102.835 72.2591 68.8406 80.7771 68.4799 65.1295 101.496 60.2667 66.7768 67.9152 61.6715 69.1493 61.1139 58.6155 61.1556 57.0551 78.674 54.8849 58.3488 53.2613 91.845 51.4232 59.5768 50.8958 48.9251 46.5206 67.226 67.1092 47.1265 46.3481 45.9146 41.3996 52.5323 69.2545 40.6742 55.7634 41.9319 56.4927 40.5767 39.3525
threshold=0.014658290500666287 1.0000000180025095e-35 44.500000000000007 1031.5000000000002 2895.5000000000005 615.50000000000011 17.500000000000004 -167390.14999999997 6.5000000000000009 448.50000000000006 3.5000000000000004 0.069197275292347468 27.500000000000004 32.024726775956289 47.500000000000007 2.5000000000000004 224.50000000000003 2.5000000000000004 61.319435446078984 2790.5000000000005 1000.5000000000001 724.50000000000011 1110.5000000000002 -16231.384999999998 39.500000000000007 37.500000000000007 46.500000000000007 12.500000000000002 1.1088364809733497 238.50000000000003 293.50000000000006 7.5000000000000009 35.809972677595638 1.5000000000000002 20.500000000000004 1186.5000000000002 87.500000000000014 1.0000000180025095e-35 0.8978655719121752 0.85200281036907011 0.13535268906659356 17.500000000000004 46.500000000000007 1516924.5600191259 4051321.826014047 5.43939482835441 1435292.7461124295 33.500000000000007 1.2574857969697872 2182757.7180983615 52.500000000000007 1.0000000180025095e-35 1.5000000000000002 764.50000000000011 8.5000000000000018 38.500000000000007 1.0000000180025095e-35 6.8950000000000005 0.69187936289135232 0.093169867253808533 29.500000000000004 17.500000000000004
decision_type=2 2 2 10 2 8 2 2 2 10 2 2 2 10 2 2 2 2 10 2 2 2 2 2 2 2 2 2 10 2 2 2 10 2 2 2 10 2 10 10 2 2 2 10 10 10 10 2 8 8 2 10 2 2 2 2 2 2 8 2 2 2
left_child=-1 2 -2 4 7 -6 -7 -4 -8 23 12 16 15 20 18 39 -12 21 29 24 26 43 -23 -10 25 35 -14 -24 -29 -15 -31 32 -32 51 -35 56 52 -22 -39 40 -9 -25 -43 -16 -45 -5 -28 48 49 -13 -49 -34 -37 54 55 61 -17 -58 59 -59 -36 -44
right_child=1 -3 3 45 5 6 8 10 9 -11 11 47 13 14 17 19 -18 -19 -20 -21 37 22 27 41 -26 -27 46 28 -30 30 31 -33 33 34 60 36 -38 38 -40 -41 -42 42 53 44 -46 -47 -48 50 -50 -51 -52 -53 -54 -55 -56 -57 57 58 -60 -61 -62 -63
leaf_value=-0.049856970734526107 0.10910864195076793 0.10856127157290683 0.27612014773201304 0.12784350485762314 -0.039664499289977062 -0.051414947189037358 0.13520148211533797 -0.023061931828415844 0.19071746861900726 0.15857751527796057 0.13524708692282572 -0.017750934181878158 0.12989194871027521 -0.048535762717923869 0.23381300702022659 0.078798902508865065 -0.017559939736069844 0.0033945967191525601 -0.053272778538566316 0.14846913950270021 0.26345824288485725 -0.049564421791398007 0.14687348284054935 -0.052389804121988438 0.15276121539390494 -0.038469956070697107 -0.050509840070559947 0.12096583453804902 -0.050449228858883859 0.21757461807584694 0 -0.025311348218611814 0.10584157255293553 0.29330658821840533 0.013858435524975699 0.15482774512488329 -0.047736957961689787 0.19963628029865327 0.0070908025923711489 0.11123149330697142 0.11989710350967529 0.11154991654289025 -0.04946701618174619 0.0055875699976633518 0.16748008884249352 0.27093834356903518 0.10429900947151648 0.11082158303883916 0.17430673180710615 0.17555695527777013 -0.04890976574675103 0.0005053895124416686 0.010862645164849576 -0.052054570057112018 -0.04982617737530725 0.19382504776062681 0.092773953050252086 -0.043875786208969585 -0.023208428915149765 0.17277177489743478 0.16794612564094499 0.10816251540986654
leaf_weight=600.37767514400184 1854.3897527009249 8147.6860046982765 5.9922138378024092 16.552682623267177 36.889467027038336 17.007726460695267 39.437675824388862 17.272494032979012 5.5672884956002227 20.86465429700911 10.092018088325856 12.297803198918702 144.33684710040689 10.201195733621715 22.467025078833103 29.380869975313544 71.069508593529463 16.765822865068913 17.366867272183299 19.168372042477131 20.260294595733285 9.8800209593027812 60.383104484528303 19.913066033273935 11.685944676399229 32.923524042591453 9.5281926766037959 22.546402007341385 12.875663941726087 6.7953821942210189 18.315177600830793 17.493481162935495 24.199527772143483 6.6099026612937477 7.1902900747954872 25.893671369180083 5.4660185351967803 15.23423742502928 8.0747314114123565 171.49224845133722 10.817278031259777 26.553486455231905 9.2243562135845441 8.0581737663596886 19.445934377610683 14.478539248928426 8.9662217404693347 8.2824978958815354 32.188159756362438 5.8976895939558736 8.2954877670854312 18.012893941253424 7.2701855916529885 22.014423364773393 11.316290495917199 7.3252700809389344 16.138490939512849 4.72139656357467 62.582195786759257 5.8594330735504627 10.59624504111707 5.4641734864562741
leaf_count=39460 354 1815 49 65 634 333 97 320 47 62 97 125 330 200 127 213 1286 219 278 166 99 176 407 344 3 569 144 216 227 50 252 288 107 37 106 197 89 81 109 824 6 170 155 108 74 43 63 40 111 29 124 250 100 409 203 23 117 98 991 17 49 32
internal_value=0.097825 0.105644 0.0981785 0.0830127 0.0800638 0.0436997 0.0605016 0.087402 0.0721203 0.0517868 0.0861011 0.0507533 0.0916279 0.105814 0.0849493 0.0740191 0.00279482 0.113375 0.048518 0.0496409 0.136486 0.125092 0.0995413 0.0297184 0.0395491 0.031806 0.118328 0.115323 0.058846 0.0636828 0.0745554 0.0630057 0.0813391 0.103387 0.169437 0.0466956 0.0995475 0.200059 0.136176 0.100617 0.0340483 0.0190966 0.0369607 0.176017 0.122084 0.201139 0.0257863 0.107912 0.131556 0.0505269 0.0323735 0.0620601 0.124656 -8.20106e-05 0.0346164 0.0785207 0.028763 0.0115552 -0.00730225 0.0802262 0.109975 0.0120096
internal_weight=11945.5 11345.1 3197.39 1343 1311.97 221.578 184.688 1090.39 167.681 128.243 1084.4 148.123 936.276 515.604 309.203 420.672 81.1615 172.422 136.781 221.09 206.401 155.656 105.685 107.378 201.922 190.236 162.831 95.8052 35.4221 119.414 109.213 102.418 84.924 66.6089 24.3964 157.312 38.6299 43.5693 23.309 199.582 28.0898 101.811 81.898 49.9711 27.5041 31.0312 18.4944 66.9616 50.3837 18.1955 16.578 42.2124 33.1639 55.3445 33.3301 22.0138 118.682 89.3015 73.163 10.5808 17.7865 14.6885
internal_count=53814 14354 12539 12185 12077 2509 1875 9568 1542 1445 9519 1812 7707 3997 3171 3710 1383 1554 1617 2560 826 1335 1026 1383 2394 2391 537 850 443 1339 1139 1089 801 549 192 1822 386 289 190 1150 326 1336 992 309 182 108 207 429 265 154 164 357 297 822 413 210 1436 1223 1106 115 155 187
is_linear=0
shrinkage=0.05


Tree=10
num_leaves=63
num_cat=0
split_feature=182 46 41 116 141 154 114 123 2 124 115 47 124 116 127 122 115 115 122 55 116 110 122 122 55 2 17 155 7 55 155 154 47 44 116 24 154 13 136 55 125 44 123 124 2 128 123 132 148 115 46 17 51 150 115 112 127 17 122 122 112 55
split_gain=4885.7 92.83 183.479 144.608 185.934 143.665 132.091 127.564 164.566 108.39 106.586 106.07 117.097 94.4181 92.4683 138.389 98.6648 88.2389 138.648 87.1445 85.4992 117.165 79.4512 78.2455 109.549 77.5672 73.4722 71.6605 69.1714 108.116 78.0474 84.5338 65.5159 61.213 64.7553 108.615 94.5373 99.8162 78.079 79.759 60.7829 98.6374 87.6661 87.7281 69.6036 60.2198 59.2684 84.2084 59.0427 61.1723 65.2379 54.8043 52.6802 52.4753 50.5345 86.3733 48.8293 62.496 53.3887 47.4665 46.8814 45.1044
threshold=1.0000000180025095e-35 44.500000000000007 1.0000000180025095e-35 17.500000000000004 3.5000000000000004 52024964.400000013 28.500000000000004 13.500000000000002 -6521.8449999999993 26.500000000000004 44.500000000000007 79.552361396303908 7.5000000000000009 96.500000000000014 16.500000000000004 16.500000000000004 23.500000000000004 26.500000000000004 13.500000000000002 1111.5000000000002 88.500000000000014 2202.5000000000005 25.500000000000004 13.500000000000002 1104.5000000000002 135103.94500000004 55.095000000000006 1141451.7196666668 -54105.769999999997 266.50000000000006 420016.7325000001 5808131.6600000011 24.110882956878854 74.500000000000014 48.500000000000007 0.83262670346490986 17669545.235000003 10515.295 5.5000000000000009 1660.5000000000002 16.500000000000004 56.500000000000007 25.500000000000004 18.500000000000004 5728.1900000000014 26.500000000000004 25.500000000000004 11.500000000000002 41.500000000000007 19.500000000000004 576.50000000000011 191.18500000000003 1.0000000180025095e-35 16.008196721311482 53.500000000000007 121.50000000000001 21.500000000000004 282.64500000000004 11.500000000000002 15.500000000000002 28.500000000000004 841.50000000000011
decision_type=2 2 2 2 2 10 2 2 8 2 2 2 2 2 2 2 2 2 2 10 2 2 2 2 10 8 2 10 10 10 10 10 2 10 2 8 10 2 2 10 2 8 2 2 10 2 2 2 10 2 2 2 2 10 2 2 2 2 2 2 2 10
left_child=-1 -2 3 23 5 6 -5 8 52 13 -7 12 25 14 15 16 -9 22 -19 20 26 -22 -14 24 27 48 -6 28 29 -3 31 53 -11 34 35 38 37 40 -16 -40 44 -42 -43 -44 -36 54 47 56 -10 50 -50 -38 -8 -31 55 -21 57 -37 -58 -52 -30 -39
right_child=1 2 -4 4 19 10 7 9 11 32 -12 -13 17 -15 33 -17 -18 18 -20 45 21 -23 -24 -25 -26 -27 -28 -29 60 30 -32 -33 -34 -35 36 46 51 61 39 -41 41 42 43 -45 -46 -47 -48 -49 49 -51 59 -53 -54 -55 -56 -57 58 -59 -60 -61 -62 -63
leaf_value=-0.05064223034491934 0.10356731269826121 -0.033537216268129576 0.10052358353344744 0.12184855558779249 0.11575237598756179 0.098860125080431682 0.17760888636400954 -0.050299803129852598 -0.047091700471974633 0.12674672068994194 0.22349519200961621 0.22196744126058385 -0.030524292171716063 0.2958001924386861 0.15340896056716596 0.22012729905582079 0.13773777461524891 0.1643555709749116 -0.026993916790569995 0.11158438276717608 0.13630492982879261 -0.013099961216901088 0.18556756911750127 0.14313552469446386 -0.053512396403138762 -0.052553041311332122 -0.039025395643559647 0.21917792175311251 0.1783723610472901 -0.0020465823427607238 -0.049713460853390498 0.2131375518646754 -0.032534861173235972 0 0.13184670305364629 -0.0037603778477326745 0.10278845082464574 -0.049869835754822123 -0.049341914883299802 0.20554977207742553 0.29337104232804617 -0.049051536157986485 0.24885030568152203 0.031160143943028802 0.2617961920350857 -0.04687549211330122 0.15068974775316241 -0.053086816791483249 0.023251816201729225 0.0031657597294537871 0.10746545504819847 -0.022040683417580573 0.067956306858155791 0.11621191142687831 0.15155685221150331 -0.050406685457672254 0.11129630200507741 0.15058333495942727 -0.031260037709795394 0.22123521200814877 0.012266410821833565 0.10474452740945672
leaf_weight=565.3183757904917 6895.8687632419169 47.536553703248501 3482.1611531488597 224.22144404612482 7.7008071504533282 38.287699777632952 30.007004387676716 10.401164177805187 7.6794701227918258 7.6305619515478602 35.432448701933026 6.6232212111353865 102.39531147107482 5.573850415647029 46.03280053474009 35.44272393733263 17.724174130707979 17.599644221365452 18.712958630174398 23.464568870142102 25.596194183453918 25.477190969511867 3.4420870970934621 14.705238547176121 33.557361861690879 11.297298988327382 64.234939375892282 4.8140561282634726 12.253398515284063 19.146494958549738 10.854658540338276 10.654379950836299 24.610006351023912 18.556062953546643 23.989175751805305 9.6015510428696889 17.82416345179081 8.2474991567432898 10.890386270359157 3.1401070430874816 5.0751963146030903 10.022431312128903 7.5794852841645506 10.910538731142877 25.250326892361045 7.2115033566951743 9.103166673332451 25.21341697871685 18.394796969369054 16.650269629433751 54.053091913461685 15.847951080650089 20.139602947980165 17.176376055926085 26.531172486022115 11.633868303149937 8.1696582641452569 18.972164357081056 22.141874881461263 12.09837040491402 6.580506093800067 8.7338223680853826
leaf_count=39303 1035 809 1204 352 18 230 100 166 171 48 87 44 1628 19 174 82 47 93 286 164 163 432 14 65 615 168 1099 26 63 299 198 42 407 277 180 134 118 126 204 15 16 182 43 108 107 136 42 447 215 194 291 232 147 77 154 193 37 109 356 37 80 58
internal_value=0.0928599 0.099756 0.0943436 0.0788288 0.0849909 0.0934666 0.0880554 0.0774551 0.0534683 0.0960862 0.16102 0.0376413 0.0321431 0.103643 0.099934 0.155303 0.0686876 0.00131375 0.0675328 0.0394882 0.0139882 0.0628602 -0.0217785 0.0363084 0.025799 0.0682574 -0.0210278 0.0467194 0.0382978 0.0218857 0.0673228 0.0949422 0.00769173 0.0879198 0.093596 0.0704965 0.119361 0.143719 0.122489 0.0172518 0.166172 0.1085 0.0665981 0.128842 0.20247 0.0841288 0.0359929 0.0218941 0.0812028 0.0913531 0.108422 0.0449516 0.135858 0.0553569 0.100042 0.0578427 0.0544331 0.100177 0.00932989 0.131332 0.124132 0.030776
internal_weight=12336.2 11770.9 4875.01 1392.85 1215.57 1023.72 949.999 725.777 319.093 406.684 73.7201 268.947 262.323 374.444 368.87 63.5681 28.1253 142.15 36.3126 191.85 123.009 51.0734 105.837 177.279 162.574 120.173 71.9357 129.016 124.202 105.368 57.8319 46.9773 32.2406 305.302 286.746 153.265 133.481 99.8085 60.0633 14.0305 82.8272 33.5877 28.5125 18.49 49.2395 68.8411 93.2018 84.0987 108.876 101.197 84.5463 33.6721 50.1466 36.3229 61.6296 35.0984 58.8852 28.5737 30.3115 66.1515 18.8339 16.9813
internal_count=53966 14663 13628 12424 10150 7791 7474 7122 3388 3734 317 3141 3097 3279 3260 295 213 2021 379 2359 1712 595 1642 2274 2209 1076 1117 1594 1568 1425 616 418 455 2965 2688 1518 1170 820 393 219 636 349 333 151 287 647 1125 1083 908 737 543 350 247 376 511 357 636 243 393 328 143 184
is_linear=0
shrinkage=0.05


Tree=11
num_leaves=63
num_cat=0
split_feature=180 46 41 145 153 153 54 47 112 134 11 183 140 122 44 24 136 112 129 54 125 17 24 136 47 142 113 140 151 122 2 47 11 2 140 24 181 123 124 139 147 4 115 44 124 54 123 132 118 129 2 16 120 145 46 129 135 131 4 118 51 155
split_gain=4314.15 109.1 202.812 163.587 158.498 158.144 201.202 130.774 87.4616 97.2956 87.9779 106.695 88.856 86.2298 80.5209 79.4666 70.3462 66.7415 91.4284 130.716 82.9355 93.0691 73.7622 68.6895 61.9032 56.1312 54.6535 58.7311 53.6898 124.25 93.9937 61.233 53.5111 105.6 55.5049 53.3139 55.0434 60.8047 54.659 52.7322 95.6303 51.5393 51.0843 140.624 85.4078 51.0321 48.9097 48.5657 47.7534 71.4716 47.3111 46.4774 46.1165 44.485 43.1363 42.5906 74.7883 37.3786 70.4214 38.8668 55.7889 54.4111
threshold=1.0000000180025095e-35 44.500000000000007 1.0000000180025095e-35 0.26561336808505581 2929505.5661306041 9997859.4585345164 284.50000000000006 56.924024640657088 40.500000000000007 4.5000000000000009 -752882.41999999993 0.056882067447346842 7.5000000000000009 23.500000000000004 73.500000000000014 1.1236198320434319 6.5000000000000009 99.500000000000014 4.5000000000000009 1236.5000000000002 15.500000000000002 234.85000000000005 1.7649532462008366 6.5000000000000009 37.605749486652989 1.0000000180025095e-35 99.500000000000014 1.5000000000000002 1.1355561571843011 16.500000000000004 -7856.6349999999993 72.540725530458602 22546.265000000003 25744.880000000001 11.500000000000002 1.710193107877491 10.500000000000002 14.500000000000002 9.5000000000000018 2.5000000000000004 68.148001733154686 13758.605000000001 53.500000000000007 3.5000000000000004 14.500000000000002 2441.5000000000005 39.500000000000007 7.5000000000000009 8.5000000000000018 12.500000000000002 11379.175000000001 23.295000000000005 30.500000000000004 0.25471175745418839 226.50000000000003 7.5000000000000009 4.5000000000000009 9.5000000000000018 9870.2650000000012 13.500000000000002 1.0000000180025095e-35 652884.96275000006
decision_type=2 2 2 2 10 10 2 2 2 2 2 2 2 2 10 8 2 2 2 2 2 2 10 2 2 2 2 2 10 2 8 2 2 10 2 8 2 2 2 2 10 2 2 10 2 2 2 2 2 2 8 2 2 2 2 2 2 2 2 2 2 10
left_child=-1 -2 3 4 28 8 -7 25 50 13 -11 32 14 16 17 -8 35 18 -13 -20 22 42 52 54 26 -6 27 -23 29 30 -3 -32 34 -34 39 36 41 38 47 40 48 -10 43 44 -22 -30 -26 -38 49 -12 -5 -37 -19 -47 -21 56 -52 59 -59 61 -61 -56
right_child=1 2 -4 5 7 6 15 -9 9 10 11 12 -14 -15 -16 -17 -18 20 19 23 21 24 -24 -25 46 -27 -28 -29 45 -31 31 -33 33 -35 -36 51 37 -39 -40 -41 -42 -43 -44 -45 -46 53 -48 -49 -50 -51 55 -53 -54 -55 57 -57 -58 58 -60 60 -62 -63
leaf_value=-0.050600770987113824 0.098179599339972334 0.11434287533279996 0.094807877390796436 -0.024099390571573134 0.1659826263659083 0.3046187818019741 0.12105452947582523 0.30784579100744258 0.080205865041003244 0.24550482322813194 -0.043763722564667769 0.16244835200653401 -0.03220441689093325 0.25240882328175795 -0.017149489599507555 -0.0181237439757506 -0.049365823217420279 0.1207393949034781 -0.042980668478744398 -0.046288426716372649 0.13447002628214685 0.12549067928293689 0.25526310265421065 -0.027172558531195875 -0.053420330753745908 -0.045317116946756081 0.1809517808520715 -0.049946242647492804 0.11565981441583047 0.12810869479716364 -0.02057018275687009 0.076982438760383853 0.3062699978212875 0.031997159623794173 0.17500397887189223 -0.049924341142254552 0.094747542324527367 0.2155653355649034 -0.0037639331237164925 -0.024317362335420502 0.12734584162694129 -0.051170148359481804 0.13295292048271345 0.21894561200012808 -0.053365933434341907 0.096090267066885171 0.066447991323805092 0.19009265403130213 -0.036091694950003132 0.19513847077617014 -0.034107530477258605 0.11903921995661625 0.016556780748187568 -0.020317274269152093 0.099952946402617926 0.1174413110651728 0.11899599748135588 -0.051558978454235564 0.093714185470796268 0.22857740354223807 0.075430761799592724 -0.016181664544312108
leaf_weight=538.17777732387185 6910.0906813852489 26.425618967041373 3506.8177712708712 48.068275654688478 6.1586207021027821 13.065157132223247 44.574059166014194 15.269043672829865 28.142437318339944 4.9169946350157252 5.5002772063016874 15.419619921594856 23.126467693597078 7.4598721284419289 26.467423114925623 12.849915549159048 8.5612168535590154 84.791033731773496 37.948256125673652 6.3249168992042533 7.2867097090929773 7.3126083537936273 9.1383429504930955 18.641785534098744 29.223812589421868 4.9372735843062401 7.727178491652011 10.263371884822844 197.38188722170889 54.059563755989075 56.838362354785204 21.278926055878401 3.491166282445195 17.711974889039993 3.7083581890910855 11.282040897756817 70.956851854920387 14.277151839807628 10.52224608324468 87.217324285767972 18.573387542739511 9.2159795444458705 46.889703676104546 8.5119231007993204 21.430745005607605 17.529026128351692 10.871239038184283 17.859074732288718 32.511471904814243 5.3902404494583607 24.175053173676133 5.0852999687194815 12.648890426382421 14.100216478109358 42.869669122621417 13.481103647500275 10.681614106521009 13.267829978838561 19.314670359715819 11.692325567826629 14.305835196748376 12.676452971994875
leaf_count=39303 1035 87 1204 794 41 26 162 52 181 13 145 62 339 25 365 140 144 431 502 110 49 20 39 246 448 69 42 163 327 190 887 130 38 302 28 210 335 73 196 1795 123 112 191 27 315 4 71 126 710 32 362 29 120 153 143 75 51 194 109 36 82 153
internal_value=0.0877735 0.0940576 0.0882817 0.0723458 0.0989831 0.0615222 0.133593 0.216609 0.0560743 0.0611308 0.0522205 0.0504368 0.0622021 0.0935483 0.0668668 0.0900475 0.0853942 0.0718624 0.0491208 0.0383654 0.0886763 0.0638531 0.122537 0.0607428 0.0185855 0.0755749 0.0783096 0.0256025 0.0904326 0.0671661 0.0346898 0.00657682 0.0165822 0.0891423 0.00597382 0.0925705 0.101808 0.11916 0.103244 0.00060187 0.0355791 0.0471772 0.0983557 0.0523124 -0.00261542 0.106162 -0.0199719 0.115878 -0.00556237 0.0805268 0.0107239 0.00611588 0.107572 0.0450107 0.0745019 0.0452409 0.0146809 0.0815835 0.0346352 0.0996351 0.150407 0.0735434
internal_weight=12396.5 11858.3 4948.23 1441.41 413.979 1027.43 70.4891 26.3649 956.94 860.534 677.172 672.255 498.151 183.362 475.024 57.424 175.902 448.557 192.461 177.042 256.096 149.517 106.578 139.093 65.3982 11.0959 25.3032 17.576 387.614 158.602 104.543 78.1173 174.104 21.2031 152.901 167.341 150.974 113.615 99.3382 149.193 61.9754 37.3584 84.1191 37.2294 28.7175 229.011 40.0951 88.8159 43.402 10.8905 96.406 16.3673 97.4399 31.6292 120.452 48.3378 34.8567 114.127 32.5825 81.5443 25.9982 55.5461
internal_count=53966 14663 13628 12424 1940 10484 328 162 10156 8874 7443 7430 4257 1431 3918 302 1406 3553 1637 1575 1916 1326 590 1073 744 110 225 183 1778 1294 1104 1017 3173 340 2833 1262 1023 730 657 2805 1010 293 582 391 364 484 519 461 887 177 1282 239 551 157 827 488 413 717 303 414 118 296
is_linear=0
shrinkage=0.05


Tree=12
num_leaves=63
num_cat=0
split_feature=180 46 41 156 123 114 122 116 124 131 114 51 47 7 115 44 125 116 109 134 155 7 115 127 123 113 139 124 125 183 136 55 136 122 13 151 2 151 147 54 17 55 54 47 155 7 181 124 5 133 133 149 182 15 148 17 3 181 119 124 113 129
split_gain=3838.29 125.414 221.039 132.216 112.849 139.461 147.201 104.656 118.735 101.928 92.457 91.9784 153.722 94.8249 81.6406 72.8272 70.5211 101.265 69.4536 67.5014 64.7264 66.7925 60.2194 62.0733 61.301 72.2654 59.6509 59.0288 55.7 64.8059 55.2711 53.1218 52.5531 69.8003 67.6401 52.3655 52.1795 55.7526 51.7356 60.0882 65.9628 50.8598 66.9984 47.6129 62.353 46.7083 46.4848 56.6814 58.2454 45.9821 45.5018 43.0086 66.1589 82.5719 42.1769 40.8654 40.756 65.927 64.0007 38.6088 34.5763 34.444
threshold=1.0000000180025095e-35 44.500000000000007 1.0000000180025095e-35 1.0000000180025095e-35 10.500000000000002 59.500000000000007 23.500000000000004 46.500000000000007 32.500000000000007 35.500000000000007 155.50000000000003 1.0000000180025095e-35 55.218343600273791 -33045.94999999999 37.500000000000007 102.50000000000001 16.500000000000004 88.500000000000014 289.50000000000006 3.5000000000000004 1001302.4519166668 -88126.154999999984 31.500000000000004 34.500000000000007 29.500000000000004 59.500000000000007 5.5000000000000009 18.500000000000004 5.5000000000000009 0.098748698671190641 8.5000000000000018 1436.5000000000002 4.5000000000000009 16.500000000000004 1643.1600000000003 0.1274358951534201 483.78000000000003 1.5183906900317983 10.480402439108977 2043.5000000000002 373.89500000000004 1312.5000000000002 1741.5000000000002 68.85557837097879 2001301.1146407106 -55733.634999999987 7.5000000000000009 7.5000000000000009 -526609.68999999983 6.5000000000000009 11.500000000000002 1.5000000000000002 0.087121212121212141 16.500000000000004 142.50000000000003 107.91000000000001 61881.020000000011 11.500000000000002 24.500000000000004 13.500000000000002 27.500000000000004 4.5000000000000009
decision_type=2 2 2 10 2 2 2 2 2 2 2 2 2 10 2 8 2 2 2 2 10 10 2 2 2 2 2 2 2 2 2 10 2 2 2 10 10 10 10 2 2 8 2 2 10 10 2 2 8 2 2 8 2 2 8 2 2 2 2 2 2 2
left_child=-1 -2 3 4 11 6 32 20 9 10 15 12 13 60 28 43 26 22 -14 38 21 -7 23 -18 50 -26 36 -16 -5 -30 56 -10 55 34 -34 -27 37 -17 -13 40 -40 -38 -43 44 -9 -41 -20 -48 -49 -35 -24 -4 53 -53 -33 -6 57 58 -22 -28 -3 -21
right_child=1 2 51 14 5 7 -8 8 31 -11 -12 19 18 -15 27 16 17 -19 46 61 30 -23 24 -25 25 35 59 -29 29 -31 -32 54 33 49 -36 -37 41 -39 39 45 -42 42 -44 -45 -46 -47 47 48 -50 -51 -52 52 -54 -55 -56 -57 -58 -59 -60 -61 -62 -63
leaf_value=-0.050560895043198086 0.093554765974947607 0.054589544387865833 0.09119473252551584 0.096677966051891537 0.0013865098504754268 -0.054096787569680754 0.26695627991084264 0.013852553520540937 -0.022253314230902627 0.21254223807743877 -0.030174158907584372 -0.027989567378479959 -0.045843451695804865 0.149520634938477 0.23639248292751494 -0.049108385015465779 0.0082136248430568961 0.13155924069741962 0.19375135080516137 0.036697044543802217 -0.050050067615137875 0.083863850732011067 0.036939262704454606 0.21154767068337688 0.18452412535893253 0.12259961691175057 0.10302547620818898 0.10794395694536876 -0.0099114015170834024 0.099201437364716608 -0.050084787918339535 0.17826095050836077 -0.052461251090808896 0.17639929563357765 0.063646781498641128 -0.027198918254989969 0.15342829856427068 0.10669873971971687 0.10713679914117352 -0.051485602956769128 -0.04835408318277732 0.11288609483281045 -0.049701816715896484 0.20467460045618158 0.16755865801716982 0.10641501039999279 0.11785253686880677 0.14853187333079201 -0.050615311949290635 0.052727521352402031 -0.053552397885658014 0.071331477684380709 0.084552430956658348 -0.0519543615769541 0.0075978290728417833 0.11249797182100346 0.1079048493466766 -0.031665887370778557 0.1004378183554141 -0.050532282328313916 -0.034752459054371181 -0.034420523804013746
leaf_weight=512.32489187736064 6889.547191426158 12.778639195486901 3331.8285937309265 210.06262994930148 8.8489765021949989 41.088721988722682 11.77976264990866 13.420807892456653 46.280456732958555 13.243280304595826 19.462709786370397 20.967687984928489 6.6992401145398608 9.031633207574485 16.059261197224259 9.6539951637387276 7.3832313921302539 25.72704136185348 15.5898214969784 21.139541721902788 8.1329797115176898 10.116530820727347 20.14372580870986 6.9351347684860229 7.768786594271659 7.2874702326953438 5.4133465960621825 26.761635102331638 30.307066976092756 23.354718141257763 13.274639839306472 5.7698831930756542 19.283326068893075 14.717004340142013 31.967692004516721 18.770921567454934 59.509379591792822 11.636236656457186 48.675384952686727 16.781395290046934 7.2686158977448931 22.488959867507223 7.9677512254565945 17.4553038533777 12.522386463358997 5.3581266123801461 59.012205311097205 4.2488692700862885 11.216592973098157 17.084956268779933 39.805951464921236 30.209405560046434 129.1490331441164 23.073711901903152 8.1220515463501215 159.07213741354644 26.254528120160103 23.709453977644444 34.202952157706022 10.30778066255152 49.846810361370444 73.258366268128157
leaf_count=39303 1035 123 897 222 125 707 20 157 744 45 280 423 140 46 34 164 91 74 23 236 112 93 184 39 46 33 17 110 345 35 248 18 320 53 203 302 298 19 355 304 113 112 113 46 43 33 286 22 201 99 707 50 162 95 118 809 112 455 184 164 823 1196
internal_value=0.0833523 0.0891272 0.083007 0.06671 0.05899 0.0693087 0.0993856 0.0548776 0.0685211 0.0800454 0.0739707 0.035564 0.062478 0.00667594 0.0960841 0.0807273 0.0702061 0.0442867 0.103258 0.0119051 0.0200756 -0.0256601 0.0224541 0.114406 0.00730266 0.0601928 0.0969242 0.160526 0.085035 0.0384313 0.0423376 0.00366124 0.0904724 0.0566933 0.0196972 0.0174915 0.109702 0.0367906 0.0405641 0.0591571 0.0863522 0.126308 0.0699648 0.140836 0.0916951 -0.0101076 0.114785 0.0958412 0.00949124 0.113745 -0.022957 0.0898714 0.0653097 0.0178781 0.0860273 0.106715 0.0560778 0.0340986 0.070925 0.00504333 -0.0158723 -0.0182243
internal_weight=12401.2 11888.8 4999.29 1485.03 1178.48 816.61 262.754 553.856 397.077 336.904 323.661 361.873 168.424 71.6571 306.545 304.198 260.8 133.822 96.7667 193.449 156.78 51.2053 108.095 14.3184 93.7769 33.8272 126.977 42.8209 263.724 53.6618 105.575 60.1724 250.974 83.053 51.251 26.0584 111.256 21.2902 99.0512 78.0835 55.944 89.9661 30.4567 43.3985 25.9432 22.1395 90.0675 74.4777 15.4655 31.802 59.9497 3514.26 182.432 53.2831 13.8919 167.921 92.2999 66.0454 42.3359 15.7211 62.6254 94.3979
internal_count=53966 14663 13628 12424 11678 7354 1629 5725 3814 2934 2889 4324 1664 992 746 2609 2363 1476 672 2660 1911 800 1402 130 1272 381 887 144 602 380 1111 880 1609 675 523 335 706 183 1228 805 468 523 225 246 200 337 532 509 223 152 891 1204 307 145 136 934 863 751 296 181 946 1432
is_linear=0
shrinkage=0.05


Tree=13
num_leaves=63
num_cat=0
split_feature=180 19 43 116 134 114 24 111 155 148 24 153 54 182 120 138 3 7 133 139 23 136 133 54 116 153 153 142 127 18 127 116 112 110 113 7 3 148 132 23 129 24 112 116 15 148 120 153 133 136 124 156 130 135 54 155 137 156 18 114 182 153
split_gain=3437.76 53.9391 73.5172 91.7903 74.7807 56.7831 48.0723 70.1069 66.2809 46.1148 93.2793 41.2842 58.6908 42.5433 35.2457 93.5232 33.7151 38.5464 32.1744 31.4693 52.1546 33.5644 32.5245 71.8157 34.0958 66.7847 85.2122 60.3494 56.4599 30.1908 29.4957 50.672 34.1794 44.8798 51.5207 34.0085 29.4292 48.3785 26.301 61.3846 50.297 29.2152 28.4273 42.1563 27.9037 33.255 24.9711 52.2397 23.6298 34.3577 23.5279 30.1511 28.5829 23.1272 22 21.7123 21.206 20.8767 206.88 104.009 62.5749 20.6885
threshold=1.0000000180025095e-35 1.0000000180025095e-35 14.500000000000002 17.500000000000004 1.5000000000000002 29.500000000000004 0.82440800643279244 10.500000000000002 336286.46300000005 47.500000000000007 0.84886637350354222 9997859.4585345164 284.50000000000006 0.042572463768115944 54.500000000000007 12.500000000000002 620959.9650000002 -811052.16499999992 31.500000000000004 7.5000000000000009 718.25499999999943 17.500000000000004 22.500000000000004 269.50000000000006 25.500000000000004 730670.58644649119 834240.54227757303 1.0000000180025095e-35 17.500000000000004 692.50000000000011 16.500000000000004 48.500000000000007 96.500000000000014 658.50000000000011 29.500000000000004 -97467.01999999999 1376.9000000000003 85.500000000000014 7.5000000000000009 -91810.074999999968 8.5000000000000018 0.93574892305971591 87.500000000000014 33.500000000000007 19.500000000000004 102.50000000000001 25.500000000000004 2217305.4386307006 33.500000000000007 52.000000000000007 9.5000000000000018 2.5000000000000004 1.0000000180025095e-35 2.5000000000000004 2372.5000000000005 537568.64000000025 3.5000000000000004 3.5000000000000004 370.50000000000006 28.500000000000004 0.12132352941176472 901818.11507442745
decision_type=2 2 10 2 2 2 10 2 10 10 8 10 2 2 2 2 2 8 2 2 10 2 2 2 2 10 10 2 2 2 2 2 2 2 2 8 2 10 2 10 2 10 2 2 2 10 2 10 2 2 2 10 2 2 2 10 2 8 2 2 2 10
left_child=-1 2 3 4 9 55 8 -8 56 10 54 13 -13 53 16 -16 18 -18 19 22 21 -21 24 -24 25 -15 -27 28 -28 -10 32 35 33 -26 -35 -32 -29 61 41 -40 -41 44 43 -43 -37 -46 -42 -48 -17 -50 51 52 -9 -7 -2 -5 -6 -3 -59 60 -60 -38
right_child=1 57 -4 5 6 11 7 50 29 -11 -12 12 -14 14 15 48 17 -19 -20 20 -22 -23 23 -25 30 26 27 36 -30 -31 31 -33 -34 34 -36 38 37 -39 39 40 46 42 -44 -45 45 -47 47 -49 49 -51 -52 -53 -54 -55 -56 -57 -58 58 59 -61 -62 -63
leaf_value=-0.050522494641636106 0.032605070647799203 0.088957754914462936 0.088431683680571027 0.089933004516430853 -0.054658386586695251 0.093838119185354396 0.085219513354361787 0.08605796913649455 -0.0072776856020453015 0.092196401387705684 -0.056238410688407327 0.16728362091792032 0.086682323697270261 -0.029713177524568271 -0.054027023915123679 0.09727421834531895 0.081977817558220395 -0.053622098793103784 0.14091259636540124 -0.055179640671293731 0.074141816246200851 0.068866407359203463 0.1138337799718058 -0.052306758082446739 0.093540264780723428 0.12093409341059057 -0.054068517987707621 0.082640568917941137 0.059903480601967735 0.085004612171703076 -0.017300090837123173 0.084669295476966944 0.15000491706168406 0.078528274821238739 -0.052476913477729203 0.060866025751699908 0.067743298049437906 0.065824313435571477 -0.053284709969050631 -0.024517406896656449 0.070881664999955352 -0.052374559703102674 0.085026522484455122 0.059671237699381686 0.081723620823730359 0.15418876735788001 -0.050799923636319501 0.063526071532373149 -0.048474013621214417 0.087284984270971991 0.051225141514177619 0.055129698796618012 -0.055820816495890151 -0.048931061153068188 0.11989802533591774 0.12204729714646978 0.071493716594551587 0.094105977313114153 -0.053424217423515996 0.084785165898439846 0.043175309873545044 -0.05444991467043258
