tree
version=v4
num_class=1
num_tree_per_iteration=1
label_index=0
max_feature_idx=186
objective=binary sigmoid:1
feature_names=avg_balance num_chequebooks monthly_avg_balance quarterly_avg_balance daily_avg_balance loan_sum loan_count cc_sum cc_count od_sum od_count ka_sum ka_count sa_sum sa_count branch_employee_count branch_turnover branch_asset_size account_age_days is_frozen product_family_S product_family_K product_family_O balance_monthly_daily_diff balance_monthly_daily_ratio nomination_flag_num cheque_allowed_num cheque_availed_num kyc_compliant_num rural_branch_num pan_available_num aadhaar_available_num passport_available_num mobile_banking_flag_num internet_banking_flag_num atm_card_flag_num demat_flag_num credit_card_flag_num fastag_flag_num joint_account_flag_num nri_flag_num was_frozen was_unfrozen freeze_duration_days days_since_mobile_update mobile_updated_recently days_since_kyc customer_age_years relationship_duration_days kyc_doc_count digital_adoption_score pin_match_branch pin_match_permanent is_male days_since_address_update days_since_passbook_update branch_type_urban branch_type_semi_urban branch_type_rural total_product_count total_outstanding has_loans has_credit_cards scheme_APY scheme_PMJDY scheme_PMJJBY scheme_PMSBY scheme_REGULAR scheme_SCSS scheme_SSA txn_count txn_total_amount txn_total_abs_amount txn_min_amount txn_max_amount txn_max_abs_amount txn_structuring_count txn_round_1k_count txn_round_5k_count txn_round_10k_count txn_round_50k_count txn_month_boundary_count txn_night_txn_count txn_weekend_txn_count txn_unique_counterparties_part txn_unique_mcc_part txn_unique_channels_part txn_credit_count txn_credit_total txn_debit_count txn_debit_total txn_unique_credit_cp txn_unique_debit_cp txn_mean_amount txn_mean_abs_amount txn_std_amount txn_credit_debit_count_ratio txn_credit_debit_amount_ratio txn_active_span_days txn_per_day txn_structuring_pct txn_fan_ratio txn_round_1k_pct txn_round_5k_pct txn_round_10k_pct txn_round_50k_pct txn_month_boundary_pct txn_night_txn_pct txn_weekend_txn_pct ch_UPC ch_UPD ch_END ch_IPM ch_STD ch_P2A ch_FTD ch_NTD ch_MCR ch_FTC ch_MAC ch_TPD ch_APD ch_CHQ ch_ATW ch_TPC ch_STC ch_OCD ch_RCD ch_IFD ch_ETD ch_NWD ch_CSD ch_IFC ch_PCA ch_MAD ch_CHD ch_RTD ch_CCL ch_OPI ch_CTC ch_SID ch_ASD ch_IAD ch_SCW txn_dominant_channel_count txn_channel_concentration txn_active_channels txn_monthly_txn_std txn_monthly_txn_max txn_monthly_txn_min txn_monthly_txn_mean txn_monthly_txn_cv txn_active_months txn_monthly_amount_std txn_monthly_amount_max txn_monthly_amount_mean txn_burst_months txn_add_lat_min txn_add_lat_max txn_add_lon_min txn_add_lon_max txn_add_geo_txn_count txn_add_unique_ip_part txn_add_bal_after_min txn_add_bal_after_max txn_add_bal_after_sum txn_add_bal_after_count txn_add_ptt_CI_count txn_add_ptt_BI_count txn_add_ptt_IP_count txn_add_ptt_IC_count txn_add_subtype_NORMAL_count txn_add_subtype_LOAN_count txn_add_atm_deposit_count txn_add_geo_lat_spread txn_add_geo_lon_spread txn_add_geo_spread_km txn_add_bal_after_mean txn_add_bal_after_range txn_add_ci_ratio branch_mule_count branch_total_count branch_mule_rate_raw branch_mule_rate_smoothed dormant_ratio income_mismatch_ratio volume_balance_ratio
feature_infos=[-75945400.180000007:189352987.5] [0:3] [-82365133.659999996:209856381.56] [-88036218.930000007:227640719.33000001] [-101552329.90000001:162747451.59] [-24514495.07:-2869.96] [0:3] [-1963631.6299999999:2063870.6299999999] [0:2] [-3971761.2799999998:2264846.7400000002] [0:1] [-35528924.289999999:77624430.430000007] [0:2] [-23235727.489999998:20017487.100000001] [0:2] [1:49] [5:245.56] [10.210000000000001:499.95999999999998] [10:3650] [0:1] [0:1] [0:1] [0:1] [-22541707.68:47108929.969999999] [0.00068379171228840534:3347.8857859469172] [0:1] [0:1] [0:1] [0:1] [0:1] [0:1] [0:1] [0:1] [0:1] [0:1] [0:1] [0:1] [0:1] [0:1] [0:1] [0:1] [0:1] [0:1] [-888:1286] [1:179] [0:1] [5:1499] [18.496919917864478:80.492813141683783] [30:11138] [0:3] [0:6] [0:1] [0:1] [0:1] [30:3649] [1:1824] [0:1] [0:1] [0:1] [1:7] [-24539700.93:2264846.7400000002] [0:1] [0:1] [0:1] [0:1] [0:1] [0:1] [0:1] [0:1] [0:1] [5:11003] [42560.550000000003:358777020.03999996] [42560.550000000003:358796109.5] [-6980900:663.75] [25807.630000000001:333771851.56] [25807.630000000001:333771851.56] [0:68] [2:1986] [1:238] [0:96] [0:7] [2:3722] [1:626] [0:2233] [4:115] [4:85] [3:42] [3:5082] [11752.92:217728843.83000001] [2:5921] [30807.630000000001:345113716.00999999] [3:59] [2:70] [8512.1100000000006:266352.6503637713] [8512.1100000000006:266366.82219747588] [8844.1381525595825:9091422.0244832579] [0.62820512820512819:1.5] [0.039590730232246386:6.2343396715580157] [0.26126157407407408:1823.4729861111111] [0.10141418667352817:156.06517570176476] [0:0.24409448818897639] [0.32692307692307693:1.5] [0.1335978835978836:0.40000000000000002] [0.0018450184501845018:0.20000000000000001] [0:0.07874015748031496] [0:0.047244094488188976] [0.057839912280701754:0.44246031746031744] [0.023622047244094488:0.20000000000000001] [0:0.31496062992125984] [0:5785] [0:5583] [0:406] [0:666] [0:251] [0:509] [0:213] [0:308] [0:194] [0:133] [0:190] [0:161] [0:131] [0:145] [0:130] [0:108] [0:103] [0:88] [0:192] [0:80] [0:116] [0:110] [0:103] [0:92] [0:90] [0:77] [0:60] [0:56] [0:49] [0:40] [0:28] [0:27] [0:22] [0:18] [0:14] [1:5785] [0.125:0.5] [1:35] [0.25819888974716115:1926.3148585904198] [1:15045] [0:214] [0.033333333333333333:251.06666666666666] [0.059735974655214255:7.8102496759066566] [1:61] [86.044624421304064:232456493.7258983] [672.02999999999997:1816919143.71] [11.016885245901639:31350963.079344261] [0:5] [0:34.034178370176939] [8.5737858129706339:34.133676923730285] [0:93.817753253805165] [70.852047793593897:93.917620658465836] [1:2842] [3:3843] [-100000000:1505884.27] [-1510525.3600000001:100000000] [-267950681813.97:393709928022.39001] [5:11003] [5:10597] [0:392] [0:60] [0:60] [2:10624] [0:221] [0:35] [0.092914412355124654:31.154728032736188] [0.094302668341455842:91.943288444580801] [13.205301087785351:8316.840248785682] [-78924481.496755213:86283131.278191984] [1171405.4000000001:105506189.97] [0.83730158730158732:1] [0:30] [1:109] [0:0.58139534883720934] [0.0023463402907030794:0.48837442733215591] [0:0.99962888980955389] [0.48370834637522803:821195.95934172312] [0.79770568864015068:3523965.3155856729]
tree_sizes=6678 6733 6710 6760 6712 6725 6757 6761 6757 6767 6790 6784 6773 6828 6825 6802 6820 6809 6857 6809 6844 6835 6841 6816 6850 6851 6828 6847 6806 6832 6817 6861 6826 6804 6837 6858 6834 6857 6862 6858 6856 6844 6874 6851 6861 6827 6865 6843 6832 6844 6868 6868 6836 6838 6870 6866 6851 6869 6876 6866 6867 6887 6895 6885 6876 6878 6894 6869 6877 6882 6911 6842 6862 6869 6854 6896 6870 6861 6882 6867 6820 6891 6885 6857 6865 6869 6885 6883 6860 6861 6920 6899 6898 6950 6903 6917 6945 6926 6913 6954 6890 6888 6900 6872 6883 6916 6942 6886 6946 6943 6884 6899 6882 6941 6900 6921 6917 6913 6946 6902 6947 6931 6894 6862 6945 6907 6927 6965 6905 6863 6874 6950 6921 6866 6936 6941 6953 6922 6962 6942 6921 6910 6883 6908 6875 6896 6912 6873 6886 6939 6964 6956 6940 6955 6959 6954 6904 6915 6967 6883 6895 6947 6923 6959 6965 6985 6919 6963 6948 6943 6910 6932 6880 6939 6917 6969 6911 6868 6944 6895 6931 6956

Tree=0
num_leaves=63
num_cat=0
split_feature=183 46 19 42 156 183 151 18 147 15 183 18 15 123 113 7 116 129 134 13 144 139 180 46 116 123 121 115 124 141 18 46 114 123 129 17 16 46 46 124 116 15 150 17 17 17 13 140 46 181 129 13 114 140 147 152 116 110 112 117 116 18
split_gain=597711 111344 95836 53923.7 10844.3 2913.62 2803.05 2393.84 2167.48 2009.06 1262.83 1041.91 982.318 830.796 1511.71 604.881 435.747 723.583 565.524 520.106 428.244 422.318 379.197 357.168 346.876 320.644 336.922 762.137 537.652 429.603 308.884 305.348 303.448 632.691 281.512 516.682 339.887 279.88 336.716 275.594 273.908 266.702 356.656 282.578 259.332 266.837 270.092 281.836 251.829 228.112 279.602 226.982 224.982 224.088 212.688 188.387 179.303 177.139 159.036 341.31 157.941 147.879
threshold=0.032544695754207757 44.500000000000007 1.0000000180025095e-35 1.0000000180025095e-35 1.0000000180025095e-35 0.11124737414088136 0.35725078150617701 575.50000000000011 247.08662841669442 5.5000000000000009 0.062437850331357535 64.500000000000014 11.500000000000002 11.500000000000002 47.500000000000007 -214693.53999999995 30.500000000000004 9.5000000000000018 6.5000000000000009 -19219.429999999997 841.50000000000011 1.0000000180025095e-35 1.0000000180025095e-35 322.50000000000006 43.500000000000007 22.500000000000004 41.500000000000007 68.500000000000014 24.500000000000004 3.5000000000000004 2584.5000000000005 1015.5000000000001 25.500000000000004 4.5000000000000009 5.5000000000000009 239.22500000000005 21.785000000000004 266.50000000000006 1297.5000000000002 3.5000000000000004 26.500000000000004 34.500000000000007 33.479371584699457 226.78500000000003 102.54000000000001 424.97500000000008 8177.5500000000011 7.5000000000000009 829.50000000000011 11.500000000000002 16.500000000000004 11566.760000000002 84.500000000000014 2.5000000000000004 50.9201379780107 25.500000000000004 56.500000000000007 1083.5000000000002 107.50000000000001 20.500000000000004 57.500000000000007 812.50000000000011
decision_type=2 2 2 2 10 2 10 2 8 2 2 2 2 2 2 10 2 2 2 2 2 2 2 2 2 2 2 2 2 2 2 2 2 2 2 2 2 2 2 2 2 2 8 2 2 2 2 2 2 2 2 2 2 2 10 10 2 2 2 2 2 2
left_child=22 -2 3 4 5 10 51 9 -4 -8 16 -11 -7 24 20 30 19 18 -18 -3 -15 32 -1 -24 34 41 27 28 29 56 37 53 33 -21 35 -12 39 -16 44 -37 -34 49 -43 48 -39 46 47 58 -44 50 -19 -6 -22 -14 -48 -41 57 -27 59 -46 -30 -35
right_child=1 2 8 -5 6 12 7 -9 -10 11 13 -13 31 14 15 -17 17 25 -20 21 52 -23 23 -25 -26 26 -28 -29 60 -31 -32 -33 40 61 -36 36 -38 38 -40 55 -42 42 43 -45 45 -47 54 -49 -50 -51 -52 -53 -54 -55 -56 -57 -58 -59 -60 -61 -62 -63
leaf_value=-3.7621590215391523 -1.6344654503651408 -3.0268224525157903 -1.6862802768983252 -1.8038858585532342 -3.7513959789001889 -2.4179702377824217 -2.0837514837469158 -1.8143360968759137 -2.4700375392498239 -2.6165471760921806 -3.6885824697904313 -3.5059694861075377 -3.4959218165081096 -2.670961842980291 -3.5840761809006287 -3.7546543838967512 -2.7891770049743911 -3.7476772639351528 -3.5520950119396635 -3.670612862837634 -3.7439289443031338 -3.6740192342010412 -3.0797801717661328 -3.6876827024214722 -2.9055190923071472 -3.2189443621984646 -3.6212850172929869 -2.7553944770945966 -3.3112266728528401 -3.6655309101711064 -3.6576586845535717 -3.7439289443031338 -3.7564049917576274 -2.7482675924061124 -3.5885201069781396 -3.5883804738416685 -3.7427480640450939 -3.6110039365740789 -3.5784832049188289 -3.4389149309811904 -3.1959121168225342 -2.966823871589682 -3.1110295695914285 -3.7550372926579278 -2.9653652439301901 -3.5279077914491648 -3.1659260499967425 -3.5735987606769974 -3.7443356702992276 -3.7036583352838224 -3.1183033422945643 -3.17675710080269 -3.0917732560502884 -2.844084791165157 -3.7465434178920214 -2.7406707994769364 -2.978549210402039 -3.7459075070409935 -2.7765498338428123 -3.744974788740449 -3.7572031151857215 -3.4320754587481757
leaf_weight=911.43670365959406 651.82809009868652 3.3243491351604453 216.74401930486783 78.148850280791521 4.1939415782690039 9.9139404557645339 6.8071860112249878 14.397388760000466 15.338988732546566 4.6631489801220587 6.7207056209445026 9.3718656525015813 3.0963553488254529 16.113715056329969 5.1234271116554728 6.4307104200124732 7.0992897152900678 2.8658600784838191 4.1914400942623615 5.2062267176806944 2.0736711136996737 52.820757370442152 2.8945558816194517 6.6275069192051888 2.1023669168353072 2.930756136775023 10.446152206510304 4.925356086343526 1.4187787175178517 4.8800312615931025 4.4373374283313742 2.0736711136996746 8.6674792617559415 3.6817418783903122 26.329026401042938 2.2704676128923875 1.8872737102210511 2.7597607970237723 4.9370297081768504 2.3740654103457928 1.8485719710588444 2.9981536790728542 3.8835413455963135 6.8268049024045467 2.3353636711835994 3.6555475592613211 2.5812610052525988 2.0141711831092826 2.143570140004158 26.546227931976318 3.1275526359677315 1.7553732693195341 2.185166522860527 3.6014437563717365 2.5862639732658863 5.1808187179267406 9.0564624518156034 2.4464659206569195 14.944169044494627 2.260068517178297 10.205257840454577 2.3041663840413094
leaf_count=39118 1041 86 540 358 180 147 42 39 254 82 279 355 114 350 201 276 163 123 161 214 89 2182 77 275 43 88 420 102 42 200 181 89 372 73 1045 88 81 109 193 83 51 72 110 293 53 138 73 77 92 1111 87 47 56 79 111 109 247 105 358 97 438 80
internal_value=-2.77998 -2.10121 -2.55417 -2.98796 -3.24599 -3.34562 -2.49007 -2.32446 -1.73251 -2.74778 -3.38502 -3.15699 -2.75161 -3.25932 -3.15462 -3.30608 -3.46998 -3.40379 -3.03602 -3.56292 -2.79066 -3.59564 -3.75876 -3.45999 -3.43388 -3.45428 -3.36011 -3.28866 -3.40098 -3.2457 -3.24577 -3.22296 -3.41517 -3.24434 -3.47587 -3.3298 -3.14229 -3.20573 -3.1595 -3.03421 -3.62214 -3.54979 -3.38755 -3.53267 -3.10293 -3.06159 -3.00689 -2.92646 -3.30967 -3.63626 -3.38218 -3.53009 -3.35614 -3.07769 -3.41597 -2.90205 -3.11622 -3.42736 -2.86993 -3.28723 -3.67581 -2.93317
internal_weight=2248.04 1327.08 675.254 443.171 365.022 323.833 41.1889 35.2396 232.083 20.8422 305.147 14.035 18.6854 121.302 74.4377 54.0651 183.845 105.992 11.2907 77.8533 20.3726 74.5289 920.959 9.52206 46.8647 94.701 46.3093 35.8631 30.9378 19.3137 47.6344 8.77147 21.7082 11.1921 44.7624 18.4333 11.7126 43.1971 38.0736 9.82535 10.5161 48.3917 15.8521 12.8539 33.1366 30.3768 26.7213 21.5538 6.02711 32.5396 5.99341 5.94931 4.25884 6.6978 5.16752 7.55488 14.4337 5.37722 19.5396 4.59543 11.624 5.98591
internal_count=53839 14369 13328 12534 12176 11431 745 518 794 479 11002 437 429 4090 2362 1867 6912 3854 324 3058 495 2972 39470 352 1728 3530 1642 1222 1120 640 1591 282 790 367 1685 640 361 1410 1209 280 423 1888 567 495 1016 907 769 585 202 1321 210 227 145 193 184 192 440 193 508 150 480 153
is_linear=0
shrinkage=1


Tree=1
num_leaves=63
num_cat=0
split_feature=180 149 182 153 153 18 182 41 153 182 18 156 149 18 155 153 18 182 18 153 153 151 155 155 155 152 18 152 18 4 4 18 151 153 151 18 151 153 155 153 153 182 4 155 153 149 18 18 153 153 153 153 153 153 153 153 18 155 151 151 135 135
split_gain=37984.2 420.262 160.465 185.878 156.971 131.224 121.869 263.861 202.93 259.352 106.212 124.661 98.0872 96.7469 85.9997 73.196 87.4407 68.4851 86.1318 126.023 64.2956 52.4541 131.444 159.408 123.326 68.8838 49.4375 45.6257 58.0811 44.9698 40.2051 36.4611 82.435 100.163 85.5698 66.2422 110.395 80.691 62.8361 39.783 212.596 35.6035 31.8885 29.8605 26.9739 26.5688 29.8355 25.663 25.1958 22.6631 21.6503 86.7207 75.4356 100.728 29.9403 126.793 28.4436 16.5742 11.2357 22.3596 8.48732 48.3722
threshold=1.0000000180025095e-35 2.5000000000000004 0.080128205128205135 1649734.8941304702 586638.80521585455 3567.5000000000005 0.12916666666666668 1.0000000180025095e-35 9297689.2483871263 0.042572463768115944 2584.5000000000005 1.0000000180025095e-35 21.500000000000004 1740.5000000000002 7142292.892 6888730.543221985 214.50000000000003 0.07417582417582419 310.50000000000006 6888730.543221985 768968.68701363157 1.9472917020021872 318891.67250000004 232322.37941666669 181636.36375000002 17.500000000000004 434.50000000000006 10.500000000000002 214.50000000000003 6386.795000000001 761151.68500000017 830.50000000000011 1.0043022651839555 5712538.0034071123 1.0945523480633397 797.50000000000011 1.2190797736519581 5882595.6965144388 1410778.8565 3809854.4803936854 2426712.3872180665 0.0093041370953782249 38076.230000000003 2485762.4348333338 2210634.7091098763 74.500000000000014 3541.5000000000005 1115.5000000000002 1794896.7407054764 731513.38927146827 1328525.9406200016 1086118.3323564823 912643.52068283688 989314.93934456084 1557618.5385454057 1458376.784402638 665.50000000000011 436014.70875000005 1.162440035503449 1.124990588306489 16.500000000000004 5.5000000000000009
decision_type=2 10 2 10 10 2 2 2 10 2 2 10 10 2 10 8 2 2 2 10 8 10 10 10 10 10 2 10 2 2 2 2 10 8 10 2 10 10 10 10 10 2 2 10 10 10 2 2 10 8 10 10 10 10 10 10 2 10 10 10 2 2
left_child=-1 6 3 5 42 30 7 8 9 41 29 20 -5 17 48 -8 -17 18 19 -11 -12 22 23 24 -19 26 -24 28 -23 -6 -3 35 38 34 -34 36 37 49 57 40 -38 -2 -4 -41 58 46 -22 -40 -14 -20 51 52 56 -54 55 -52 -27 -33 59 -37 61 -31
right_child=1 2 4 12 10 -7 15 -9 -10 13 11 -13 14 -15 -16 16 -18 21 31 -21 45 27 25 -25 -26 50 -28 -29 -30 60 -32 32 33 -35 -36 44 39 -39 47 43 -42 -43 -44 -45 -46 -47 -48 -49 -50 -51 54 -53 53 -55 -56 -57 -58 -59 -60 -61 -62 -63
leaf_value=-0.051097055465960967 0.16529808785345559 -0.049230075849851486 -0.042935589287852696 0.28026286494410974 0.34332508209616575 0.34642493463339191 0.31163367587701379 0.30664088794181393 0.35922739514715363 -0.045538438903378449 0.27125695080749201 0.30120417845548597 0.12065306616670185 0.32352454958208615 0.24990388481984349 0.40914475648781795 0.322478786155867 -0.037673854418345976 0.10980833573736544 0.2429043390942956 -0.046829043606171933 0.27501540829307403 0.20559177422937341 -0.045688356904306525 0.31338554030065513 0.39517810824798044 -0.039416331890103774 0.32488136337743595 0.11797709861402172 0.24211887044973129 0.16050639135309031 0.14969472875823936 -0.046418500255788864 0.32716032163573838 0.1730033227404093 0.28010702073110011 0.25282674730488125 0.24009653335933187 0.16612458087119475 0.35936198523092006 -0.044261379408955165 -0.045041331475754481 0.16575688813856931 0.21320335199635695 0.22810797090334828 0.17004411541743067 0.12866998035067523 -0.037845125336738603 -0.045286007986825111 -0.044613685312767416 0.23917538103896219 0.36139513672006934 -0.041093413839495066 0.21649564541781921 0.26316447917761787 -0.042088870860472895 0.26654915189539741 0.27307613362153388 0.27084524753526551 0.55378192638023305 0.275775815307084 0.039960661817621757
leaf_weight=868.04492074251175 1.621422640979288 16.922298170626171 5.2231474928557864 21.229462143033743 43.916616037487984 1.7383772023022164 1781.7184161338955 2939.8396715056151 75.117608476430178 6.8883243612945062 2.3726404216140518 10.294483710080383 2.2222737204283458 99.33943447470665 4.800584912300109 64.377936227247119 152.02477680891752 2.9913465213030603 2.4398557990789387 6.6938183158636093 9.5988884177058917 48.777678435668349 3.2299007698893538 7.8370197080075732 9.5010858271270973 9.9245571848005039 3.4347629230469465 119.38614208437502 9.2921095192432386 8.4925608206540364 1.6275832969695319 7.6700587142258874 9.5620718039572292 3.2250892706215373 6.7825628351420155 5.8429556060582453 73.421828709542751 4.9956105779856435 1.611125923693179 20.426639914512634 6.2235624361783257 7.641568586230278 1.6016840096563099 12.02283396758139 11.333208123221992 1.5605814810842282 2.1377482675015917 3.0107107609510422 6.8772477544844151 6.6728747263550767 18.031244669109586 43.362644296139479 4.2368427142500904 20.156949372962117 219.62729510106146 4.6969737391918889 67.329642763361335 38.638865794986486 9.703288992866872 5.1124182902276516 14.772204341366885 5.0618879850953808
leaf_count=39118 43 578 179 74 279 34 2055 1347 315 193 59 40 22 242 3 36 165 108 33 29 324 208 68 265 103 106 114 156 138 80 9 95 350 27 75 23 828 10 43 105 213 277 34 81 61 33 48 102 228 239 212 426 147 176 2307 145 482 306 10 85 33 115
internal_value=0.258361 0.302283 0.219136 0.145518 0.256193 0.0229267 0.304485 0.298607 0.27512 0.26804 0.272164 0.173177 0.213585 0.27065 0.099438 0.31597 0.350048 0.263966 0.237008 0.103184 0.0757452 0.274576 0.261804 0.127841 0.232391 0.268362 0.0900014 0.302736 0.252394 0.304822 -0.0233031 0.24445 0.204931 0.108821 0.0490719 0.260633 0.239439 0.0976239 0.238958 0.256223 0.229289 0.00380867 0.0203266 0.313351 0.334293 0.0239774 -0.00687794 0.0492697 0.00267816 0.00300706 0.271178 0.294074 0.262066 0.171703 0.256305 0.181515 0.287976 0.256343 0.379093 0.443876 0.235286 0.174899
internal_weight=6984.27 6116.23 160.45 55.4178 105.032 20.2883 5955.77 3957.65 1017.81 942.696 98.2076 25.9643 35.1296 933.433 13.9001 1998.12 216.403 834.094 242.278 13.5821 15.6699 591.816 414.36 20.3295 12.4924 394.031 6.66466 177.456 58.0698 72.2433 18.5499 228.696 70.5005 19.5697 16.3446 158.195 126.203 14.1083 50.9308 112.095 79.6454 9.26299 6.82483 32.4495 31.9919 13.2972 11.7366 4.62184 9.09952 9.11273 387.366 145.011 101.648 24.3938 242.356 22.7282 77.2542 46.3089 20.6587 10.9554 28.3267 13.5544
internal_count=53839 14721 2172 948 1224 621 12549 10293 8946 8631 1011 504 327 8311 253 2256 201 8069 2908 222 464 5161 4659 476 211 4183 182 502 346 507 587 2686 998 452 425 1688 1509 282 546 1227 1041 320 213 186 179 405 372 145 250 272 4001 1337 911 323 2664 357 588 401 118 108 228 195
is_linear=0
shrinkage=0.05


Tree=2
num_leaves=63
num_cat=0
split_feature=180 149 46 181 149 121 148 121 41 183 151 151 181 151 0 181 0 121 4 54 148 51 18 4 4 54 54 183 15 51 24 24 18 44 150 150 150 148 44 44 148 148 150 150 0 150 181 18 0 0 150 150 0 148 4 18 150 18 4 148 181 0
split_gain=24263.5 208.789 177.273 273.818 101.038 125.386 133.235 109.452 98.8252 152.259 156.845 122.643 93.1141 89.7132 91.1078 156.888 86.6924 85.5591 83.6367 83.0082 80.6808 95.5037 66.4218 63.4462 128.372 73.6524 59.5187 55.6036 48.2418 44.6182 41.2305 123.19 40.983 39.2677 37.9522 35.9551 33.6623 94.6709 32.9044 31.8431 58.6465 49.6722 77.3738 30.596 66.7685 80.933 29.9282 115.505 36.5731 25.813 24.1364 77.9869 50.2265 24.0948 23.6052 29.9995 71.2994 23.2573 22.1511 21.9545 21.9303 21.6223
threshold=1.0000000180025095e-35 2.5000000000000004 284.50000000000006 12.500000000000002 7.5000000000000009 4.5000000000000009 39.500000000000007 14.500000000000002 1.0000000180025095e-35 0.062437850331357535 0.20855490301710544 2.1407201260320896 23.500000000000004 1.4387608743472395 204775.60500000001 14.500000000000002 1631.3200000000004 20.500000000000004 15316.625000000002 1206.5000000000002 104.50000000000001 1.0000000180025095e-35 620.50000000000011 55923.455000000009 67171.755000000019 1580.5000000000002 1991.5000000000002 0.011244531018393978 26.500000000000004 1.0000000180025095e-35 0.83171041491635622 0.80255352669235414 554.50000000000011 134.50000000000003 33.223087431693997 27.950409836065578 87.841666666666683 453.50000000000006 64.500000000000014 72.500000000000014 29.500000000000004 246.50000000000003 142.30833333333337 23.272677595628419 22341.705000000005 162.88456284153008 11.500000000000002 761.50000000000011 7539.2500000000009 177841.08500000002 12.057786885245903 17.586748633879782 453.49000000000007 20.500000000000004 8681.7250000000004 108.50000000000001 42.991666666666674 908.50000000000011 118420.58500000001 61.500000000000007 8.5000000000000018 9106.6550000000007
decision_type=2 10 2 2 10 2 10 2 2 2 10 10 2 10 8 2 8 2 2 2 10 2 2 2 2 2 2 2 2 2 8 10 2 10 10 10 10 10 10 10 10 10 10 10 8 10 2 2 10 8 10 10 10 10 2 2 10 2 2 10 2 8
left_child=-1 8 -3 4 -4 -6 -7 19 9 10 -2 18 13 14 22 -16 -9 -18 29 -8 21 35 -12 33 -25 58 -19 -14 -13 60 31 -5 38 39 -17 -20 -31 -38 43 40 53 46 -43 -15 54 -46 47 -42 -49 -23 -48 52 -52 -24 55 -45 -57 -35 -26 -27 61 -11
right_child=1 2 3 30 5 6 7 16 -10 11 12 28 27 32 15 34 17 26 20 -21 -22 49 23 24 25 59 -28 -29 -30 36 -32 -33 -34 57 -36 -37 37 -39 -40 -41 41 42 -44 44 45 -47 50 48 -50 -51 51 -53 -54 -55 -56 56 -58 -59 -60 -61 -62 -63
leaf_value=-0.051036022302490394 0.32060786550236942 0.22124830117305572 -0.042485056968952703 -0.042871711954311928 0.43452877544421953 -0.044057350675457733 0.4692220287742549 -0.043435395670413914 0.23958041776359013 0.2881712236453971 0.025994206074779563 0.2946636387972566 0.1761599498162375 0.24318317962297506 -0.048084395927397258 0.05225999512874932 -0.039115530751886049 0.054788866203561375 0.27502464365999896 0.18388450381287932 0.22218322116265701 0.2237110430480061 0.13613841632281887 0.45095042788323991 0.1673096803998177 0.13380050170331895 0.29066836784768951 -0.04391759050867932 0.23617118344459842 0.2023636872539496 -0.049146531450872159 0.36962997897225974 0.24495439924564277 -0.039421511714420265 0.24397611295725519 0.41525080999292696 -0.044652200842429338 0.21228805484852403 0.099430244442336932 0.23181957296851313 -0.045184669809701102 -0.04525071128769248 0.23790162785163815 0.21311246651466173 -0.045433771892228164 0.19032020188665214 0.26621749856867932 0.19974698678129599 0.041949046726848793 0.3162470741884304 0.16502930471397809 0.19625724085552587 -0.044098584811336522 -0.041972616070014568 0.23660784751944175 0.16244718079403669 -0.042789868138865282 0.14682131492076489 0.33639267861595273 -0.039689120944792072 0.22029969535124538 0.18161525893856306
leaf_weight=826.6735546477139 31.551195081323385 108.18141914531589 4.1104819346219292 5.395591456443074 4.7923647556453934 5.8589328732341519 5.0949400234967461 5.2160329949110791 5393.1880206689239 48.24444554746151 6.22882430627942 141.87533478438854 3.7825993709266168 56.543961722403765 11.155230270698668 4.308429902419447 3.3231021706014898 4.30706026777625 20.694028286263347 8.5938794557005149 137.58318999037147 64.820507926866412 2.0124763883650294 7.3666678424924639 9.1992911845445651 2.0643759053200474 10.165226731449364 6.3764651864767075 95.544887125492096 273.19048567116261 19.386061331257224 1.5893514640629289 176.52011897601187 3.2304264158010474 10.134438911452888 21.240101976320148 5.6631042137742025 7.4647431522607803 10.306896246969698 58.02728515304625 6.5793217271566382 5.9685103166848403 2.7677690275013447 20.073298737406731 6.8032435495406371 6.0853971093893051 17.877114336937666 27.460331721231341 5.0208864100277415 18.257983170449734 4.0017754193395358 231.71744036860764 5.9437699634581804 4.2184479869902134 37.641583940014243 17.253219518810514 4.995345462113618 1.8624091595411298 5.7846272066235533 3.6385918222367764 209.95656040869653 13.543031584471462
leaf_count=39118 58 376 109 195 25 182 62 138 1823 196 156 190 92 273 313 82 101 107 165 91 545 336 46 80 80 53 72 236 167 1521 684 30 528 90 89 75 121 22 114 200 174 146 66 39 177 5 87 221 122 109 75 2060 177 118 72 134 144 43 57 112 706 54
internal_value=0.205906 0.234413 0.17943 0.119173 0.185253 0.205595 0.170318 0.204935 0.235796 0.22477 0.20732 0.23799 0.202345 0.204332 0.187734 0.0905884 0.128774 0.179142 0.227758 0.315141 0.253523 0.285937 0.193538 0.196034 0.275271 0.194572 0.22887 0.0460205 0.272235 0.215193 -0.0116544 0.0848988 0.225248 0.189406 0.194197 0.354185 0.198336 0.10578 0.202046 0.191315 0.18309 0.18617 0.0591631 0.208385 0.184775 0.0712066 0.189659 0.139663 0.177486 0.247626 0.1966 0.190353 0.0469807 0.0257342 0.201912 0.166189 0.116293 0.0407844 0.24986 0.0329576 0.232143 0.26816
internal_weight=8278.46 7451.78 186.014 77.833 51.462 47.3515 42.5592 36.7002 7265.77 1872.58 814.502 1058.08 782.951 772.792 436.568 25.5981 23.0114 17.7954 820.658 13.6888 262.596 125.013 410.97 404.742 28.0536 20.6869 14.4723 10.1591 237.42 558.062 26.371 6.98494 336.223 376.688 14.4429 41.9341 286.318 13.1278 159.703 371.595 313.568 307.337 8.73628 149.396 92.8521 12.8886 298.601 39.0605 32.4812 83.0785 259.54 241.663 9.94555 6.23092 79.9634 42.3219 22.2486 5.09284 14.9839 5.70297 271.744 61.7875
internal_count=53839 14721 2172 1796 887 778 753 571 12549 10726 6519 4207 6461 6133 4647 484 418 280 3850 153 1230 685 4163 4007 382 302 179 328 357 2620 909 225 1486 3625 171 240 1664 143 958 3492 3292 3128 212 844 571 182 2916 517 343 445 2399 2312 252 164 389 317 278 133 137 165 956 250
is_linear=0
shrinkage=0.05


Tree=3
num_leaves=63
num_cat=0
split_feature=180 41 46 151 153 145 11 123 181 46 18 51 151 155 151 46 18 145 15 128 120 17 15 136 51 113 145 145 18 114 116 110 17 46 181 11 15 128 123 116 151 145 44 149 17 155 145 114 54 128 54 121 121 17 15 145 18 127 17 54 15 153
split_gain=17315.8 172.297 354.929 399.032 321.379 305.138 272.062 201.918 167.463 181.953 169.267 167.453 206.986 167.085 138.432 126.678 123.346 148.538 131.108 148.574 210.788 126.844 123.325 119.553 109.892 121.404 116.611 109.247 106.715 104.404 134.701 151.998 117.57 113.547 104.34 103.099 157.727 102.188 115.481 102.077 101.457 101.306 90.7781 89.2369 110.154 86.1935 106.925 79.8174 79.0595 77.641 76.8011 75.4478 110.459 72.921 67.7901 67.2436 98.7198 66.0722 64.1815 62.8341 74.1832 67.6941
threshold=1.0000000180025095e-35 1.0000000180025095e-35 44.500000000000007 2.1407201260320896 7493163.1114382921 0.26111481080660687 13796.955000000004 10.500000000000002 11.500000000000002 919.50000000000011 3541.5000000000005 1.0000000180025095e-35 1.2090677524173299 393137.09274999995 0.70218230584624552 186.50000000000003 863.50000000000011 0.26748286285030659 46.500000000000007 15.500000000000002 24.500000000000004 303.98500000000007 32.500000000000007 19.500000000000004 1.0000000180025095e-35 28.500000000000004 0.27086903428004033 0.27011194847695391 641.50000000000011 144.50000000000003 47.500000000000007 673.50000000000011 375.55500000000001 230.50000000000003 16.500000000000004 93349.030000000013 6.5000000000000009 3.5000000000000004 8.5000000000000018 59.500000000000007 0.91528111434733661 0.27827902884607431 136.50000000000003 7.5000000000000009 127.02500000000002 3822571.436666667 0.27086903428004033 151.50000000000003 1136.5000000000002 15.500000000000002 484.50000000000006 18.500000000000004 20.500000000000004 364.40500000000003 20.500000000000004 0.27244767943504838 310.50000000000006 18.500000000000004 188.46000000000001 1949.5000000000002 45.500000000000007 1778237.5075193855
decision_type=2 2 2 10 10 2 2 2 2 2 2 2 10 10 10 2 2 2 2 2 2 2 2 2 2 2 2 2 2 2 2 2 2 2 2 2 2 2 2 2 8 2 10 10 2 10 2 2 2 2 2 2 2 2 2 2 2 2 2 2 2 10
left_child=-1 2 -2 4 5 7 8 14 9 13 15 35 -13 -7 54 -10 17 34 19 21 -21 -19 58 45 26 -26 53 -5 -22 30 31 33 39 -15 -17 -8 -37 38 -23 -32 -41 49 51 -27 -45 46 -6 -48 -33 55 -31 -39 -53 -11 -4 56 -29 -20 -14 60 61 -18
right_child=1 -3 3 27 23 6 11 -9 10 24 -12 12 22 29 -16 16 59 18 57 20 28 37 -24 -25 25 43 -28 41 -30 50 32 48 -34 -35 -36 36 -38 42 -40 40 -42 -43 -44 44 -46 -47 47 -49 -50 -51 -52 52 -54 -55 -56 -57 -58 -59 -60 -61 -62 -63
leaf_value=-0.05097778113671339 0.19751017541463364 0.19859420953490342 0.13678838949871153 0.25132436027365346 0.28853248354968963 -0.010124764987123502 0.33516102955428262 0.36286822796823082 -0.049983337104167899 0.26089133539805509 0.30317301761428911 0.017806133662076656 0.071146091447178664 0.014006609027304363 0.23077677312674316 0.23727281360633828 0.082765071817271288 -0.028755985997863633 0.34498921865657955 0.44930492965436097 0.2095383518649323 0.037194541439059925 0.026242889845309966 0.035388065685790719 0.24557070919651705 -0.038031005154734725 0.021213417901311416 -0.045357475454108946 -0.0090392605063095433 0.2111387015835321 0.36793855251319091 0.15937618427343825 0.072052182003777165 0.22494453112746285 -0.0401240771378229 0.30836392140322144 -0.044427594773774337 -0.049553075591113778 0.36157447255902109 0.28271506698683097 0.021961445242330901 0.0045077683437559834 0.29238757455489484 0.31696702654000258 -0.040556221592118934 0.37668686656466932 -0.044806099953768178 0.24608251190829089 -0.000825602469213823 0.049808315983074961 -0.047118667760427752 0.30017774087256599 -0.041939165655813695 0.037749589475058132 -0.047956327628020622 0.24610040443100814 0.21445810324927816 0.063448076294648367 0.33095159851143396 -0.022100270113272771 0.23806646132961329 -0.04844280514220177
leaf_weight=787.23305680602789 1442.2111657708883 6183.8132710307837 9.9909835550934094 120.93551490828395 14.860982544720175 12.554253153502939 25.987554967403412 19.878388246521354 20.575425386428833 15.697463613003494 6.9296062327921382 21.743799567222595 3.5937618259340587 7.4681490436196318 31.542355177924037 26.093848509714011 30.057207139208913 44.883694607764482 5.6673229746520501 4.2921625226736095 9.1005339678376931 5.3183758743107301 6.1356415934860697 5.4581036679446688 4.3906692974269381 36.788490200415254 13.64576358348131 5.9237356670200807 12.219691144302486 3.1233844552189103 22.632307151332498 11.482443219050767 7.6694400273263446 51.975217219442129 3.5377247240394345 5.3369746301323158 5.8563335426151752 17.656019926071174 5.3964927010238171 8.4381497018039191 6.541353091597558 8.6136629451066238 2.1617590319365254 3.3526855427771798 3.8283534739166498 18.877429960295558 5.9696988090872747 2.6384193915873766 19.918489275500178 9.4733867682516557 8.6465405412018281 3.5622293800115576 4.40226467885077 5.2440602034330359 8.2858896441757661 38.706535365432501 7.3706969916820526 3.8869299665093422 15.398880697786806 35.216895248740911 4.5477650873363009 13.544434340670703
leaf_count=39118 361 1857 137 181 128 301 301 82 509 146 70 483 75 145 194 370 685 1096 50 37 125 111 110 113 48 757 270 116 284 35 185 161 118 544 92 15 143 438 35 71 110 148 25 28 105 130 127 20 376 141 191 36 113 92 210 252 8 73 143 963 70 381
internal_value=0.173323 0.19405 0.181945 0.156666 0.138855 0.129341 0.117189 0.228427 0.102856 0.132767 0.0743305 0.200592 0.132881 0.163889 0.1686 0.066848 0.0774216 0.104692 0.0783895 0.0613769 0.164388 0.0281023 0.227773 0.264024 0.0712721 0.0215861 0.138044 0.221214 0.0892443 0.178663 0.190964 0.152565 0.262932 0.199196 0.203762 0.280105 0.134868 0.0935695 0.217913 0.298851 0.17766 0.166384 0.0395351 -0.00563262 0.144094 0.291881 0.210857 0.0601644 0.0607123 0.188551 0.0321908 0.00783043 0.126936 0.209508 0.0546314 0.212315 0.103265 0.247788 0.288059 0.0282247 0.0648353 0.0417222
internal_weight=9308.28 8521.05 2337.24 895.026 704.003 656.198 586.501 69.6976 502.448 243.397 259.05 84.0529 46.8721 160.45 49.8192 252.121 231.545 148.179 118.547 108.993 25.6124 83.3808 25.1283 47.8046 82.9475 48.3602 34.5873 191.024 21.3202 147.895 136.126 90.8443 45.2812 59.4434 29.6316 37.1809 11.1933 38.4971 10.7149 37.6118 14.9795 70.088 27.7823 43.9695 7.18104 42.3465 23.4691 8.60812 31.4009 61.4744 11.7699 25.6205 7.96449 20.9415 18.2769 52.001 13.2944 9.55425 18.9926 83.3663 48.1494 43.6016
internal_count=53839 14721 12864 12503 11657 11139 10516 623 9246 3683 5563 1270 811 2237 541 5493 4984 2885 2423 2300 446 1854 328 518 1446 938 508 846 409 1936 1710 1226 484 689 462 459 158 758 146 366 181 665 612 890 133 405 275 147 537 517 226 587 149 238 347 376 124 123 218 2099 1136 1066
is_linear=0
shrinkage=0.05


Tree=4
num_leaves=63
num_cat=0
split_feature=180 41 46 151 145 4 154 123 151 4 54 54 46 16 181 182 4 149 151 44 135 123 16 24 18 11 16 182 4 54 154 148 4 151 16 46 182 54 46 154 16 148 182 4 4 54 181 24 24 123 16 181 24 24 145 145 128 16 151 4 24 136
split_gain=13204.9 168.756 352.782 283.846 212.938 212.537 190.642 177.563 186.463 123.284 120.21 124.156 122.93 118.292 165.864 111.296 102.138 100.764 195.393 103.552 100.545 123.619 113.028 99.4476 99.0315 94.1358 92.2785 91.021 90.8988 144.389 148.901 104.818 91.4343 87.0714 83.1863 80.6001 79.0238 78.8794 103.128 75.4451 74.5599 91.0876 87.4066 74.1925 73.7831 96.5813 82.7598 73.3468 72.2867 72.796 70.534 68.5315 94.9085 68.3435 72.8415 68.1482 76.331 63.563 71.4149 58.085 73.7261 57.6488
threshold=1.0000000180025095e-35 1.0000000180025095e-35 44.500000000000007 2.1407201260320896 0.26560031201248052 20216.700000000004 12981267.145000001 9.5000000000000018 1.2989060555463985 165565.37500000003 588.50000000000011 1669.5000000000002 817.50000000000011 23.245000000000001 11.500000000000002 0.12916666666666668 236730.96000000002 16.500000000000004 0.20479797412135034 89.500000000000014 2.5000000000000004 9.5000000000000018 12.515000000000002 0.7813390743712213 689.50000000000011 252750.80500000002 23.465000000000003 0.069047619047619066 1774.7450000000001 2803.5000000000005 8859020.4600000028 42.500000000000007 4314.3450000000012 0.76610262834009879 7.4650000000000007 501.50000000000006 0.069047619047619066 2379.5000000000005 266.50000000000006 9690368.0400000028 22.715000000000003 117.50000000000001 0.10818713450292398 598.94000000000017 1221.4950000000001 3158.5000000000005 7.5000000000000009 0.84535417220920139 1.3069992354291258 12.500000000000002 15.705000000000002 11.500000000000002 0.94144305834624054 1.0437258201753004 0.27249642272994329 0.26844803032726533 26.500000000000004 21.395000000000003 1.6244455849945156 8094.3750000000009 0.96638019201740366 5.5000000000000009
decision_type=2 2 2 10 2 2 10 2 10 2 2 2 2 2 2 2 2 10 10 10 2 2 2 8 2 2 2 2 2 2 10 10 2 10 2 2 2 2 2 10 2 10 2 2 2 2 2 10 8 2 2 2 10 8 2 2 2 2 10 2 8 2
left_child=-1 2 -2 4 7 6 13 8 16 17 12 51 -8 28 43 27 34 18 -7 20 22 -22 -20 -24 -9 -11 -16 -5 37 30 31 -30 48 35 -4 -26 -14 -6 39 -39 41 42 -13 -15 45 47 -46 -43 49 -33 59 52 -12 54 -40 -23 -57 58 -48 -34 -61 -27
right_child=1 -3 3 15 5 9 10 24 -10 25 11 40 36 14 26 -17 -18 -19 19 -21 21 55 23 -25 33 61 -28 -29 29 -31 -32 32 50 -35 -36 -37 -38 38 53 -41 -42 44 -44 -45 46 -47 57 -49 -50 -51 -52 -53 -54 -55 -56 56 -58 -59 -60 60 -62 -63
leaf_value=-0.050922162066237731 0.17069748931413037 0.17135520654755076 0.15903483180149547 0 -0.0276796371282951 0.42876784536265777 0.26295579481269599 0.021519946161765027 0.20574687052645926 -0.0052985733206827104 -0.046625006133175967 -0.016197160285097646 0.23194785811251972 0.35260912588337184 0.2327051432765134 0.2234197896691702 0.2680725727429733 0.0036773874867727843 0.35008818278013681 0.27162040269691518 -0.015276007479473122 0.0059915989603252281 0.25744950231463182 -0.043876651225146113 0.01730103387703092 0.2357649623209977 -0.04859468354110482 0.16056531714856692 -0.045508470540680412 -0.050125101484396001 -0.025006436330839321 -0.042607548889192631 0.013791647730462634 0.28861991187589953 -0.0024561750616659589 0.20307585617354032 -0.0462139240152553 0.041860609960094552 -0.044031654128349439 0.31960999306063026 -0.00025173904200198475 0.096639582280720435 0.15302277651436477 0.120580852126288 0.26062947300178063 0.033219061033638447 -0.048765679580957677 0.31348209363912777 0.28424164311475791 0.18731479727474232 -0.0087317585271500468 -0.04981696568098342 0.17695444954061385 -0.049920571916099478 0.18301451941920449 0.16754986559936641 -0.041693562481921083 0.23884722153907401 0.17681978911180993 0.24217529139717497 0.027706408245253208 0.028471665224736771
leaf_weight=749.63766752183437 1581.394010618329 6790.8333862945437 8.941045204177497 9.6065482031553966 62.684615463018417 6.6709988899528971 25.392125159502029 6.4582563061267129 31.872752429917455 21.714016826823354 7.4696217533201006 14.820658149197699 2.8240735419094545 8.1043173074722343 2.8057935908436766 99.446857005357742 4.0042674820870152 9.0916782747954112 10.742075817659499 18.808978926390409 14.327368166297672 8.5284037292003614 4.1815754864364836 5.2405370976775894 7.0813310015946618 8.1607548873871547 11.491948820650576 109.68671256862581 7.3683354128152123 19.472092004492879 19.563030177727342 4.5061745680868652 7.4721112251281765 37.906941775232553 39.871840097010136 40.91460439004004 6.8850959558039904 4.9628154039382917 5.2395756244659442 4.7155921496450901 9.7879886832088214 6.243268538266423 14.262753335759042 8.231839429587124 5.7561299316585091 5.563521282747387 12.707085074856883 20.850375331938267 16.049866957589984 9.971067510545252 11.928248370066283 17.261569920927286 10.463211361318825 17.473355181515217 7.9821720961481333 74.989668242633343 4.2060460783541194 2.7299353778362265 3.7149778287857762 13.189251508563759 6.05657960101962 5.8711717110127202
leaf_count=39118 361 1857 124 191 1368 39 204 88 187 442 149 348 34 61 25 149 38 235 91 146 310 160 37 121 149 82 279 506 202 465 423 100 148 192 829 285 143 91 115 32 181 93 138 111 29 99 295 151 122 105 249 419 112 400 88 853 96 23 34 100 119 98
internal_value=0.150948 0.167092 0.155831 0.13227 0.117914 0.103509 0.083013 0.166537 0.111922 0.14711 0.124381 0.100995 0.206711 0.0549363 0.145636 0.183036 0.0524385 0.16624 0.176121 0.1612 0.1421 0.119678 0.244325 0.101244 0.214827 0.0608249 0.017884 0.147752 0.0416 0.071852 0.0968794 0.128017 0.146957 0.228887 0.0296225 0.176681 0.048331 0.00726064 0.0609882 0.194914 0.130098 0.144714 0.0689516 0.249678 0.181075 0.231087 0.108923 0.268911 0.21146 0.117297 0.0918312 0.0197222 0.0860183 0.0137854 0.0959185 0.141699 0.155993 0.0524092 0.00919903 0.135603 0.179632 0.157027
internal_weight=10126.2 9376.55 2585.72 1004.33 785.585 608.534 416.001 177.051 84.6899 192.533 166.732 131.631 35.1013 249.269 30.6339 218.74 52.8172 156.787 147.696 141.025 122.216 102.051 20.1642 9.42211 92.3611 35.7459 14.2977 119.293 218.635 115.577 96.1047 76.5416 69.1733 85.9029 48.8129 47.9959 9.70917 103.058 40.3735 9.67841 96.4367 86.6487 29.0834 16.3362 57.5653 32.6572 24.9081 27.0936 30.5271 14.4772 38.6462 35.1944 17.9328 30.6951 13.2217 87.7241 79.1957 19.152 16.4221 26.7179 19.2458 14.0319
internal_count=53839 14721 12864 12503 11657 9765 7055 1892 1178 2710 2452 2071 381 4603 476 846 991 2088 1853 1814 1668 1419 249 158 714 622 304 697 4127 2033 1568 1145 943 626 953 434 177 2094 726 123 1391 1210 486 172 724 343 381 244 327 205 616 680 261 603 203 1109 949 352 329 367 219 180
is_linear=0
shrinkage=0.05


Tree=5
num_leaves=63
num_cat=0
split_feature=180 149 11 145 41 116 23 23 115 151 153 23 13 145 128 123 23 116 182 16 128 48 154 48 128 132 123 16 3 47 47 23 23 122 135 16 144 23 122 47 47 116 122 55 13 144 23 3 23 16 116 48 123 47 151 47 11 116 116 150 47 150
split_gain=10734.4 89.9137 98.6553 78.8926 131.461 208.463 87.1092 86.2796 72.6197 70.7863 65.2637 146.327 81.5974 53.2814 64.1509 48.2984 54.2202 102.823 78.4592 95.1856 58.4813 47.8982 143.637 53.8235 44.1635 39.8884 37.6726 48.5591 77.5399 83.8352 37.4211 56.4943 43.1976 67.4912 37.3423 61.2175 35.7757 35.1354 86.6704 34.2694 45.1251 39.7748 70.5657 33.6705 89.7764 32.1361 41.4199 79.0434 35.8136 31.4578 83.0538 31.3171 31.314 50.2958 31.0169 29.9497 43.1034 28.6733 23.5446 70.9682 50.5081 33.3631
threshold=1.0000000180025095e-35 1.5000000000000002 10752.590000000002 0.2689520351328894 1.0000000180025095e-35 17.500000000000004 -1339.580000000002 -1669.1799999999992 7.5000000000000009 1.0043022651839555 646013.29780003533 -516.92499999999984 3616.9100000000003 0.27342618746501174 2.5000000000000004 27.500000000000004 653.85500000000013 19.500000000000004 0.069047619047619066 14.565000000000003 7.5000000000000009 4710.5000000000009 11831591.235000001 7304.5000000000009 26.500000000000004 4.5000000000000009 13.500000000000002 20.145000000000003 3151.5750000000003 69.564681724846011 74.650239561943877 45092.180000000029 37316.250000000007 24.500000000000004 5.5000000000000009 8.7050000000000018 928.50000000000011 1.0000000180025095e-35 71.500000000000014 61.263518138261468 34.167008898015062 30.500000000000004 7.5000000000000009 1102.5000000000002 5427.1000000000013 841.50000000000011 -489.98999999999995 5555.8900000000012 -364.00999999999982 5.4350000000000014 58.500000000000007 9979.5000000000018 8.5000000000000018 37.603011635865847 0.20855490301710544 63.492128678987008 13796.955000000004 5.5000000000000009 88.500000000000014 92.541666666666671 48.858316221765925 66.553688524590186
decision_type=2 10 2 2 2 2 10 8 2 8 10 10 2 2 2 2 8 2 2 2 2 2 10 2 2 2 2 2 2 2 2 10 10 2 2 2 2 8 2 2 2 2 2 8 2 2 10 2 10 2 2 2 2 2 10 2 2 2 2 10 2 10
left_child=-1 3 8 54 5 6 7 9 -3 -5 11 -10 25 21 -15 16 18 -18 19 20 -7 22 -12 43 58 -13 27 28 29 -20 32 -32 39 -34 -25 -36 -22 -26 -39 40 -19 42 -42 -23 -45 48 47 -47 -28 -49 -51 -4 57 -54 -2 -41 -57 -8 61 60 -60 -17
right_child=1 2 51 4 -6 15 52 -9 10 -11 13 12 -14 14 -16 24 17 30 26 -21 36 23 -24 34 37 -27 45 -29 -30 -31 31 -33 33 -35 35 -37 -38 38 -40 55 41 -43 -44 44 -46 46 -48 49 -50 50 -52 -53 53 -55 -56 56 -58 -59 59 -61 -62 -63
leaf_value=-0.050869219982321329 0.18651896599095041 -0.044908190819768178 -0.049833840637688483 0.18236635330707834 0.15016704791323016 -0.043904418334593402 0.096641070189009831 0.18835026909914909 0.023535365961633956 -0.049149821906319613 -0.050275687699831477 0.54990349363779922 0.085153669709153668 0.13462333789782149 -0.047709347785230352 0.16755795242838489 0.30588463540087862 0.16201579919127754 -0.051574723703497194 -0.049612370896857903 0.19238680086852494 0.14477029172884665 0.13866855182534868 0.13728077568207597 0.13925619241575099 0.20093295597121813 0.18970126377303714 0.13704251693948247 0.10838513024879243 0.11112283079641848 -0.047295192009773224 0.12931530163518681 -0.047602338240692876 0.19604563164125832 0.12136592964678222 -0.048821009663129675 0.065445402025728391 -0.04936303012224557 0.12684754343337185 0.25069514777762814 0.1291966472828979 0.12528580293214489 -0.049713280198598692 0.32835439947792788 0.10511392025186526 -0.048400737626130425 0.14390244363442703 0.19212668352508827 0.099816338935218851 -0.015356292486154416 0.1250608191780147 0.12793988158734013 0.194647482147288 -0.04207536299048132 0.15426402982726797 0.12361309776995284 0.22922707335249404 -0.051515031152853587 0.17265610389895533 0.1561153264152082 0.38460119995710801 0.12284962192248253
leaf_weight=715.83030309528112 100.23459178209305 5.6449705325067034 11.253751842305062 3.5839678477495882 3884.6996717900038 5.1695902571082142 2.7698418796062496 14.303185846656563 5.9086290858685961 10.824342466890812 13.750290619209407 3.4138240031898004 3.0672376826405525 7.6942912172526148 9.9589882064610702 141.95781428925693 9.2739483118057233 95.569363363087177 19.117469754070047 14.90397318638861 12.080864103510978 36.653695503249764 32.293471772223711 38.249563913792372 61.622345948591828 3.2978864479809999 50.983410613611341 63.091810096055269 67.851628255099058 12.059936432167886 6.738064922392371 10.484155375510452 7.3233419023454172 3.3560601454228163 11.209444668143989 8.5116418562829477 12.657383499667047 9.7987785171717423 19.758230639621615 14.640619933605192 10.615421012043955 105.30362138338387 9.6625793501734716 11.384346622973682 9.3272057101130468 8.3355215154588205 102.20830409601331 9.8886081837117654 19.451349010691047 13.44116406328976 43.592801170423627 2.1080480106174937 3.3472056575119487 3.9892923124134541 4704.5063061863184 40.571746753528714 15.799903716892002 25.596837958320975 9.0402397550642508 49.325694402679801 7.4296966511756173 85.515016740188003
leaf_count=39229 97 150 272 30 1130 126 39 93 97 217 341 44 50 4 273 187 100 404 369 376 72 119 180 151 237 75 150 275 360 79 120 22 142 41 37 202 121 187 80 53 23 436 185 100 47 145 485 18 111 225 105 26 36 84 3814 223 53 572 63 221 55 456
internal_value=0.136191 0.149406 0.115727 0.150119 0.145528 0.1308 0.0423084 0.105587 0.124464 0.0162118 0.129605 0.228595 0.338354 0.119681 0.0344502 0.135634 0.127838 0.144064 0.115787 0.0511984 0.101577 0.128704 0.0822676 0.146333 0.151149 0.427371 0.122693 0.10216 0.0787391 0.0127016 0.138422 0.0611398 0.142585 0.0387671 0.108624 0.0488605 0.132697 0.117387 0.0685627 0.146217 0.134772 0.112883 0.0453803 0.18184 0.237523 0.135635 0.122416 0.091665 0.166693 0.10964 0.0921882 -0.0144834 -0.0099329 0.0757208 0.154977 0.179425 0.156781 -0.03408 0.161194 0.192261 0.285094 0.151384
internal_weight=10852 10136.2 213.727 9922.48 5117.73 1233.04 64.4147 28.7115 200.365 14.4083 194.721 15.6876 9.77895 179.033 17.6533 1168.62 784.173 329.339 454.834 44.8118 29.9078 161.38 46.0438 115.336 384.448 6.71171 410.022 162.121 99.029 31.1774 320.065 17.2222 302.843 10.6794 57.9707 19.7211 24.7382 91.1794 29.557 292.163 221.151 125.582 20.278 57.3652 20.7116 247.901 177.466 75.2581 70.4348 66.9226 57.034 13.3618 35.7032 7.3365 4804.74 71.0123 56.3717 28.3667 293.268 65.7956 16.4699 227.473
internal_count=53814 14585 2168 12417 8506 7376 1071 340 1870 247 1720 266 169 1454 277 6305 4819 1802 3017 695 319 1177 521 656 1486 119 2322 1083 808 448 1702 142 1560 183 390 239 193 504 267 1377 1048 644 208 266 147 1239 978 493 261 348 330 298 731 120 3911 329 276 611 982 339 118 643
is_linear=0
shrinkage=0.05


Tree=6
num_leaves=63
num_cat=0
split_feature=180 41 46 182 11 127 51 182 113 24 139 11 139 181 48 140 118 24 113 24 114 29 118 4 50 3 128 120 11 44 48 111 55 118 133 131 116 139 133 123 46 3 139 118 133 182 4 55 46 18 126 119 24 123 16 126 118 114 126 126 111 47
split_gain=8794.59 86.4009 214.987 278.689 164.531 161.434 132.686 122.266 160.926 155.618 133.848 128.533 108.535 118.121 140.55 108.244 171.817 136.414 135.325 105.951 185.217 103.475 118.757 103.315 91.0584 85.4982 83.7494 108.967 91.6675 81.8215 81.3855 80.6695 78.7854 102.617 101.105 96.9876 95.3245 90.9691 90.9011 87.3861 82.4124 79.3093 76.4303 117.769 85.5062 69.0206 100.8 81.3313 67.6181 64.7589 110.772 139.338 95.9747 64.033 62.0771 60.5767 58.508 113.221 127.52 126.983 134.512 94.2823
threshold=1.0000000180025095e-35 1.0000000180025095e-35 44.500000000000007 0.087121212121212141 87377.865000000005 18.500000000000004 1.0000000180025095e-35 0.16025641025641027 93.500000000000014 2.0307823737023352 8.5000000000000018 6951.8600000000015 1.0000000180025095e-35 16.500000000000004 5364.5000000000009 4.5000000000000009 15.500000000000002 2.2960224944949612 44.500000000000007 0.99775938052898339 31.500000000000004 1.0000000180025095e-35 18.500000000000004 155212.70500000005 1.0000000180025095e-35 102.83000000000003 5.5000000000000009 11.500000000000002 22624.360000000004 113.50000000000001 7040.5000000000009 115.50000000000001 640.50000000000011 29.500000000000004 14.500000000000002 2.5000000000000004 37.500000000000007 3.5000000000000004 14.500000000000002 15.500000000000002 1256.5000000000002 39843.680000000008 7.5000000000000009 29.500000000000004 20.500000000000004 0.10263157894736843 34831.240000000013 1310.5000000000002 260.50000000000006 881.50000000000011 4.5000000000000009 12.500000000000002 1.2614526550765055 4.5000000000000009 15.625000000000002 14.500000000000002 7.5000000000000009 69.500000000000014 11.500000000000002 5.5000000000000009 41.500000000000007 61.003422313483917
decision_type=2 2 2 2 2 2 2 2 2 10 2 2 2 2 2 2 2 8 2 8 2 2 2 2 2 2 2 2 2 10 2 2 8 2 2 2 2 2 2 2 2 2 2 2 2 2 2 8 2 2 2 2 8 2 2 2 2 2 2 2 2 2
left_child=-1 2 -2 6 7 23 12 8 9 10 24 19 13 14 53 17 -17 56 -19 20 -9 26 -23 -6 45 -11 -14 -28 -29 32 55 -7 34 36 35 -26 37 39 -38 40 41 48 43 -18 -45 46 -5 -47 -34 52 -51 -52 54 -4 -50 -22 -8 58 59 60 -58 -60
right_child=1 -3 3 4 5 31 15 11 -10 25 -12 -13 21 -15 -16 16 42 18 -20 -21 30 22 -24 -25 29 -27 27 28 -30 -31 -32 -33 33 -35 -36 -37 38 -39 -40 -41 -42 -43 -44 44 -46 47 -48 -49 49 50 51 -53 -54 -55 -56 -57 57 -59 61 -61 -62 -63
leaf_value=-0.050818392129267954 0.13749538505292189 0.1371414778285763 0.098872137828051876 0.14251353542936598 0.38500431930882573 -0.047478007561705844 -0.051286599348362376 0.36814324401238468 -0.013829196803942108 0.39775702619606118 0.2811022387118231 -0.010562175305464268 -0.025193984482609205 0.401499028357585 -0.04604096686475722 0.31804072151924712 -0.0094519154853152446 0.21229290541588447 -0.0069931731478584504 0.13280444749090256 0.14924842839916116 0.054478289517986528 0.31304246097412375 0.17685761852281384 0.17327308394355159 0.14414892638771812 0.18363679086458706 0.02356642005706967 0.1668595412420914 -0.048900763221415379 0.036360181812070069 0.19230674128824485 -0.0082756789243913203 -0.048954368303898904 0.15145034351734221 -0.027584882129019401 0.18110275247025806 -0.04909172853237867 0.052405554099676871 0.1926645499461557 -0.049097350002946787 -0.048071049380346412 -0.047596829987200377 0.27341575041687344 0.030353344657800874 -0.015307351868721317 0.32070022819280442 0.14938231045753728 3.2890702770506501e-05 0.013718577273075204 0.41272743155132025 0.12935117817450281 -0.049041672264095865 0.29424412220747714 0.14434826415261703 0.28878993594844116 0.035315513125312739 -0.039454111579952843 0.040719805153948123 -0.034968965956606958 0.29027934507820169 0.33662547922135666
leaf_weight=681.58370074629784 1735.8506554663181 7882.2376811429858 9.6388211548328488 44.573304422199726 14.119802329689266 6.8901565000414831 32.079515237361193 14.72734336927533 26.436763528734446 6.4087049253284958 9.9843735322356206 11.336117560043929 19.942942731082439 4.8504029270261517 7.1097295917570582 7.5465332418680182 12.208565320819618 16.765375891700391 11.474635284394024 133.90596774592996 32.816064929589629 8.9539056792855281 9.0702462550252658 15.348355270922182 6.0646623000502577 9.6903621144592744 21.155697591602802 53.798360330983996 13.278603568673132 9.9457115903496724 10.722304167225955 5.5050952695310116 11.277237497270105 9.7711205109953863 14.227675417438148 39.240088108927011 67.20561963506043 10.844285389408467 18.610693365335464 20.039838682860136 10.661713872104881 8.5591391604393703 10.095256645232437 10.265880959108474 5.8077615145593873 12.457148520275952 10.22489685192704 17.020778317004442 9.2653447575867158 7.2746350634843138 6.9286367837339666 13.046185923740266 9.9415079075843078 9.592627961188553 38.587829273194075 12.722462641075252 16.900937564671043 41.118339285254478 5.0413047615438682 30.400570746511221 6.7166703436523667 5.7997904177755117
leaf_count=39229 366 1876 44 246 61 109 761 68 483 17 83 123 465 66 156 71 264 188 255 486 127 139 87 74 66 88 136 1068 128 172 111 40 168 158 104 615 518 192 198 120 198 153 232 83 116 155 58 146 134 126 52 108 168 81 148 67 293 911 89 656 72 42
internal_value=0.123254 0.134352 0.126486 0.108608 0.127074 0.223825 0.0730574 0.120644 0.105186 0.112672 0.106073 0.152036 0.107827 0.191021 0.138813 0.0468629 0.114059 0.0277055 0.125828 0.161064 0.211716 0.0858852 0.194473 0.286119 0.100948 0.262755 0.066131 0.0868799 0.0540406 0.0878812 0.164967 0.0650503 0.0925559 0.10525 0.0399841 0.00235608 0.111941 0.0862766 0.154175 0.0974206 0.079347 0.0927917 0.0667631 0.107986 0.192806 0.147587 0.181003 0.0814029 0.105726 0.120821 0.184526 0.242875 0.0880723 0.206298 0.117081 0.193708 0.0068377 0.0247937 0.0655809 0.0322462 0.116875 0.214506
internal_weight=11375.7 10694.1 2811.85 1075.99 706.382 41.8634 369.612 664.519 448.288 421.851 405.752 216.23 157.391 31.1916 26.3412 212.221 45.924 166.297 28.24 204.894 70.9882 126.2 18.0242 29.4682 395.768 16.0991 108.176 88.2327 67.077 311.492 56.2608 12.3953 301.546 242.014 59.5324 45.3048 232.243 146.426 85.8163 135.582 115.542 104.881 38.3775 28.2822 16.0736 84.2761 54.7982 29.4779 96.3214 85.0441 27.2495 19.9748 57.7947 19.2314 47.8532 45.5385 138.057 105.978 64.8593 54.0182 23.6176 10.8411
internal_count=53814 14585 12709 12343 5940 284 6403 5656 4674 4191 4086 982 2370 347 281 4033 766 3267 443 859 373 2023 226 135 4003 105 1797 1332 1196 3398 305 149 3226 2441 785 681 2283 1567 716 1375 1255 1057 695 463 199 605 304 301 904 736 286 160 450 125 282 194 2824 2063 1152 1021 365 131
is_linear=0
shrinkage=0.05


Tree=7
num_leaves=63
num_cat=0
split_feature=180 41 46 182 138 11 11 54 54 11 11 51 140 141 23 138 154 147 44 2 55 23 46 154 116 116 139 0 29 133 48 154 118 126 2 137 122 128 128 114 154 113 55 147 18 113 13 18 55 23 55 138 55 118 146 48 4 139 54 54 109 122
split_gain=7374.88 106.085 249.749 208.478 138.695 137.368 126.205 112.628 111.249 109.722 105.269 103.543 89.0832 127.067 94.9058 96.1957 90.7279 116.719 87.7776 83.0453 77.8851 83.7276 99.1598 73.8893 72.6762 96.5841 72.4026 91.5896 84.3436 79.6148 71.6255 71.5772 125.327 115.781 105.719 71.3412 107.699 93.2155 93.0838 77.5626 76.1077 71.0191 68.7819 67.7917 63.8271 99.0108 82.9109 68.7975 78.8308 63.2252 59.0838 57.9365 78.1189 76.9564 98.7815 83.356 77.4258 63.2981 75.6885 69.8729 58.1101 56.6419
threshold=1.0000000180025095e-35 1.0000000180025095e-35 44.500000000000007 0.087121212121212141 1.5000000000000002 50790.420000000006 6951.8600000000015 3242.5000000000005 3525.5000000000005 3178.9750000000008 719.31500000000017 1.0000000180025095e-35 4.5000000000000009 3.5000000000000004 -90420.90499999997 1.5000000000000002 13110611.985000001 92.813455081202918 149.50000000000003 107793.01500000001 93.500000000000014 -2610.9050000000007 477.50000000000006 55193590.450000003 17.500000000000004 7.5000000000000009 1.0000000180025095e-35 329.34000000000009 1.0000000180025095e-35 1.5000000000000002 4581.5000000000009 7060793.8150000013 7.5000000000000009 5.5000000000000009 1161.6000000000001 3.5000000000000004 24.500000000000004 5.5000000000000009 13.500000000000002 195.50000000000003 5811495.9000000013 29.500000000000004 1456.5000000000002 21.774512129020277 451.50000000000006 34.500000000000007 -5972.6249999999991 593.50000000000011 210.50000000000003 1031.5750000000003 1389.5000000000002 4.5000000000000009 1281.5000000000002 14.500000000000002 31.500000000000004 3082.5000000000005 1.0000000180025095e-35 11.500000000000002 662.50000000000011 1247.5000000000002 648.50000000000011 39.500000000000007
decision_type=2 2 2 2 2 2 2 2 2 2 2 2 2 2 10 2 10 10 8 10 8 8 2 10 2 2 2 10 2 2 2 10 2 2 8 2 2 2 2 2 10 2 10 10 2 2 2 2 8 8 8 2 10 2 2 2 2 2 2 2 2 2
left_child=-1 2 -2 7 5 6 9 11 10 20 44 18 14 16 15 -13 -14 -18 -4 26 -5 22 -22 -9 25 -23 27 -20 35 -29 41 32 -16 34 -34 37 -37 -28 -38 -40 -39 -26 -35 -31 -6 -46 -47 -48 -49 -30 61 53 57 54 -50 -56 -57 58 -53 -60 -58 -12
right_child=1 -3 3 4 8 -7 -8 23 -10 -11 50 12 13 -15 31 -17 17 -19 19 -21 21 24 -24 -25 30 -27 28 29 49 43 -32 -33 33 42 -36 36 38 40 39 -41 -42 -43 -44 -45 45 46 47 48 51 -51 -52 52 -54 -55 55 56 60 -59 59 -61 -62 -63
leaf_value=-0.05076974789725102 0.12593286691988509 0.12557375319770914 -0.014541399956164195 0.2625038036820842 0.13563885571057044 0.23769958736441713 -0.049283540078965724 -0.051152370632351944 0.18793049694785835 0.29103569607586549 -0.037821759674958787 0.23091688853948555 0.044109370864295186 0.0036370192606886491 -0.050190278892314248 0.0061066816139162539 0.3091864022966595 0.031913075435426583 0.073005138648741169 -0.045842763445120158 0.26549558157012271 0.12503168815256019 0.1126519165844589 0.15174543385047992 0.12089495262578132 -0.031095635663677203 -0.0020263758913817548 0.40757845749634125 0.075282127605440896 0.028482465926041492 0.13618903093733548 -0.021303713344031441 0.27352093759853963 -0.025165192948835513 0.047491213567808936 -0.050245005541801106 0.23079350122932613 0.26475005119631695 -0.048667283596298488 0.15582763902319755 0.099112303860511869 -0.049934354929042746 0.14831266674740676 0.25808052202773119 -0.050685184163196478 -0.049355422127508305 0.0027002297839841169 -0.01349383106226406 0.21971106776474014 0.28000371701601712 0.07648352096626411 -0.048965605568371318 -0.020602974734349556 0.17180363791293476 -0.050555375377685535 -0.047873055616608928 0.049476002770648377 0.2457479823828671 0.19146307439502469 0.06884341952398694 0.16976501904178787 0.095879766328176894
leaf_weight=648.94901612401009 1798.7801770046353 8169.8916557654738 13.820807820186017 9.5126569923013431 97.410583743825555 32.389002073556185 9.3273925557732564 29.13667494058609 30.178606353700161 10.158976610749958 31.506297551095486 10.07336461544037 10.056712280958893 17.971582898870111 20.626651281490922 8.5236937887966615 13.451930651441218 5.542684204876422 11.600879350677134 6.9947816487401715 18.505994698032737 16.493010183796287 30.00726692378521 4.2799707371741524 10.969983708113434 22.052724158391356 10.39331256970763 5.8668092433363226 7.3489513471722603 5.7044548988342267 96.072974719107151 66.008638210594654 11.772803544998167 19.790341364219788 9.6402053665369767 19.621231829747558 8.2476253714412469 12.177043175324799 10.981386855244638 6.6073317024856797 19.41536976583302 11.491161236539481 6.8979686461389056 7.488560451194644 11.798047123476861 9.1907543204724771 17.593148989602923 12.906420627608894 12.366485672071574 9.9828641545027512 46.446193033829331 8.7052573114633542 15.753506876528261 67.351391253992915 11.53138220310211 7.528423909097909 18.696849528700113 6.1220068819820872 15.961059110239146 44.953854098916054 24.402333172038198 9.471377566456793
leaf_count=39229 366 1876 271 45 321 105 150 680 157 48 445 69 161 358 514 168 93 79 75 153 72 84 143 39 21 386 241 30 93 84 320 1417 72 442 151 443 69 92 223 57 145 192 71 55 183 145 215 188 73 58 473 135 227 473 171 120 191 61 108 467 150 71
internal_value=0.113003 0.12256 0.114188 0.0958285 0.111022 0.14046 0.126061 0.065736 0.0950395 0.13353 0.0886739 0.073949 0.0497037 0.109299 0.0308055 0.133703 0.1722 0.23417 0.104493 0.116099 0.124756 0.117118 0.175242 -0.0213661 0.0981402 0.0370544 0.124774 0.193154 0.103079 0.258749 0.117487 0.0156858 0.0510796 0.0947453 0.178644 0.0812889 0.0364959 0.127692 0.101975 0.0321341 0.169274 0.034882 0.0232291 0.16816 0.100007 0.0873736 0.09352 0.0986829 0.105481 0.202313 0.0384896 0.112111 0.0793644 0.132491 0.0950925 0.0671344 0.0944973 0.100219 0.0840527 0.103627 0.120001 -0.00525165
internal_weight=11774.5 11125.6 2955.66 1156.88 766.855 266.981 234.592 390.025 499.874 225.265 469.695 356.608 200.357 47.0229 153.334 18.5971 29.0513 18.9946 156.251 142.431 215.106 205.593 48.5133 33.4166 157.08 38.5457 135.436 30.6607 104.775 19.0598 118.534 134.737 68.728 48.1013 21.413 87.4433 45.4576 41.9857 25.8363 17.5887 31.5924 22.4611 26.6883 13.193 382.272 284.861 273.063 263.872 246.279 17.3318 87.4239 233.373 91.4957 141.877 74.5255 62.159 50.6276 75.7422 69.6202 60.9149 43.0992 40.9777
internal_count=53814 14585 12709 12343 5940 1566 1461 6403 4374 1311 4217 5684 3595 691 2904 237 333 172 2089 1818 1263 1218 215 719 1003 470 1665 244 1421 169 533 2667 1250 736 223 1270 792 478 349 280 237 213 513 139 3228 2907 2724 2579 2364 151 989 2176 998 1178 705 632 461 771 710 575 341 516
is_linear=0
shrinkage=0.05


Tree=8
num_leaves=63
num_cat=0
split_feature=180 19 145 43 148 182 145 55 24 47 23 136 145 23 150 152 151 122 155 144 124 23 47 23 147 23 122 16 124 182 54 23 23 153 24 55 132 130 54 55 24 2 120 151 23 153 124 130 54 145 148 118 130 134 11 122 133 182 153 118 124 132
split_gain=6296.18 58.041 82.2174 95.4976 79.6769 112.001 105.253 90.0513 100.298 87.7414 72.8269 62.0029 100.22 99.3112 53.9703 75.3486 80.2447 76.4459 68.9553 67.405 56.0522 49.373 89.3116 43.7998 40.6239 97.7831 83.7051 39.5304 43.2821 39.0333 35.8173 107.242 34.8383 34.0985 82.4211 55.8512 42.6647 39.2168 32.1615 93.0986 31.2367 29.2507 28.7118 28.4122 26.8314 26.0547 24.4778 23.5313 23.3529 30.4106 68.3176 87.2323 22.0624 36.9644 21.4136 41.3457 107.616 32.3513 47.5146 30.6544 84.9418 43.2428
threshold=1.0000000180025095e-35 1.0000000180025095e-35 0.26611119843515324 18.500000000000004 101.50000000000001 0.06458333333333334 0.27509427498432526 302.50000000000006 0.55454079950751867 46.673511293634505 -40432.419999999991 4.5000000000000009 0.2753182908727364 559.45500000000027 54.223087431693997 29.500000000000004 1.0973251941736912 21.500000000000004 246534.33410245905 1676.5000000000002 1.5000000000000002 93264.175000000003 70.793976728268319 26235.500000000007 6.3069215833712793 1134.5100000000004 16.500000000000004 8.2350000000000012 13.500000000000002 0.18465909090909094 1276.5000000000002 -7168.4799999999987 -40432.419999999991 778530.41332900443 1.1848933765112315 1058.5000000000002 7.5000000000000009 3.5000000000000004 1522.5000000000002 1389.5000000000002 0.92061099379559674 -63516.724999999991 30.500000000000004 1.1731755750725361 3555.2099999999996 3865510.7687336407 6.5000000000000009 12.500000000000002 3577.5000000000005 0.27732094111603828 113.50000000000001 33.500000000000007 9.5000000000000018 6.5000000000000009 1.0000000180025095e-35 24.500000000000004 6.5000000000000009 0.080128205128205135 5429695.9316039523 46.500000000000007 53.500000000000007 31.500000000000004
decision_type=2 2 2 10 10 2 2 8 8 2 8 2 2 8 10 10 10 2 10 2 2 8 2 8 10 8 2 2 2 2 2 10 10 10 10 10 2 2 2 8 10 10 2 8 8 8 2 2 2 2 10 2 2 2 2 2 2 2 10 2 2 2
left_child=-1 2 24 4 5 6 -4 8 -7 -8 -9 12 23 -14 15 16 -12 18 -18 -16 -20 32 -23 40 25 26 -2 28 -22 33 31 -29 43 34 36 -36 37 -17 41 45 46 -35 -10 -13 47 -40 -6 -42 49 54 -51 -52 -32 -54 59 56 -56 58 -57 61 -61 -34
right_child=1 -3 3 -5 11 7 9 10 42 -11 14 21 13 -15 19 29 17 -19 20 -21 27 22 -24 -25 -26 -27 -28 30 -30 -31 52 -33 48 38 35 -37 -38 -39 39 -41 44 -43 -44 -45 -46 -47 -48 -49 -50 50 51 -53 53 -55 55 57 -58 -59 -60 60 -62 -63
leaf_value=-0.050723135871185536 0.086451280568669395 0.11631256063230283 -0.052448357266704694 0.11549989758594566 0.19112294276386302 0.1128110073165129 0.22852418489765949 -0.048447802283062703 -0.054105886373989158 -0.042208692151338628 -0.050180415851515961 0.086840344098187472 -0.053117643788657111 0.097674211875396377 -0.051791498944230546 0.10096261383314348 -0.050984279364750335 0.2212990638292241 0.17742940877182359 0.10693071022433023 -0.050686289704011782 -0.052056869419217978 0.095238053696741487 0.2035406946175341 0.12084009995923575 -0.025168545723240038 0.1988286167182694 0.11116848313688746 0.087017012100191748 0.022377957378510518 0.10082782661017733 -0.034035891832434793 0.10570307240123916 0.19222624162821214 0.12699813275726674 0.33754341031484264 0.15723274482873606 -0.045590161030902042 -0.050961658517084389 0.10583453367954343 0.099563563750284953 0.11523343618990881 0.09225722057561038 -0.048284367182966158 0.042189945547284148 0.097418409846096191 0.13131346025919141 0.1501110340107813 0.14652872248511711 0.21576540905212105 -0.053396110339625859 0.094312757466493563 -0.047121513564068747 0.097745764250822806 0.10669229271178471 -0.048934457488997329 -0.053344564492012782 0.10870597879400941 0.092407738569953005 -0.051597415577510568 0.10235546748806586 0.16865012895825726
leaf_weight=617.85325259156525 107.57640074752271 6488.952862367034 27.22728705406189 1221.771638661623 32.988600352779031 17.014314526692033 6.5657942444086057 8.34418812766671 25.925859142094854 4.4598892629146576 11.020662983879445 6.6751331537961933 13.347970213741062 47.442000482231379 13.564821800217032 12.110181976109745 9.314077524468301 9.0507870521396381 14.417828690260647 11.403488077223301 11.925872936844826 14.934259995818136 28.621400007978082 25.029224893078208 1481.5484818518162 15.674315668642519 19.90081580542028 26.393624287098646 9.2171214316040277 11.747338039800523 142.85291634686291 22.977368978783488 667.08189989253879 16.061616921797395 7.7578020375221994 8.4113889560103399 22.837733287364244 6.2250323612242928 13.704606665298344 91.434262337163091 78.906329264864326 134.31552531756461 2.8846613336354485 6.925051538273693 14.375202912837265 2.7211884390562764 78.489881532266736 44.453592341393232 32.40758952870965 4.9255367610603562 16.504653347656131 22.470429385080934 6.9555342774838236 9.0680865533649904 23.811692474409938 8.4799663126468676 17.350696759298444 118.43782853148878 15.427127489820121 11.310093047097324 33.8899504262954 31.000528790056705
leaf_count=39229 471 1360 639 338 47 4 80 144 456 113 186 75 200 130 249 47 173 12 42 33 213 259 53 85 1595 251 30 77 11 87 569 354 2173 49 73 34 62 135 272 351 143 411 35 112 86 24 233 93 73 40 270 59 114 47 58 170 269 348 59 198 119 92
internal_value=0.104674 0.113065 0.108792 0.104137 0.0975135 0.0835897 0.000204758 0.0882683 0.0199414 0.124194 0.0931611 0.104609 0.123958 0.0641593 0.0951325 0.0981304 0.0780742 0.0836547 0.0778619 0.0218335 0.0829927 0.0983791 0.0445869 0.136914 0.118275 0.0910332 0.105445 0.076291 0.0103373 0.114566 0.0828819 0.0441567 0.100633 0.1179 0.15497 0.250098 0.112449 0.051163 0.109083 0.0863115 0.129416 0.124706 -0.0366803 0.0190994 0.111273 -0.0219134 0.150599 0.118879 0.101713 0.100062 0.056957 0.0318669 0.094533 0.035494 0.102035 0.085124 0.03945 0.0979295 0.0421204 0.106084 0.0634417 0.108743
internal_weight=12066.5 11448.6 4959.67 3334.97 2113.2 717.911 38.253 679.658 45.8248 11.0257 633.833 1395.29 335.033 60.79 625.489 600.521 273.194 262.173 253.122 24.9683 243.808 1060.25 43.5557 274.243 1624.7 143.152 127.477 229.391 21.143 327.327 208.248 49.371 1016.7 315.579 57.3421 16.1692 41.1729 18.3352 258.237 107.86 249.214 150.377 28.8105 13.6002 137.735 16.4258 111.478 123.36 1003.1 970.69 43.9006 38.9751 158.877 16.0236 926.79 183.507 41.1624 142.345 23.9071 743.282 45.2 698.082
internal_count=53814 14585 13225 10878 10540 5096 832 4264 495 193 3769 5444 1017 330 3625 3343 1798 1612 1600 282 1427 4427 312 687 2347 752 501 1385 224 1545 1161 431 4115 1458 351 107 244 182 1107 647 602 460 491 187 322 296 280 236 3928 3855 369 329 730 161 3486 904 327 577 229 2582 317 2265
is_linear=0
shrinkage=0.05


Tree=9
num_leaves=63
num_cat=0
split_feature=180 41 46 182 111 148 134 153 24 54 16 11 146 54 13 113 182 18 55 50 55 55 55 135 136 126 122 141 148 48 136 47 2 116 47 11 122 127 155 110 7 156 24 148 15 2 48 113 24 55 47 24 116 2 155 153 119 109 120 46 18 47
split_gain=5447.19 141.681 320.558 161.751 125.518 116.078 153.337 113.834 126.507 110.008 93.5209 88.5126 93.4014 87.7163 120.178 102.864 85.7459 76.4778 76.1701 82.2675 72.6046 96.6891 79.0634 72.0091 91.3837 71.276 66.4634 65.4588 63.2029 62.3302 61.2012 60.528 60.3335 58.8799 60.2752 58.1071 56.5755 56.311 56.2069 98.6334 95.2508 56.1098 54.503 62.1023 61.1852 73.4613 98.4581 53.6481 56.1375 52.767 50.5629 50.2852 51.5091 46.8045 44.6047 63.1392 53.9171 44.2677 79.3418 44.1496 37.8534 37.5684
threshold=1.0000000180025095e-35 1.0000000180025095e-35 44.500000000000007 0.14835164835164838 163.50000000000003 31.500000000000004 2.5000000000000004 6888730.543221985 1.3008919111403505 2364.5000000000005 10.335000000000003 43839.595000000008 33.500000000000007 2449.5000000000005 3538.1200000000003 30.500000000000004 0.087121212121212141 3089.5000000000005 1612.5000000000002 1.0000000180025095e-35 399.50000000000006 485.50000000000006 640.50000000000011 12.500000000000002 8.5000000000000018 14.500000000000002 5.5000000000000009 2.5000000000000004 46.500000000000007 9173.5000000000018 4.5000000000000009 66.681724845995902 2603.0550000000007 25.500000000000004 30.325804243668724 128.76000000000002 10.500000000000002 9.5000000000000018 896248.40974999999 862.50000000000011 -566154.1449999999 1.0000000180025095e-35 1.0133101272730791 68.500000000000014 12.500000000000002 2400.6350000000007 652.50000000000011 93.500000000000014 0.70290365662545506 355.50000000000006 63.492128678987008 2.2960224944949612 69.500000000000014 -32027.089999999997 538000.4396161203 768968.68701363157 8.5000000000000018 2448.5000000000005 41.500000000000007 254.50000000000003 1669.5000000000002 32.965092402464073
decision_type=2 2 2 2 2 10 2 10 10 2 2 2 2 2 2 2 2 2 10 2 8 8 8 2 2 2 2 2 10 2 2 2 8 2 2 2 2 2 10 2 10 10 8 10 2 10 2 2 8 10 2 8 2 10 10 10 2 2 2 2 2 2
left_child=-1 2 -2 4 5 17 11 8 13 18 -11 12 28 14 15 -8 47 -4 19 32 -17 -22 -23 51 -25 33 -16 36 49 42 -29 35 -10 -18 -35 -9 -12 -24 40 -40 59 53 44 -44 -5 46 -46 -15 -49 -7 -36 52 -21 -31 55 -30 -56 58 61 -39 -34 -41
right_child=1 -3 3 29 -6 6 7 31 9 10 27 -13 -14 16 26 20 25 -19 -20 23 21 22 37 24 -26 -27 -28 30 54 41 -32 -33 60 34 50 -37 -38 38 39 57 -42 -43 43 -45 45 -47 -48 48 -50 -51 -52 -53 -54 -55 56 -57 -58 -59 -60 -61 -62 -63
leaf_value=-0.05067844328384663 0.10927602541881805 0.10858713447013907 -0.051869167686824452 0.099509641906130999 -0.05088569328595316 0.097014766953739007 -0.051307656130946594 0.15545158860734554 0.19758615787808989 -0.0039883073397191486 0.077432649797480921 0.24277644518795805 -0.04788806628124874 -0.052176842287530112 0.14668153283428545 0.0032786402864789961 -0.021548675365673939 0.10832052462025694 0.15543747484485079 -0.043072192932470138 0.24078787695612403 -0.049022543150883585 -0.046720276462992497 0.23979821435468943 0.00085127369944319102 -0.0515653706573884 -0.0055569838972105712 0.17965659466491646 0.10354895929696031 0.10342471247961933 -0.047322561578908767 0 -0.046792052001998763 -0.049057473845831319 0.12352290907719593 0.029479726031037774 0.19915729388079456 0.017356168629936133 -0.050076442264361358 0.017217926477074295 -0.046533277101861663 0.10628037666756501 0.0036235172375249491 0.1064935760741893 0.20594410050971701 0.20065797735741092 -0.049100098573512413 0.22355982247613626 -0.040337868817477092 -0.048225407104804469 -0.0022183450340518824 0.13182235903165382 0.10447393919740949 -0.054470862484591986 0.1376490580495669 0.19608729841914763 -0.046863470449503869 0.20418183500733839 -0.049161560503408003 0.15406171995383461 0.12623367932556501 0.11033932643584668
leaf_weight=588.2262997655198 1872.9176318496466 8516.3262934163213 30.615058669820428 54.745274705812335 21.492504443973303 15.902103839442136 14.575374102219937 59.552906861528754 11.460595797747372 10.583397621288894 14.222748465836046 13.103236049413679 8.5905569270253164 52.195606557652354 6.838847752660512 26.125208580866456 16.321117540821433 8.7522678263485414 16.210608573630452 48.487837051972747 9.6938947383314353 10.02257503569126 6.5981899555772534 6.2280647791922084 9.0739819128066284 16.106636896729469 82.81716831587255 3.6632253900170308 43.099187467247248 5.6082464233040836 7.3122219201177359 9.190910214558242 6.1581790745258349 6.9089590050280085 44.43047202937305 11.533866027370093 48.805339902639389 6.8267063926905385 14.025550115853546 13.641973195597528 6.7855756636708966 20.078578241169453 16.675788771361113 132.58294222131371 5.7231812067329866 54.418167674914002 7.9232394658029079 2.9053975380957118 3.5849641896784306 9.1004385501146299 9.5656854473054391 4.5748296752572051 5.7417805083096018 15.192149475216864 7.0526983197778446 39.817092528566718 6.9898057691752911 7.0911025069653979 10.270640345290301 70.309656381607056 4.7318870816379786 64.156612703576684
leaf_count=39229 366 1876 669 122 423 137 242 263 67 181 112 72 157 1137 53 403 245 105 91 810 76 173 125 43 130 238 1254 36 150 23 137 106 94 90 219 116 228 96 261 182 122 15 181 380 5 213 107 13 97 189 108 10 44 165 29 157 122 21 179 549 17 554
internal_value=0.0977076 0.105181 0.0959959 0.0767425 0.0666355 0.0693154 0.0729001 0.0639821 0.0573371 0.0912786 0.13432 0.120469 0.106403 0.0438299 0.0575864 0.0747389 0.0119755 -0.0143303 0.0580231 0.0401734 0.0824189 0.0917613 0.0837394 0.014107 0.107155 0.0416071 0.00749033 0.153956 0.117613 0.108188 0.0366937 0.120367 0.12208 0.0615142 0.0838424 0.135774 0.173406 0.0906382 0.0955738 0.0706714 0.1267 0.0487523 0.116888 0.0951344 0.142305 0.174714 0.0642797 -0.0349737 0.0912028 0.0441363 0.101521 -0.0114092 -0.0257508 -0.00887802 0.135865 0.149853 0.0484638 0.0888559 0.0773259 0.142404 0.0322632 0.0944997
internal_weight=12274.3 11686 3169.71 1296.79 983.845 962.353 922.985 779.33 699.053 197.255 84.5869 143.655 130.552 501.798 349.779 260.123 152.019 39.3673 112.668 96.4572 245.548 219.422 209.729 74.1065 15.302 93.3329 89.656 74.0035 121.961 312.948 10.9754 80.2777 22.3507 77.2262 60.9051 71.0868 63.0281 199.706 193.108 109.186 83.9219 40.879 272.069 149.259 122.81 68.0646 13.6464 58.686 6.49036 25.0025 53.9962 58.8044 54.2296 20.8004 96.9588 82.9163 14.0425 95.1603 88.0692 77.1364 10.8901 77.7986
internal_count=53814 14585 12709 12343 11132 10709 9935 8922 8437 2000 694 1013 941 6437 4290 2983 2147 774 1306 1215 2741 2338 2262 1037 173 900 1307 513 784 1211 173 485 178 662 417 379 340 2089 1964 1197 767 203 1008 561 447 325 112 1247 110 326 327 864 854 188 458 307 151 936 915 645 111 736
is_linear=0
shrinkage=0.05


Tree=10
num_leaves=63
num_cat=0
split_feature=182 149 46 17 13 46 41 182 155 152 114 148 122 46 116 110 23 128 127 148 23 120 116 113 154 126 115 47 113 23 24 148 154 46 115 116 44 110 24 182 121 134 55 127 47 46 182 23 46 46 24 116 127 123 23 55 46 121 128 115 148 136
split_gain=4880.26 130.194 87.7848 90.1624 63.9979 56.9939 136.814 154.242 153.585 148.389 139.692 166.952 130.808 77.4329 72.546 167.739 74.1554 91.9709 91.1532 86.3084 77.1729 77.0244 124.675 123.594 74.6661 73.8181 80.4842 76.4052 77.4208 93.9858 68.814 67.3725 159.219 80.4978 67.2856 60.7968 80.2693 75.6477 62.3979 58.4757 57.0313 59.0487 57.4206 56.9799 55.8669 55.3969 52.7475 52.3243 51.3583 47.8942 47.6911 83.0805 53.2255 42.6466 100.552 45.9394 44.7956 38.191 37.4945 36.6341 69.6237 34.7021
threshold=0.0093041370953782249 2.5000000000000004 501.50000000000006 155.17000000000004 2674.4400000000005 50.500000000000007 1.0000000180025095e-35 0.19375000000000003 6024484.5133333346 58.500000000000007 35.500000000000007 31.500000000000004 11.500000000000002 386.50000000000006 50.500000000000007 1166.5000000000002 -87.144999999999939 8.5000000000000018 37.500000000000007 88.500000000000014 -341.84000000000009 20.500000000000004 35.500000000000007 50.500000000000007 9954183.1350000016 11.500000000000002 47.500000000000007 63.253935660506507 65.500000000000014 2460.1000000000008 0.72767054901166983 45.500000000000007 2179033.6400000001 1101.5000000000002 21.500000000000004 88.500000000000014 110.50000000000001 1901.5000000000002 1.00524429728331 0.080128205128205135 3.5000000000000004 6.5000000000000009 1556.5000000000002 22.500000000000004 27.062286105407257 1438.5000000000002 0.097619047619047633 -90420.90499999997 1377.5000000000002 787.50000000000011 0.7603518313245895 30.500000000000004 19.500000000000004 22.500000000000004 1365.1600000000014 537.50000000000011 123.50000000000001 21.500000000000004 16.500000000000004 68.500000000000014 229.50000000000003 4.5000000000000009
decision_type=2 10 2 2 2 2 2 2 10 10 2 10 2 2 2 2 10 2 2 10 10 2 2 2 10 2 2 2 2 10 8 10 10 2 2 2 8 2 8 2 2 2 10 2 2 2 2 8 2 2 10 2 2 2 8 10 2 2 2 2 10 2
left_child=-1 5 3 -3 46 -2 7 8 9 10 11 -7 31 -11 16 53 17 20 21 -19 39 22 40 -24 34 26 -17 28 29 30 -27 32 33 -13 -22 36 -29 -37 -39 48 -18 -42 45 -25 -33 -43 -4 -30 -12 -48 51 -41 -52 54 55 56 -16 -38 -9 -49 -61 -45
right_child=1 2 4 -5 -6 6 -8 58 -10 13 14 12 -14 -15 15 25 18 19 -20 -21 24 -23 23 43 -26 27 -28 35 47 -31 -32 44 -34 -35 -36 37 57 38 -40 50 41 42 -44 61 -46 -47 49 59 -50 -51 52 -53 -54 -55 -56 -57 -58 -59 -60 60 -62 -63
leaf_value=-0.050651598167848678 0.1034280918847123 -0.054448672412687374 -0.012177303265134307 0.097795265160034381 -0.051854194407353685 -0.050966655150048536 0.10124089648576413 0.12945701760266445 0.19710821856451 0.2262588274840841 -0.030168658200178569 0.018617421341331739 0.18105019357694793 0.10372294865489642 0.14582131707923199 0.013046745966639642 0.1504058617370907 0.084268496655948155 0.16494593895239296 -0.031032546662787566 0.092347379236001059 -0.053439421098627829 -0.0028515168837203921 0.21737865939641079 0.022083822576979825 0.11743795152357508 0.22920305482536005 0.15723574734836154 0.12889353329235531 0.14613290153027217 -0.052435884090873686 -0.010152006866271508 -0.051801015392991694 0.25616193465790538 0.33152188544577166 0.247354112733743 0.080598946839176705 0.14321183395826362 -0.046341396892220769 -0.05249733534566392 -0.053865785916509215 -0.032675799464456028 0.15156759464042865 0.13696135982618915 0.10574545369367593 0.14536282435746148 -0.046732663720564935 -0.053672887612572197 0.13846516789493751 0.095176742816512963 0.13944258989880268 0.097997556276905928 0.020261069154672403 0.18490263573393542 -0.0498713674734797 0.1598324058676269 -0.046879650248340239 -0.051873420268437977 0.063049099260352112 0.14324569270953741 -0.028894948271649373 -0.042907936053448253
leaf_weight=565.27465296257287 6853.1046356614679 9.8186849998310191 25.110983588732779 133.27134445868433 20.483702937141061 18.021929983049631 3445.3131671175361 182.71247005090117 24.045263022184372 19.718574848026037 22.87658356688917 6.5360809601843339 45.629863627254963 45.585965683683753 4.2110852710902673 7.3841986712068346 4.2793356180191031 24.554962702095509 8.6411209795624 43.487175118178129 6.3235964979976433 39.667845908552408 19.404150903224945 16.173592649400238 6.1794671770185223 7.7651968076825169 9.9675113875418884 8.7915146462619287 4.8414136730134487 19.424446290358901 17.633450837805867 10.740528719499705 24.056688645854592 7.4675961341708899 7.2393413372337818 9.3717903532087821 6.7919502668082741 9.657428156584503 6.6223616749048224 14.370787128806112 49.381998198106885 24.677367590367798 6.6408782992511979 4.6210453379899246 188.96761659160256 4.2641978431493035 6.228212544694542 45.699882954359055 4.5671789478510609 42.164238443598151 43.374133257195354 22.028815990313888 12.483530197292565 27.451813800260425 8.4705798588693124 34.410024181008339 6.2900548502802849 17.045199353247881 27.719561884179711 7.0671409014612463 20.672054747119546 4.3717333618551493
leaf_count=39447 1063 175 604 500 462 360 1151 366 84 54 442 85 195 170 6 101 30 202 64 667 69 648 234 67 70 40 26 32 29 88 257 145 448 38 49 28 45 71 121 196 811 380 45 27 930 16 106 734 33 267 212 116 111 106 122 116 105 261 92 52 316 77
internal_value=0.0927862 0.0996582 0.0624398 0.0870084 0.0244607 0.100415 0.0960143 0.0817671 0.0738523 0.0707991 0.0657494 0.0940853 0.103474 0.143652 0.0528571 0.0723434 0.0387123 0.0590954 0.0152675 0.0111226 0.0822224 0.0068808 0.0250629 0.0923704 0.172419 0.0471925 0.143211 0.0372447 0.0146068 0.0662764 0.00179196 0.0878694 0.0258937 0.154254 0.234351 0.0839247 0.0366215 0.140275 0.0675957 0.0659995 -0.0091477 -0.0188981 0.0296399 0.163284 0.0994679 -0.00229814 0.0462056 -0.0153786 0.00160091 0.0762351 0.08488 0.0386326 0.11372 0.132785 0.102985 0.132382 0.035921 -0.0122012 0.121073 -0.0265606 0.0182458 0.0534762
internal_weight=12371.1 11805.9 237.077 143.09 93.9871 11568.8 4715.69 1270.38 1059.95 1035.9 970.598 301.42 283.398 65.3045 669.178 279.569 389.609 207.486 182.123 68.0421 139.443 173.482 133.814 44.5705 19.7424 198.736 17.3517 181.384 123.104 44.8231 25.3986 237.769 38.0604 14.0037 13.5629 58.2802 32.6287 25.6516 16.2798 119.701 89.2438 84.9644 35.5824 25.1664 199.708 28.9416 73.5034 78.2805 27.4438 48.3925 92.2573 36.3996 55.8577 80.8336 53.3817 44.9112 10.5011 23.8371 210.432 73.4391 27.7392 8.99278
internal_count=53964 14517 2114 675 1439 12403 11340 10189 9731 9647 9423 2201 1841 224 7222 2656 4566 2167 2399 869 1298 2335 1687 405 188 2201 127 2074 1516 385 297 1646 571 123 118 558 338 220 192 1110 1282 1252 441 171 1075 396 977 1131 475 373 635 312 323 455 349 227 111 306 458 1102 368 104
is_linear=0
shrinkage=0.05


Tree=11
num_leaves=63
num_cat=0
split_feature=180 149 46 46 41 153 18 124 122 151 24 122 24 47 129 2 155 48 121 119 2 18 151 183 131 153 111 115 48 138 123 51 124 181 110 135 24 48 2 46 145 113 151 115 54 129 183 11 54 16 9 16 4 54 47 111 151 2 2 44 121 151
split_gain=4282.42 120.383 76.176 75.1814 165.505 132.012 129.853 132.693 124.925 122.97 98.9476 85.2084 137.179 114.169 98.4078 93.4958 79.1411 77.0716 74.0316 68.076 67.9891 66.0792 205.098 137.146 65.4144 129.438 92.3667 79.2231 65.7847 64.9569 61.9047 89.8968 103.115 75.4126 73.2545 61.7838 67.4614 81.9021 63.3499 59.6058 58.7717 58.2996 56.5333 64.2977 56.4952 56.2396 53.5093 53.1722 50.8877 48.1385 44.5786 43.998 43.171 41.8097 41.2958 40.8964 40.5106 39.9994 71.9067 39.8667 38.1156 37.786
threshold=1.0000000180025095e-35 2.5000000000000004 501.50000000000006 44.500000000000007 1.0000000180025095e-35 6888730.543221985 1787.5000000000002 7.5000000000000009 15.500000000000002 1.7923181851829717 0.74891992824380882 20.500000000000004 1.1623814081529991 79.226557152635195 17.500000000000004 1775.4700000000003 772823.85858333355 2557.5000000000005 33.500000000000007 43.500000000000007 71354.160000000018 108.50000000000001 0.19349726860592623 0.086471531126077347 8.5000000000000018 778530.41332900443 60.500000000000007 19.500000000000004 2117.5000000000005 1.5000000000000002 12.500000000000002 1.0000000180025095e-35 6.5000000000000009 6.5000000000000009 433.50000000000006 8.5000000000000018 0.95561354273958077 6473.5000000000009 6965.0100000000011 574.50000000000011 0.27473917295067007 120.50000000000001 1.4142143796197082 16.500000000000004 2161.5000000000005 12.500000000000002 0.098748698671190641 21622.340000000004 2092.5000000000005 7.7250000000000005 -84520.304999999978 19.675000000000004 57807.710000000006 1335.5000000000002 23.393566050650243 41.500000000000007 1.0625977214594637 1893.5950000000003 -6611.7699999999995 142.50000000000003 16.500000000000004 0.20479797412135034
decision_type=2 10 2 2 2 10 2 2 2 10 10 2 10 2 2 8 10 2 2 2 8 2 10 2 2 10 2 2 2 2 2 2 2 2 2 2 10 2 10 2 2 2 10 2 2 2 2 2 2 2 2 2 2 2 2 2 10 10 8 10 2 10
left_child=-1 3 61 -2 5 6 7 8 9 10 42 13 14 24 17 44 -10 -13 49 50 -7 -6 23 -23 25 28 27 29 -9 52 31 32 51 -33 -32 36 37 45 -38 -8 -19 -17 -5 -44 53 -29 -39 -20 -21 -14 -4 56 -26 60 -30 -22 -12 58 -51 -35 -16 -3
right_child=1 2 19 4 21 20 39 11 16 -11 30 12 18 -15 15 41 -18 40 47 48 55 22 -24 -25 26 -27 -28 35 54 -31 34 33 -34 59 -36 -37 38 46 -40 -41 -42 -43 43 -45 -46 -47 -48 -49 -50 57 -52 -53 -54 -55 -56 -57 -58 -59 -60 -61 -62 -63
leaf_value=-0.050594724855057505 0.098079395264974348 0.090635255993388064 0.123365484925628 -0.053083819685035741 0.1205463768147081 0.12617297643555825 0.1685949591150987 0.18665918162811845 0.20987276731515558 0.10620403060582172 -0.045306536713195261 -0.049903615531923157 0.0016917960802497211 0.17313005012020283 0.12152763698173918 -0.039030275108665136 0.066148004384289916 0.13034228005289492 -0.050175221994143253 -0.044338995633950266 0.11158727231874005 -0.038944142334974584 0.095327493754365555 0.10546671955973155 0.00067207693337374881 -0.036431154081395446 -0.028075795425440971 0.086495188795905745 0.12238186356010233 -0.053251522079270586 0.22305851651318151 0.16585835572666335 0.18377572246251117 -0.01894982030743737 0.058642699019611583 -0.019030593698986895 0.077819932846672893 -0.04981147114437609 -0.051235681100756575 0.068976859665141319 -0.0040084122832778849 0.12246103477628117 -0.046039874129927598 0.17434533612620506 -0.020036625415492306 0.20451824536003321 0.11809251599289357 0.13185235914460244 0.11162056052883472 0.1284847237256608 -0.020205575432900375 -0.04815988463184015 0.16873287445656637 0.14172069768129378 -0.047821051195832784 -0.052326561238510073 0.090944075272883118 0.1399937075262222 -0.04923361568281328 0.11234719873327391 -0.014616226598517457 0.013406395657301673
leaf_weight=535.22500613704324 6833.0333358645439 127.34969461522996 4.9499214813113204 31.042514802888036 256.40003081411123 151.5663197748363 45.169284198433161 9.8364918231964129 30.259318798780441 180.20946476981044 5.7045262325555077 8.2206653784960491 8.5025346335023624 12.552006442099808 7.289941210299733 64.601729708723724 15.77713233605027 48.240107135847211 12.143735174089672 5.8791586849838522 5.1443511396646491 47.967771135270596 3171.8849227800965 23.750439748167992 8.600589079782365 82.933772772550583 38.15147846005857 20.039913492277265 4.7773692086338988 24.528838967904449 11.988948037847878 6.0905806906521311 20.449065405875444 57.566959176212549 16.509282484650612 14.288843363523482 32.369441647082567 9.5260334629565495 12.449341075494884 25.739441661164165 9.5961521528661233 5.1269742269068947 5.6127762589603645 5.9759212676435709 15.182490697130559 26.561300925910473 7.6926330588757983 4.7729021776467553 25.581427907571197 13.726374519988893 58.100443829782307 8.4918023031204921 5.97589905001223 19.782246159389615 8.3333763722330314 8.9968821834772807 36.567531369626522 94.922090034931898 8.530633922666313 5.4130207970738402 12.912854515016077 18.681050688959658
leaf_count=39385 1010 498 34 535 43 530 76 50 94 339 104 119 99 64 10 967 92 283 210 149 13 198 892 29 106 1225 559 126 13 377 20 20 98 932 97 196 182 155 182 107 117 55 90 32 209 113 14 37 95 65 1164 146 15 110 154 111 270 439 129 42 161 178
internal_value=0.0876759 0.093899 0.0583905 0.094626 0.0897166 0.0745019 0.0684146 0.0640261 0.0853841 0.0758343 0.0495454 0.0495767 0.067253 0.0309038 0.0391786 0.0127883 0.163177 0.0880662 0.104278 0.0230013 0.116445 0.0954584 0.0934372 0.00960337 0.0245098 -0.00719829 0.0412581 0.0576859 0.0953531 -0.00413745 0.0666635 0.0522649 0.0912922 0.011227 0.133197 0.0772679 0.0900374 0.122861 0.0415271 0.133966 0.108277 -0.025522 -0.0180873 0.0720303 0.0608917 0.156753 0.0272917 0.00539615 0.0818537 0.1174 -0.00710603 0.0511102 0.0763019 0.0914816 0.0181219 0.010404 0.0718197 0.125668 0.060966 -0.00600732 0.0376886 0.0809481
internal_weight=12435.2 11900 240.542 11659.5 4826.45 1326.44 1160.74 1089.83 437.659 391.622 211.413 652.169 333.551 318.617 190.953 124.896 46.0365 66.0569 142.598 94.511 165.708 3500 3243.6 71.7182 306.065 105.881 200.184 162.033 22.9472 39.1053 168.782 140.283 71.2129 69.0706 28.4982 122.928 108.639 63.8199 44.8188 70.9087 57.8363 69.7287 42.6312 11.5887 55.1675 46.6012 17.2187 16.9166 31.4606 125.682 63.0504 50.7639 14.5765 39.985 13.1107 14.1412 42.2721 117.179 22.257 62.98 20.2028 146.031
internal_count=53964 14579 2118 12461 11451 10289 9635 9452 2911 2725 2386 6541 3010 3531 2031 1512 186 519 979 1442 654 1162 1119 227 3467 1442 2025 1466 217 498 1729 1612 618 994 117 968 772 408 364 183 400 1022 657 122 490 239 169 247 244 732 1198 520 121 281 167 124 374 633 194 974 171 676
is_linear=0
shrinkage=0.05


Tree=12
num_leaves=63
num_cat=0
split_feature=182 41 46 151 155 51 149 48 46 182 54 23 123 13 109 148 139 23 151 148 124 119 133 48 54 13 17 151 182 23 7 147 136 127 147 122 151 55 48 141 131 23 44 113 15 109 138 151 23 141 47 133 123 15 2 3 46 127 48 15 140 23
split_gain=3834.5 128.542 242.255 117.602 111.514 134.503 83.7381 82.61 102.92 74.305 85.1259 77.8081 68.3911 63.9121 76.5444 70.7329 78.454 62.783 60.4358 67.8527 69.2643 128.79 73.076 72.606 67.8873 60.6596 66.6741 55.8212 55.1507 54.9698 105.688 84.8347 77.5593 66.6622 57.4321 78.419 54.5683 54.1315 53.7371 53.7215 51.7362 66.375 49.9662 48.4837 46.955 46.0128 45.9737 54.5308 44.9845 66.7523 44.9322 59.4192 68.8219 43.5673 42.9493 53.2473 61.8769 41.6924 40.8841 47.0516 38.8723 38.536
threshold=0.0093041370953782249 1.0000000180025095e-35 44.500000000000007 2.8084353875010701 6024484.5133333346 1.0000000180025095e-35 28.500000000000004 7431.5000000000009 640.50000000000011 0.17914438502673799 2350.5000000000005 24055.409999999993 22.500000000000004 7449.6650000000009 341.50000000000006 40.500000000000007 7.5000000000000009 -2177.5849999999996 0.19349726860592623 31.500000000000004 7.5000000000000009 22.500000000000004 11.500000000000002 10025.500000000002 929.50000000000011 914.59500000000014 79.27500000000002 1.3059807393038232 0.080128205128205135 -190.98499999999999 -75312.14499999999 17.895881386742936 9.5000000000000018 35.500000000000007 31.596580926326585 16.500000000000004 1.0543460554000574 1066.5000000000002 11012.500000000002 1.5000000000000002 22.500000000000004 1031.5750000000003 3.5000000000000004 73.500000000000014 28.500000000000004 182.50000000000003 5.5000000000000009 0.183504335618114 1785.3500000000001 1.5000000000000002 48.130047912388783 2.5000000000000004 13.500000000000002 20.500000000000004 77095.000000000015 5829.9450000000006 1155.5000000000002 26.500000000000004 10359.500000000002 19.500000000000004 5.5000000000000009 -40432.419999999991
decision_type=2 2 2 10 10 2 10 2 2 2 2 10 2 2 2 10 2 10 10 10 2 2 2 2 2 2 2 10 2 8 10 10 2 2 10 2 10 8 2 2 2 10 10 2 2 2 2 10 10 2 2 2 2 2 8 2 2 2 2 2 2 8
left_child=-1 2 -2 4 5 6 18 9 -9 11 17 13 27 15 -15 -7 29 -11 46 -20 50 36 23 24 -23 40 -27 -13 -26 32 31 53 34 -33 35 45 39 -32 61 44 41 -24 43 54 -22 -17 47 -4 49 -35 51 -21 -53 -31 55 56 -10 -36 59 -44 -55 -38
right_child=1 -3 3 -5 -6 7 -8 8 42 10 -12 12 -14 14 -16 16 -18 -19 19 20 21 22 25 -25 28 26 -28 -29 -30 30 37 33 -34 48 57 -37 38 -39 -40 -41 -42 -43 58 -45 -46 -47 -48 -49 -50 -51 -52 52 -54 60 -56 -57 -58 -59 -60 -61 -62 -63
leaf_value=-0.050572434195961635 0.092985287481677642 0.092235951723507834 0.0015854116640457716 0.097116739718286202 0.14748022363497099 -0.032987977349581289 -0.049102345126580127 -0.039002454045288702 0.081996114943261811 0.17760889800769691 -1.6938327884231975e-05 -0.048573633122071802 0.17415379747795989 0.084842837863741402 -0.034927233871937156 0.085292374566985629 -0.051091399843660783 0.064794723540149105 -0.022717248853140134 0.11751172775936065 0 -0.048237128240659503 -0.028669073703063347 0.19505664332038117 -0.0027959314436745595 0.12092312361714846 -0.036428473999062565 0.11157841251707493 0.12288299357188588 0.11849682413789314 0.20142663485211615 -0.03116989305962263 -0.048543183531367412 0.12432527170499891 0.15544861780692618 0.15159804514017344 0.063824924170685082 0.040966587393320077 0.12603900977902735 -0.048555041216330724 0.11573217184782232 0.10150805025716081 0.10609631491063581 -0.051286810073848089 0.14134759374476411 -0.051347986117523108 0.25214288328131818 0.16309757682188797 0.1413331034885344 -0.051637165511190089 0.12381997130327263 -0.030446033417394904 0.10511117577114895 -0.049155052270420482 0.10236862606216897 -0.051995653655368956 -0.050598387966142744 0.050465775202673216 0.17063731555248196 -0.047604910252638327 0.11022437392109126 -0.054064460261367034
leaf_weight=512.49703256320208 1771.0143575668335 8663.9103766456246 8.456299573183065 247.33187316171825 34.166823606938124 24.762827674858272 12.544195666909216 62.004070168361068 32.00647649820894 29.935938391834497 16.276297554373741 8.9180790502578038 19.726560281589627 16.614559238776565 53.943123087286949 8.6875677108764666 15.941934563219545 23.70476932451129 17.064162657596171 33.142964305356145 8.7249141000211257 7.4151343572884789 19.544181948527694 21.842748573049903 10.041301028802989 7.8088127225637427 27.55268935021013 11.297644592821596 60.139019032940269 27.540124067105353 13.221841391175987 63.65859954059124 8.7639925610274059 7.5751547366380754 45.182725325226784 11.615663956850765 7.341087780892849 9.4694534130394441 4.7261304110288611 7.8931660037487736 43.491924868896604 17.887175165116787 11.664393581449991 17.80221485439688 16.884684480726719 15.920203588902949 7.4939196724444619 13.040704989805816 9.6282227821648103 13.521726058796046 104.45676163211465 22.182757383212447 14.762410098686813 9.2720395717769843 18.666874704882503 18.528002981096506 11.178832542151211 13.68008575029671 10.466353196650742 7.3954291213303796 5.0966195948421946 42.401700589805841
leaf_count=39447 353 1886 132 412 104 473 284 938 261 57 115 158 72 132 916 1 294 131 312 109 102 109 255 51 160 31 392 74 210 139 74 962 156 26 208 86 39 95 10 123 267 71 58 349 66 276 27 53 49 194 524 325 32 174 156 303 176 134 44 123 16 658
internal_value=0.08326 0.0890149 0.0804352 0.0654825 0.0591195 0.0565017 0.0752063 0.0414994 0.0134077 0.0524508 0.100046 0.04418 0.109911 0.0368742 -0.00586299 0.0468116 0.0540103 0.129944 0.0782778 0.0738605 0.0773571 0.0624945 0.0832132 0.114765 0.0899054 0.0554413 0.000551634 0.0417329 0.105044 0.0605736 0.0416011 0.0244147 0.088897 -0.00201328 0.10199 0.0502363 0.0112682 0.139231 -0.0195137 0.0605735 0.0790662 0.0344307 0.0389977 0.0213119 0.0949568 -0.00146607 0.148601 0.10268 0.0573164 0.0140856 0.102685 0.0698173 0.0249302 0.08271 0.0378848 0.0169789 0.0471916 0.132384 0.0950191 0.0468091 0.0105457 -0.0356528
internal_weight=12439.4 11926.9 3263.02 1492.01 1244.67 1210.51 536.839 673.668 189.713 483.956 69.917 414.039 39.9423 374.096 70.5577 303.539 278.776 53.6407 524.295 495.304 478.24 303.695 215.723 99.4382 77.5955 116.285 35.3615 20.2157 70.1803 262.834 158.984 136.292 103.85 94.3837 95.0862 36.2234 87.9717 22.6913 54.4689 33.5028 80.9233 37.4314 127.709 98.1824 25.6096 24.6078 28.9909 21.497 30.7251 21.0969 174.545 70.0881 36.9452 41.9088 80.3802 61.7133 43.1853 58.8628 29.5262 19.0598 14.3687 49.7428
internal_count=53964 14517 12631 12278 11866 11762 4342 7420 2408 5012 303 4709 304 4405 1048 3357 2884 188 4058 3846 3534 2544 1546 530 479 1016 423 232 370 2590 1729 1560 861 1231 705 363 998 169 707 291 593 326 1470 1245 168 277 212 185 269 220 990 466 357 329 896 740 437 342 225 181 190 697
is_linear=0
shrinkage=0.05


Tree=13
num_leaves=63
num_cat=0
split_feature=182 19 43 116 182 156 182 138 51 155 112 110 142 140 182 116 144 148 3 112 127 3 121 23 137 144 128 54 127 54 54 129 144 127 120 120 23 129 128 24 116 114 133 116 15 29 24 111 120 116 124 136 120 182 121 134 110 116 7 153 153 24
split_gain=3433.66 81.9422 74.4502 58.9251 92.4623 51.7738 52.1289 45.7648 40.0917 58.5596 51.5969 38.9547 37.0878 84.1463 30.0543 51.0637 131.546 40.6648 47.1733 40.5268 57.7355 70.4075 87.1213 66.8004 55.2959 40.1121 48.8684 88.8513 56.8713 45.4205 36.1308 35.9993 29.4576 48.3026 42.9408 46.1002 26.491 25.1019 34.0237 23.4548 23.1333 56.7616 33.5678 32.8857 33.8207 46.539 33.2023 26.5413 24.7539 70.5107 45.3793 21.8356 73.2639 21.6919 21.5514 20.7228 19.4388 40.7275 19.0922 18.4464 59.672 16.6747
threshold=0.0093041370953782249 1.0000000180025095e-35 23.500000000000004 8.5000000000000018 0.12916666666666668 1.0000000180025095e-35 0.048809523809523817 9.5000000000000018 1.0000000180025095e-35 7142292.892 269.50000000000006 2158.5000000000005 4.5000000000000009 9.5000000000000018 0.19375000000000003 48.500000000000007 993.50000000000011 179.50000000000003 406.85000000000008 108.50000000000001 18.500000000000004 8675.0850000000009 22.500000000000004 -25.485000000000003 1.5000000000000002 776.50000000000011 4.5000000000000009 2350.5000000000005 3.5000000000000004 634.50000000000011 958.50000000000011 17.500000000000004 438.50000000000006 12.500000000000002 8.5000000000000018 12.500000000000002 -4564.7299999999859 13.500000000000002 17.500000000000004 0.7971683054846711 34.500000000000007 65.500000000000014 11.500000000000002 99.500000000000014 35.500000000000007 1.0000000180025095e-35 1.5772946852026337 152.50000000000003 11.500000000000002 24.500000000000004 5.5000000000000009 2.5000000000000004 13.500000000000002 0.06458333333333334 5.5000000000000009 2.5000000000000004 1648.5000000000002 93.500000000000014 -117486.08999999998 381446.85424359638 615654.02870126604 1.0000000180025095e-35
decision_type=2 2 10 2 2 10 2 2 2 10 2 2 2 2 2 2 2 10 2 2 2 2 2 10 2 2 2 2 2 2 2 2 2 2 2 2 10 2 2 10 2 2 2 2 2 2 10 2 2 2 2 2 2 2 2 2 2 2 10 10 10 10
left_child=-1 2 3 4 -2 6 7 -5 10 12 40 -12 14 61 15 16 19 -17 -19 20 25 23 -23 37 -25 26 32 29 -29 55 -20 39 34 -34 59 -36 -32 -22 -39 -16 41 48 58 44 56 46 -46 -45 53 50 -50 -31 -53 54 -8 -28 -44 -58 -42 -10 -61 -14
right_child=1 -3 -4 5 -6 -7 8 -9 9 -11 11 -13 13 -15 31 17 -18 18 30 -21 21 22 -24 24 -26 -27 27 28 -30 51 36 -33 33 -35 35 -37 -38 38 -40 -41 42 -43 43 47 45 -47 -48 -49 49 -51 -52 52 -54 -55 -56 -57 57 -59 -60 60 -62 -63
leaf_value=-0.050533588744340045 -0.054737376814235607 0.088435374603909808 0.088541834989551427 -0.050762422309712299 0.073962997255262203 0.087946537044274867 0.059594577289091226 0.10863124972808991 0.10897712329391017 0.1424463854348014 0.078948078291087576 -0.053687198448768653 0.040620317730760393 0.083824098165252034 0.1431182434645141 0.087679976011867083 -0.054988522750328311 -0.028261522157743232 -0.015715371732009341 0.094133892101937733 0.082302036471907231 -0.05624994401459317 0.17248326373303802 0.11087700314212888 -0.054947243112471955 0.14587713417459167 0.072623029135103101 0.081885700108818668 -0.057031200048189935 0.089095003239514234 -0.0097159904511952087 0.038030108649478311 0.14958318280376856 0.072550986489340441 -0.056267288550989662 0.10282083258755435 0.080271339236515971 -0.052416020489003116 0.07958794819543874 0.087466766639846552 0.094479046036547318 -0.025552966951433699 0.08097270967106153 0.15919157554114069 -0.054575989867854995 0.089736639053930742 0.069556626416654679 0.070838073034529006 0.065621600408148836 0.074501005820437574 -0.056068025292843549 -0.052604412364297241 0.071141944434991819 0.081239850888342138 0.17765485629788361 -0.052949564449962606 -0.051396757254489278 0.079600362902303184 0.13583853593485032 -0.051270634639558971 0.073032844579502473 -0.05690799191332583
