tree
version=v4
num_class=1
num_tree_per_iteration=1
label_index=0
max_feature_idx=186
objective=binary sigmoid:1
feature_names=avg_balance num_chequebooks monthly_avg_balance quarterly_avg_balance daily_avg_balance loan_sum loan_count cc_sum cc_count od_sum od_count ka_sum ka_count sa_sum sa_count branch_employee_count branch_turnover branch_asset_size account_age_days is_frozen product_family_S product_family_K product_family_O balance_monthly_daily_diff balance_monthly_daily_ratio nomination_flag_num cheque_allowed_num cheque_availed_num kyc_compliant_num rural_branch_num pan_available_num aadhaar_available_num passport_available_num mobile_banking_flag_num internet_banking_flag_num atm_card_flag_num demat_flag_num credit_card_flag_num fastag_flag_num joint_account_flag_num nri_flag_num was_frozen was_unfrozen freeze_duration_days days_since_mobile_update mobile_updated_recently days_since_kyc customer_age_years relationship_duration_days kyc_doc_count digital_adoption_score pin_match_branch pin_match_permanent is_male days_since_address_update days_since_passbook_update branch_type_urban branch_type_semi_urban branch_type_rural total_product_count total_outstanding has_loans has_credit_cards scheme_APY scheme_PMJDY scheme_PMJJBY scheme_PMSBY scheme_REGULAR scheme_SCSS scheme_SSA txn_count txn_total_amount txn_total_abs_amount txn_min_amount txn_max_amount txn_max_abs_amount txn_structuring_count txn_round_1k_count txn_round_5k_count txn_round_10k_count txn_round_50k_count txn_month_boundary_count txn_night_txn_count txn_weekend_txn_count txn_unique_counterparties_part txn_unique_mcc_part txn_unique_channels_part txn_credit_count txn_credit_total txn_debit_count txn_debit_total txn_unique_credit_cp txn_unique_debit_cp txn_mean_amount txn_mean_abs_amount txn_std_amount txn_credit_debit_count_ratio txn_credit_debit_amount_ratio txn_active_span_days txn_per_day txn_structuring_pct txn_fan_ratio txn_round_1k_pct txn_round_5k_pct txn_round_10k_pct txn_round_50k_pct txn_month_boundary_pct txn_night_txn_pct txn_weekend_txn_pct ch_UPC ch_UPD ch_END ch_IPM ch_STD ch_P2A ch_FTD ch_NTD ch_MCR ch_FTC ch_MAC ch_TPD ch_APD ch_CHQ ch_ATW ch_TPC ch_STC ch_OCD ch_RCD ch_IFD ch_ETD ch_NWD ch_CSD ch_IFC ch_PCA ch_MAD ch_CHD ch_RTD ch_CCL ch_OPI ch_CTC ch_SID ch_ASD ch_IAD ch_SCW txn_dominant_channel_count txn_channel_concentration txn_active_channels txn_monthly_txn_std txn_monthly_txn_max txn_monthly_txn_min txn_monthly_txn_mean txn_monthly_txn_cv txn_active_months txn_monthly_amount_std txn_monthly_amount_max txn_monthly_amount_mean txn_burst_months txn_add_lat_min txn_add_lat_max txn_add_lon_min txn_add_lon_max txn_add_geo_txn_count txn_add_unique_ip_part txn_add_bal_after_min txn_add_bal_after_max txn_add_bal_after_sum txn_add_bal_after_count txn_add_ptt_CI_count txn_add_ptt_BI_count txn_add_ptt_IP_count txn_add_ptt_IC_count txn_add_subtype_NORMAL_count txn_add_subtype_LOAN_count txn_add_atm_deposit_count txn_add_geo_lat_spread txn_add_geo_lon_spread txn_add_geo_spread_km txn_add_bal_after_mean txn_add_bal_after_range txn_add_ci_ratio branch_mule_count branch_total_count branch_mule_rate_raw branch_mule_rate_smoothed dormant_ratio income_mismatch_ratio volume_balance_ratio
feature_infos=[-74724410.469999999:189352987.5] [0:3] [-79414736.299999997:209856381.56] [-65458476.789999999:227640719.33000001] [-88973067.719999999:162747451.59] [-24514495.07:-2869.96] [0:3] [-1963631.6299999999:2063870.6299999999] [0:2] [-3971761.2799999998:2264846.7400000002] [0:1] [-35528924.289999999:25287750.960000001] [0:2] [-23235727.489999998:18198507.859999999] [0:2] [1:49] [5:245.56] [10.210000000000001:499.95999999999998] [10:3650] [0:1] [0:1] [0:1] [0:1] [-22541707.68:62740284.899999999] [0.00043359017406965293:3347.8857859469172] [0:1] [0:1] [0:1] [0:1] [0:1] [0:1] [0:1] [0:1] [0:1] [0:1] [0:1] [0:1] [0:1] [0:1] [0:1] [0:1] [0:1] [0:1] [-888:1286] [1:179] [0:1] [5:1499] [18.496919917864478:80.492813141683783] [30:11138] [0:3] [0:6] [0:1] [0:1] [0:1] [30:3649] [1:1824] [0:1] [0:1] [0:1] [1:7] [-24539700.93:2264846.7400000002] [0:1] [0:1] [0:1] [0:1] [0:1] [0:1] [0:1] [0:1] [0:1] [127:11679] [2658253.98:446673739.81999999] [2658253.98:448026065.25999999] [-3700577.5499999998:5.6200000000000001] [630461.58999999997:333771851.56] [630461.58999999997:333771851.56] [1:81] [21:2230] [1:266] [0:99] [0:8] [50:4020] [3:654] [36:2290] [4:115] [21:85] [16:40] [49:5414] [897635.18000000005:309077761.29000002] [53:6265] [848749.23999999999:345113716.00999999] [4:59] [3:70] [12040.974689716313:266352.6503637713] [12043.060239361703:266366.82219747588] [48202.467121013164:9091422.0244832579] [0.62820512820512819:2.1132075471698113] [0.039590730232246386:6.2343396715580157] [50.443692129629632:1823.4729861111111] [0.10013036895371941:84.728135859221467] [0.0011904761904761906:0.24409448818897639] [0.36666666666666664:1.3333333333333333] [0.12727272727272726:0.23622047244094488] [0.0018450184501845018:0.13385826771653545] [0:0.07874015748031496] [0:0.047244094488188976] [0.26555919513336451:0.58181818181818179] [0.023622047244094488:0.073384446878422785] [0.17694155324259409:0.31496062992125984] [0:5772] [0:5583] [0:406] [0:666] [0:251] [0:515] [0:213] [0:290] [0:201] [0:129] [0:187] [0:162] [0:132] [0:145] [0:130] [0:119] [0:109] [0:88] [0:200] [0:91] [0:132] [0:119] [0:103] [0:92] [0:90] [0:77] [0:60] [0:57] [0:47] [0:40] [0:38] [0:27] [0:22] [0:18] [0:14] [1:5772] [0.125:0.5] [1:35] [0.25819888974716115:1083.5960668801783] [1:7795] [0:214] [0.033333333333333333:251] [0.059735974655214255:7.8102496759066566] [1:61] [86.044624421304064:376052732.18010473] [672.02999999999997:2916409431.4299998] [11.016885245901639:53198021.245999999] [0:5] [0:34.034178370176939] [9.9750614380018501:34.133676923730285] [0:93.817753253805165] [70.85213195192442:93.917620658465836] [16:3032] [25:4028] [-100000000:1505884.27] [-1510525.3600000001:100000000] [-214476475926:594257621741.19995] [127:11679] [108:11246] [2:408] [0:60] [0:60] [125:11492] [0:221] [0:46] [0.092983817788407919:31.683894184865988] [0.09293293007421255:91.943288444580801] [12.997160187364647:8316.840248785682] [-78924481.496755213:72897305.268593073] [927072.52000000002:105506189.97] [0.65454545454545454:0.98425196850393704] [0:30] [1:109] [0:0.58139534883720934] [0.0023463402907030794:0.48837442733215591] [0:0.53345081739440459] [1.250060827457026:821195.95934172312] [9.2799437056574181:3523965.3155856729]
tree_sizes=6691 6730 6716 6746 6716 6757 6735 6772 6782 6739 6801 6789 6776 6786 6810 6830 6802 6844 6826 6844 6842 6804 6846 6827 6827 6859 6844 6861 6844 6858 6840 6836 6867 6849 6859 6855 6827 6866 6862 6842 6852 6846 6824 6870 6860 6859 6873 6873 6860 6874 6872 6848 6836 6882 6860 6858 6870 6856 6837 6851 6852 6858 6885 6868 6874 6878 6891 6876 6859 6896 6878 6855 6892 6849 6892 6893 6871 6886 6868 6891 6875 6858 6919 6901 6877 6877 6904 6896 6885 6900 6893 6943 6879 6941 6863 6878 6913 6899 6877 6882 6925 6873 6913 6948 6959 6927 6934 6889 6931 6940 6895 6864 6901 6903 6894 6916 6923 6933 6879 6919 6905 6950 6903 6878 6908 6921 6880 6951 6948 6925 6904 6877 6906 6924 6965 6867 6894 6900 6944 6871 6913 6897 6903 6910 6912 6983 6947 6923 6868 6892 6920 6951 6892 6934 6853 6893 6898 6905 6886 6892 6926 6926 6932 6901 6903 6940 6953 6989 6934 6956 6926 6929 6893 6922 6923 6923 6875 6919 6871 6934 6965 6937 6965 6939 6934 6960 6925 6942 6960 6910 6938 6920 6950 6911 6907 6931 6920 6913 6922 6958 6961 6961 6938 6936 6964 6915 6944 6963 6936 6919 6941 6946 6981 6929 6897 6938 6944 6876 6906 6947 6950 6967 6950 6938 6968 6939 6968 6925 6908 6923 6881 6915 6864 6946 6905 6997 6990 6985 6949 6958 6941 6971 6951 6904 6959 6942 6977 6976 6976 6939 6921 6954 6970 6920 6953 6912 6934 6962 6858 6902 6980 6907 6875 6888 6860 6938 6919 6944 6931 6924 6955 6981 6937 6951 6927 6913 6939 6947 6879 6931 6900 6923 6987 6936 6921 6931 6826 6943 6933 6957 6947 6963 6906 6944 6931 6896 6925 6839 6920 6942 6903 6935 6875 6967 6946 6888 6945 6927 6957 6930 6887 6873 6850 6956 6891 6951 6926 6968 6997 6935 6965 6940 6985 6932 6888 6981 6942 6924 6949 6956 6937 6968 6912 6978 6956 6916 6958 6848 6966 6847 6947 6951 6922 6928 6927 6904 6955 6871 6962 6952 6921 6963 6958 6845 6952 6936 6895 6965 6926 6891 6883 6919 6866 6865 6816 6927 6950 6947 6987 6936 6961 6990 6975 6968 6958 6896 6851 6950 6919 6875 6944 6945 6894 6931 6951 6907 6926 6946 6953 6881 6949 6950 6930 6942 6883 6928 6980 6979 6920 6958 6990 7000 6996 6997 6953 6960 6961 7025 6993 7010 6939 6923 6894 6987 6924 6898 6962 6948 6958 7026 6997 6966 6975 6962 6963 6968 6990 6976 6996 6920 6938 6944 6994 6927 6956 7037 6998 6909 7014 6975 6979 6919 7016 7023 6942 6883 6987 6960 7002 6988 6967 6958 6922 6951 6946 6985 6976 6971 6948 7013 7057 7009 6989 7019 7021 6990 6989 6921 6981 6992 6958 6941 6993 6974 6981 6911 6912 6876 6969 6955 6938 6909 6951 6925 6968 6983 7027 7061 6998 6959 7007 6905 6918 7008 6996 6962 6966 6973 6975 6956 6945 6914 6983 6858 6910 7024 7015 6982 6915 6967 6965 6951 7000 6964 6992 6892 6838 6903 6888 6966 6950 6990 6935 6998 6963 6951 7066 6974 6925 6987 7005 6952 6951 6953 6969 6835 6892 6950 6972 6971 6963 6934 6887 6979 6996 6984 6997 6975 6928 6963 6936 6965 6912 6916 6872 7016 7011 6919 6954 6895 6902 7020 6926 6924 6914 6945 7005 7007 6922 7004 6858 6978 6885 6887 6897 6951 6950 6909 6962 6920 6862 6990 6916 6942 7020 6935 6943 6803 6858

Tree=0
num_leaves=63
num_cat=0
split_feature=183 46 19 42 151 152 183 183 147 18 183 3 180 19 147 119 110 123 114 112 127 46 136 155 123 111 147 117 115 17 0 46 133 127 152 116 116 127 4 152 0 151 134 127 117 123 146 17 0 119 110 18 17 117 16 115 114 183 17 0 114 15
split_gain=615192 109762 91207.2 58133.7 10698.9 3314.49 3443.94 2550.66 1647.41 1189.18 783.259 1280.4 629.581 749.363 598.508 575.299 885.037 535.955 966.851 524.706 623.868 510.811 499.703 555.982 494.664 640.253 460.334 368.539 591.158 675.088 504.956 382.564 346.124 428.16 327.719 408.002 324.757 331.772 477.878 315.97 312.765 302.734 397.021 400.788 450.937 384.361 500.55 306.273 437.6 260.251 354.372 253.442 286.025 236.245 234.507 232.531 218.364 218.362 216.448 212.724 312.438 330.411
threshold=0.037099219291559037 44.500000000000007 1.0000000180025095e-35 1.0000000180025095e-35 1.9614779533273381 14.500000000000002 0.10134847060940218 0.05953054466182648 1.0000000180025095e-35 61.500000000000007 0.084848158978930874 22650.605000000003 1.0000000180025095e-35 1.0000000180025095e-35 83.147569777031563 40.500000000000007 1408.5000000000002 9.5000000000000018 33.500000000000007 215.50000000000003 56.500000000000007 521.50000000000011 9.5000000000000018 2870708.8473333339 8.5000000000000018 41.500000000000007 21.165393217561355 32.500000000000007 23.500000000000004 405.7050000000001 24000.400000000005 1271.5000000000002 4.5000000000000009 11.500000000000002 7.5000000000000009 34.500000000000007 40.500000000000007 43.500000000000007 4223.8050000000012 25.500000000000004 426.24000000000007 0.95838826065540617 3.5000000000000004 31.500000000000004 34.500000000000007 4.5000000000000009 33.500000000000007 371.53000000000003 45991.795000000006 18.500000000000004 573.50000000000011 2670.5000000000005 311.76000000000005 8.5000000000000018 14.605000000000002 59.500000000000007 44.500000000000007 0.056882067447346842 200.92000000000004 4419.5350000000008 35.500000000000007 35.500000000000007
decision_type=2 2 2 2 10 10 2 2 10 2 2 2 2 2 10 2 2 2 2 2 2 2 2 10 2 2 10 2 2 2 8 2 2 2 10 2 2 2 2 10 8 10 2 2 2 2 2 2 8 2 2 2 2 2 2 2 2 2 2 10 2 2
left_child=12 -2 3 4 7 6 9 19 -4 -6 14 24 -1 -14 15 17 -17 59 -19 22 -21 -13 23 41 -12 -26 -23 28 39 30 31 -30 33 -11 -34 -36 -27 38 40 49 -38 51 45 47 -45 -43 53 -44 -49 50 -20 -3 -53 -47 -22 -18 -50 -37 -29 -9 61 -61
right_child=1 2 8 -5 5 -7 -8 10 -10 32 11 21 13 -15 -16 16 55 18 27 20 54 26 -24 -25 25 36 -28 58 29 -31 -32 -33 34 -35 35 57 37 -39 -40 -41 -42 42 43 44 -46 46 -48 48 56 -51 -52 52 -54 -55 -56 -57 -58 -59 -60 60 -62 -63
leaf_value=-3.7621254255164582 -1.634036826373384 -3.7051692439960879 -2.3963325589999598 -1.7785287073995191 -2.4758273011469343 -1.7945836481654043 -2.0812845998275704 -3.5902041653779784 -1.6867922617124469 -3.5142267888928043 -3.6275807334821035 -3.331299474388512 -3.610442813066101 -2.6223758070558683 -3.6083332490004909 -2.5144563038084544 -3.7472848775262828 -2.6062020323912849 -3.5954751703653209 -2.7135812410553886 -3.7508009390937036 -3.2659793551687462 -3.7593006044336348 -2.8498318160170184 -2.7960745144978825 -3.7507469547586907 -2.3896682229503616 -3.314459990135469 -2.7532847047860249 -3.7482328744780924 -3.442514330771385 -3.5720977981641528 -3.7538355104221135 -2.6977267402196228 -3.7498078723715587 -3.5954751703653209 -3.5594635111251631 -3.6467434749648242 -3.7434702238888655 -3.630376599331655 -2.6945802725802923 -3.6167054924520095 -3.6926333541437519 -3.0142839690415748 -3.6615095006584424 -3.4988870713948992 -3.7472848775262828 -3.6417749573024389 -2.7844751799199532 -3.6291150337432825 -2.7793722524251852 -3.6754644767235511 -3.1517789204838098 -2.9138046130168935 -3.287913575605379 -3.1806514446438947 -3.5643933961041663 -2.9806857060465979 -3.7544760632581391 -3.0530066387549861 -3.6712634860135691 -3.6385544899542803
leaf_weight=909.27553662657738 679.04070601891726 27.292697869241238 16.242503656074405 85.389938923064619 4.9912929255515364 11.057744601741431 11.04276132211089 17.491129279136658 216.97193874744698 3.3993660826236036 7.1041326448321369 3.9560810923576382 9.6309805475175345 1.4845732897520072 12.880141427740453 6.0140163078904134 2.7727498169988394 5.6670050658285609 2.4103458095341939 3.6931229848414651 3.937770748510955 3.3036693707108489 18.477231973782182 2.4856596812605849 8.2387905865907687 3.9144703298807171 10.830972002819179 3.7696777433156949 15.094948820769796 3.0290544219315043 5.6803120709955683 1.9909382741898287 5.7319029830396202 3.6232217289507389 3.541663631796836 2.4103458095341903 1.8045349251478846 3.9248730204999438 2.0038360022008419 11.238709433004258 4.4250070434063717 6.4983217604458359 29.70304367877543 6.0456336569040996 4.6471859980374575 3.1430614776909378 2.7727498169988385 8.0594498086720687 2.2526554949581614 3.272461298853159 3.2986792959272861 5.5559023246169073 4.2098906598985195 10.136527186259626 6.8066398184746504 3.5703766662627459 1.8744361810386179 5.7427282147109509 6.2911130301654339 8.6398877780884522 5.2529968824237576 3.5986671596765509
leaf_count=39024 1085 1143 244 350 71 16 90 694 544 127 286 132 385 11 515 96 119 100 94 68 169 104 793 50 193 168 165 124 355 130 206 76 246 65 152 94 68 159 86 454 86 260 1237 165 190 116 119 327 40 131 66 229 124 265 226 106 71 152 270 248 216 145
internal_value=-2.75781 -2.08586 -2.53339 -2.94754 -3.22138 -2.55842 -2.80834 -3.33175 -1.73036 -3.12579 -3.20064 -3.02701 -3.7574 -3.39911 -3.27615 -3.23826 -2.91146 -3.28781 -3.19814 -3.48652 -3.20656 -2.69272 -3.52045 -3.48184 -3.24514 -3.14129 -2.55122 -3.27636 -3.21683 -3.05871 -2.96905 -2.83547 -3.302 -3.01855 -3.44787 -3.30595 -3.36176 -3.24263 -3.07835 -3.44002 -2.88881 -3.50337 -3.44599 -3.52737 -3.26686 -3.27229 -3.14687 -3.60279 -3.40219 -3.23426 -3.05461 -3.62373 -3.41828 -3.02738 -3.44693 -3.40024 -3.04005 -3.12942 -3.56912 -3.45607 -3.33599 -3.20633
internal_weight=2288.64 1368.25 689.207 455.993 370.603 51.541 40.4833 319.062 233.214 29.4405 171.47 49.5064 920.391 11.1156 121.963 109.083 12.3571 96.7259 61.7432 147.592 14.4375 18.0907 133.154 114.677 31.4156 24.3115 14.1346 56.0762 46.0154 25.7953 22.7662 17.0859 24.4492 7.02259 17.4266 11.6947 16.0727 12.1583 8.23338 20.2202 6.22954 112.192 75.1331 52.5824 10.6928 22.5507 16.0523 41.8896 12.1865 8.98149 5.70903 37.0585 9.76579 13.2796 10.7444 6.34313 4.12709 8.15307 10.0608 34.9827 17.4916 12.2386
internal_count=53840 14420 13335 12547 12197 1013 997 11184 788 907 5592 1447 39420 396 4145 3630 321 3309 2006 5592 463 401 5129 4336 1046 760 269 1906 1512 767 637 431 836 192 644 398 567 399 240 745 154 4286 2790 2030 355 760 500 1675 438 291 160 1496 353 381 395 225 111 246 394 1303 609 393
is_linear=0
shrinkage=1


Tree=1
num_leaves=63
num_cat=0
split_feature=182 149 117 121 182 41 156 151 0 153 147 153 153 151 153 18 147 147 182 124 18 124 0 147 18 18 153 153 147 18 153 147 147 153 18 18 18 147 0 180 0 153 151 13 13 17 147 153 153 151 147 147 147 151 151 18 153 155 117 147 147 147
split_gain=38250.5 548.588 197.409 171.985 129.88 259.774 214.472 253.774 125.439 118.709 71.8659 94.134 99.8587 149.072 87.8413 78.8783 67.8567 134.417 66.0817 144.97 87.6962 107.293 81.3047 70.1016 64.5182 63.2745 91.0638 58.9392 51.5162 72.569 49.1028 45.6904 272.105 187.196 36.4481 33.9127 32.8268 32.025 30.792 29.0195 26.1131 25.2361 22.6517 22.075 15.5824 15.4407 12.5076 11.7662 10.7355 156.199 39.6127 98.1323 30.9029 15.6654 10.6709 20.6176 8.72175 5.61944 49.5592 5.44181 96.777 15.3348
threshold=0.0095713500641143087 2.5000000000000004 8.5000000000000018 37.500000000000007 0.097619047619047633 1.0000000180025095e-35 1.0000000180025095e-35 0.20556437625289253 -253751.82499999998 573217.3497564469 124.70910669202478 5746477.3804708105 2337054.041706366 1.0527846640963074 2837139.775172574 782.50000000000011 182.70120056006522 207.6447555843981 0.080128205128205135 8.5000000000000018 2702.5000000000005 11.500000000000002 -2711.1449999999995 6.8382234116912448 106.50000000000001 620.50000000000011 1735932.9373678111 9428693.4874941353 28.998805398669536 560.50000000000011 4485418.0168929687 36.261020141795846 26.310711329191076 832415.1997218855 1995.5000000000002 2192.5000000000005 806.50000000000011 43.797510094997286 37271.255000000012 1.0000000180025095e-35 14971.985000000002 2403714.2183696362 1.3960407309523855 48879.775000000009 791.3950000000001 414.71500000000009 84.36764398595426 7984508.4122373462 3286397.3312417059 1.5415914251783114 53.721029504081642 110.85554715390789 102.48080084441801 1.2385283351838605 0.90304329372696512 915.50000000000011 6284964.2041519945 802789.75066666689 34.500000000000007 19.202040541328895 20.343361084323821 15.630094649635101
decision_type=2 10 2 2 2 2 10 10 10 10 10 10 10 10 10 2 10 10 2 2 2 2 8 8 2 2 10 8 10 2 10 10 10 8 2 2 2 10 10 2 10 10 10 2 2 2 10 10 10 10 10 10 10 10 10 2 10 10 2 10 10 10
left_child=39 4 -3 8 5 6 7 -2 -4 38 11 12 25 54 15 46 36 -18 19 45 34 -22 -21 -23 27 26 28 -6 29 -9 48 32 59 -34 43 40 -12 -28 -10 -1 -24 -25 -32 44 -20 -11 -15 56 49 52 -50 53 -16 -52 -14 -56 -13 -36 -59 61 -61 -27
right_child=1 2 3 -5 24 -7 -8 10 9 18 16 47 13 14 30 -17 17 -19 20 22 21 23 35 41 -26 31 37 -29 -30 -31 42 -33 33 -35 57 -37 -38 -39 -40 -41 -42 -43 -44 -45 -46 -47 -48 -49 50 -51 51 -53 -54 -55 55 -57 -58 58 -60 60 -62 -63
leaf_value=-0.051096936021050213 0.44852006215269818 -0.046058335499824681 -0.040744049935839327 -0.044066012362910092 0.3152454183306434 0.3053881059608623 0.31527332338903036 0.19354909181548363 -0.042444615565573288 0.17869602680139623 -0.044371599020063573 0.26218296451308376 -0.043671454158383777 -0.044090509803903027 -0.042419619149265286 0.20758915914645484 0.38215086083206523 -0.037191554615761034 0.13386560469752457 0.29988952092680948 -0.042216276139494462 0.30945299253091968 -0.033754256431955933 -0.037947891312379266 0.3097020396822433 0.25182327307275643 0.16289347477925337 0.37835272684653365 0.24668604488636614 -0.042330374750751798 -0.035705825701116044 0.28457634551513672 0.23636657656411028 -0.047916097959735136 0.26137831541541917 -0.046320252468105949 0.16072177804513027 -0.043504729758021547 0.16384172174108252 0.081107272044956866 0.16087831564322153 0.16661227822963751 0.16152274266864156 0.23732178102819274 -0.032797029539117006 0.32193747364890313 0.06076831154976739 0.26206236526611487 0.31306310567357465 0.45164678949448495 0.10030638007432038 0.35035297879193239 0.1631269128206333 -0.039167221479081277 -0.036701367733061041 0.14477849179159571 0.40729994151278615 0.4121304258375591 0.23863328296301556 0.43696203921130428 0.24525749013142098 0.16314827577822522
leaf_weight=865.98686054348946 15.631346302106975 7.2026067376136771 3.8920270334929219 5.7298245877027503 167.46903159096837 1921.8973675146699 183.4699265640229 8.2496028151363117 4.8500348199158898 8.805143781006338 6.1882093120366317 11.656959405168893 5.7392204180359823 5.7184675261378306 5.0161594841629249 7.7604520469903937 3.8958680368959904 2.8336236756294966 2.0610577873885618 2.0982290152460337 4.5317107699811485 8.1771141961216891 2.1115406993776586 2.8407667241990575 3343.5828580707312 57.334703316912055 1.6449576076120127 110.37568485364318 32.463043905794621 4.5144268181174985 2.5115797985345116 121.31717049330473 8.693890932947399 13.671889623627065 22.585291313007474 8.512367816641925 1.6787342038005588 5.5245240740478039 1.6329418048262594 3.2888607606291762 4.0315234363079071 1.6035324223339555 1.6666925735771654 5.0530558899044991 1.9345147106796501 11.034541478380559 3.9308548849076033 31.260923037305474 23.520624775439501 2.2052576187998056 2.7337681427597982 3.0092336088418961 1.6387407407164571 3.4671960268169641 2.6779584083706141 1.8828435279428957 14.479429993778465 19.932643620297313 12.67593611218035 10.058348516002296 44.096650024875998 14.414531832560895
leaf_count=39024 48 210 124 170 98 906 380 90 156 98 192 54 205 174 181 94 48 92 60 39 136 67 81 79 5048 722 40 42 368 133 84 1023 110 504 108 295 45 186 36 113 48 40 42 11 55 29 83 184 97 44 76 58 33 122 87 42 77 156 79 93 449 272
internal_value=0.260513 0.303083 0.202665 0.216304 0.305334 0.295548 0.266752 0.247701 0.228215 0.236923 0.240032 0.243697 0.233343 0.174935 0.203274 0.0989688 0.117653 0.222962 0.248293 0.181534 0.275678 0.159168 0.0669128 0.229632 0.312244 0.246074 0.186504 0.3416 0.21225 0.112745 0.239879 0.256901 0.232468 0.0677611 0.303793 0.0162129 0.0120198 0.0173816 0.0237984 -0.0504984 0.0979181 0.0519868 0.0580015 0.174158 0.0617601 0.27023 0 0.309733 0.256242 0.164591 0.275288 0.157117 0.0222402 0.0270176 -0.00105521 0.0498827 0.354808 0.32148 0.353943 0.260923 0.288231 0.236565
internal_weight=7220.45 6351.18 141.296 134.094 6209.88 2588.46 666.558 483.088 128.364 124.472 467.457 452.86 395.463 73.479 63.179 17.4098 14.5964 6.72949 117.989 36.5933 81.3956 17.1531 16.7537 12.6214 3621.43 321.984 52.3966 277.845 45.2271 12.764 45.7693 269.587 148.27 22.3658 64.2425 14.6554 7.86694 7.16948 6.48298 869.276 6.14306 4.4443 4.17827 9.04863 3.99557 19.8397 9.64932 57.3973 41.591 8.86016 32.7308 9.2102 6.6549 6.20096 10.3 4.5608 26.1364 55.1939 32.6086 125.904 54.155 71.7492
internal_count=53840 14703 2077 1867 12626 7438 6532 6152 1697 1573 6104 5727 5412 1422 1088 351 377 140 1381 590 791 322 463 186 5188 3990 817 140 591 223 737 3173 2150 614 469 424 237 226 192 39137 129 119 126 126 115 127 257 315 611 258 353 256 214 198 334 129 131 343 235 1536 542 994
is_linear=0
shrinkage=0.05


Tree=2
num_leaves=63
num_cat=0
split_feature=180 149 46 113 111 0 41 183 181 136 113 0 117 151 111 124 0 113 113 151 18 183 151 0 0 151 151 133 151 151 133 151 151 151 124 148 46 0 18 148 18 148 181 18 151 0 18 0 181 15 0 18 0 51 148 0 151 18 151 151 151 151
split_gain=24371.8 286.978 232.665 152.154 222.503 114.812 74.4918 160.601 121.396 71.0474 79.5752 67.618 64.985 57.9181 54.5204 103.894 50.1327 73.173 125.91 42.7413 72.959 62.2662 78.5582 121.187 102.078 68.8748 52.7425 50.6379 40.3429 37.4598 35.7349 33.9377 40.4853 30.819 30.8048 64.5734 29.2511 28.9746 27.8163 34.5791 26.8196 25.8267 79.2796 25.2549 24.537 24.294 82.5333 24.0458 22.7783 21.6075 18.3742 79.4163 75.8031 18.036 38.9596 17.9699 17.8748 17.3239 16.5358 160.897 13.3004 20.0386
threshold=1.0000000180025095e-35 2.5000000000000004 56.500000000000007 78.500000000000014 65.500000000000014 22787.385000000006 1.0000000180025095e-35 0.056882067447346842 22.500000000000004 5.5000000000000009 88.500000000000014 19490.290000000005 24.500000000000004 0.20556437625289253 129.50000000000003 36.500000000000007 11427.945000000002 71.500000000000014 69.500000000000014 2.1529099251049169 892.50000000000011 0.062437850331357535 1.111712037726126 5494.6800000000012 286752.33500000002 1.3352612018796106 1.2424487299938716 11.500000000000002 1.1157544357697671 1.5963641011779912 10.500000000000002 1.2385283351838605 1.1768812922381817 1.0704522420944371 17.500000000000004 79.500000000000014 1129.5000000000002 333.20500000000004 3043.5000000000005 29.500000000000004 3222.5000000000005 31.500000000000004 13.500000000000002 106.50000000000001 0.27819698726883352 4872.0850000000009 877.50000000000011 1798.8950000000002 5.5000000000000009 8.5000000000000018 -5384.8899999999985 641.50000000000011 489.20500000000004 1.0000000180025095e-35 100.50000000000001 50623.020000000011 2.9744965148803004 1631.5000000000002 1.4212440183709718 1.5044088400523961 1.2936289020889906 1.270008071780576
decision_type=2 10 2 2 2 8 2 2 2 2 2 10 2 10 2 2 10 2 2 10 2 2 10 10 10 10 8 2 10 10 2 10 10 10 2 10 2 8 2 10 2 10 2 2 10 10 2 10 2 2 8 2 8 2 10 10 10 2 10 10 10 10
left_child=-1 6 -3 16 5 9 7 8 13 10 40 -10 -11 -2 34 -16 -4 18 -18 20 21 22 55 25 31 26 27 37 45 -27 48 32 -25 38 35 -6 -7 -24 39 44 -5 42 -15 -8 -22 46 47 -23 -30 -21 51 -50 -52 54 -54 -9 58 -46 60 -60 61 -43
right_child=1 2 3 4 14 36 43 19 11 12 -12 -13 -14 41 15 -17 17 -19 -20 49 33 28 23 24 -26 29 -28 -29 30 -31 -32 -33 -34 -35 -36 -37 -38 -39 -40 -41 -42 56 -44 -45 57 -47 -48 -49 50 -51 52 -53 53 -55 -56 -57 -58 -59 59 -61 -62 -63
leaf_value=-0.051035900672955214 0.32156553276075855 0.22694941053352202 -0.048837803255639238 -0.040651024733461993 -0.042634043035170495 -0.040825295399180984 0.25539499944646138 0.20339718283028896 -0.045392586613078434 0.15781781938691583 0.29920999873603499 0.19349371247438724 0.45684466240815641 0.20216584609663274 0.31934254549622454 -0.038984855688993472 -0.037403067230938898 -0.043576765609103535 0.39713194481402303 0.28049570124162987 0.1912604059480433 -0.045029355427825615 0.29927822766171358 -0.039501028499671076 0.2040191527554574 0.25457198892153299 -0.042609557202603246 -0.035425858953588386 0.30434149310927372 0.11670285305145378 0.20928859359643481 -0.048507647105230541 0.17498799008668831 0.31315940755672028 -0.04803664189195949 0.22481312465129136 0.16679377427360681 0.074662851947851494 0.30254120284163682 0.23959876154941018 0.15470269593336156 0.19601266520743701 -0.043000713758095777 0.23819600863226584 -0.038213451466338665 0.2042931962194878 0.19865100093537447 0.11613980229335755 0.42977691916059774 0.24095587204058613 0.14570608596815443 0.20977407587883556 0.23430790324848477 0.21917405062245493 0.312226806142052 0.32968314590993242 0.22842929366379822 0.11839407533142395 -0.0061516042101523935 0.19658851852010578 0.2283088557304073 0.10398280357775354
leaf_weight=824.71367356181145 12.378111511468886 80.948866575956345 15.923187816515567 4.0128635168075579 4.6731660626828733 4.0079319421201971 451.3893799893558 20.480783348903064 7.9906500801444036 4.1837973538786164 5.0343859437853098 3.4516600761562586 8.3074630852788669 7.8549686390906555 3.3414796125143758 3.3841425944119692 2.7826680336147529 5.2812790740281343 2.5919545460492373 111.45629698224366 6.0813500434160215 6.3756541591137665 3.5804061777889702 3.452477624639875 7.7744625639170399 30.918112656101584 4.6484395898878583 2.3892059028148651 27.315915767103434 9.1257552281022054 199.03535700961947 12.769427450373767 3.791260402649641 29.867534477263689 12.164047386497257 2.9128172006458044 1.6031979136168955 3.4858203623443833 31.67921669408679 329.67420695722103 1.7427254468202589 213.76303107850254 4.7296115569770336 5115.6614680700004 2.9381641522049904 59.566287491470575 14.626276878640054 2.3704468868672848 8.0902471616864222 246.59522405266762 29.830521794036031 16.018799556419253 93.383574726060033 132.17440601997077 37.659142976626754 8.9774692915379983 104.01328723877668 2.3263722136616707 11.420723894610999 63.166173344478011 79.032523473724723 10.030923543497918
leaf_count=39024 32 57 512 129 133 121 104 189 262 89 45 96 89 53 60 107 82 150 41 108 8 154 43 95 43 262 130 68 39 77 868 347 70 15 375 28 41 86 30 1326 32 2105 136 1722 72 248 58 42 49 453 249 96 268 710 159 31 157 46 329 569 591 130
internal_value=0.207305 0.234813 0.166752 0.105208 0.151716 0.245413 0.236252 0.22679 0.201145 0.292664 0.171847 0.036027 0.376181 0.204788 0.0440728 0.156687 0.00615638 0.0859032 0.200796 0.235509 0.229474 0.218617 0.178929 0.15002 0.0618242 0.193247 0.0887188 0.15166 0.225369 0.226883 0.231145 -0.00025636 0.0797618 0.248769 0 0.0736995 0.0339952 0.212087 0.242772 0.236337 0.0319038 0.201208 0.113275 0.239637 0.129413 0.185156 0.129798 0.00557372 0.243117 0.254025 0.236889 0.297976 0.23085 0.239892 0.258933 0.251608 0.203257 0.0380446 0.195721 0.165808 0.202502 0.192391
internal_weight=8570.95 7746.24 162.896 81.9471 55.368 28.8924 7583.34 2016.29 517.832 23.2812 10.79 11.4423 12.4913 506.389 26.4757 6.72562 26.5791 10.6559 5.37462 1498.46 1140.41 737.84 111.394 81.9354 27.7876 54.1477 14.1039 9.45543 626.447 40.0439 543.508 20.0132 7.24374 402.567 19.75 7.58598 5.61113 7.06623 372.699 341.02 5.75559 494.011 12.5846 5567.05 11.3459 82.9387 23.3724 8.7461 344.473 358.052 317.157 24.109 293.048 263.217 131.043 29.4583 481.427 5.26454 377.413 74.5869 302.826 223.794
internal_count=53840 14816 2091 2034 1249 546 12725 10899 4460 384 206 358 178 4102 703 167 785 273 123 6439 5878 4381 1441 1221 555 666 327 197 2940 339 2438 512 165 1497 536 161 162 129 1482 1452 161 4070 189 1826 126 502 254 196 1570 561 1531 145 1386 1137 427 220 3881 118 3724 898 2826 2235
is_linear=0
shrinkage=0.05


Tree=3
num_leaves=63
num_cat=0
split_feature=180 149 46 155 124 145 41 46 151 153 51 17 181 18 46 145 15 18 48 2 48 153 15 17 153 48 48 155 153 46 0 125 151 46 181 17 116 116 46 41 155 46 46 155 48 15 2 153 153 2 116 145 145 2 181 145 0 48 46 48 153 2
split_gain=17380.4 183.616 165.02 147.517 139.563 93.2202 241.572 447.791 301.62 247.538 170.813 163.476 153.729 125.543 123.335 155.144 121.679 116.99 110.695 108.331 103.997 109.774 98.3154 96.1972 95.926 95.7354 121.315 92.3501 221.951 221.125 88.378 94.5883 84.3876 81.6067 80.581 79.0789 78.9318 77.8514 74.8939 149.137 158.193 110.08 78.7225 72.914 72.2908 117.875 88.1397 87.0445 70.305 104.694 124.893 85.304 109.849 107.858 67.4396 63.0261 67.3831 59.7693 56.311 55.6457 89.5911 72.5932
threshold=1.0000000180025095e-35 2.5000000000000004 56.500000000000007 722196.46041666681 16.500000000000004 0.26591438265362449 1.0000000180025095e-35 44.500000000000007 0.20556437625289253 6284964.2041519945 1.0000000180025095e-35 80.905000000000015 17.500000000000004 692.50000000000011 540.50000000000011 0.27544779205353803 46.500000000000007 338.50000000000006 7154.5000000000009 -4411.8849999999993 2284.5000000000005 633005.42515156826 10.500000000000002 107.91000000000001 784141.18336245918 5047.5000000000009 1928.5000000000002 1146949.9584166668 3064432.311973169 844.50000000000011 22787.385000000006 14.500000000000002 2.2771345185308238 441.50000000000006 11.500000000000002 112.47500000000001 37.500000000000007 88.500000000000014 303.50000000000006 1.0000000180025095e-35 1176771.3137500002 1314.5000000000002 1346.5000000000002 475825.28850000008 5842.5000000000009 18.500000000000004 23110.340000000004 1035039.2051179887 2061411.4231687959 47601.865000000013 29.500000000000004 0.27514094320704935 0.27578316515307766 1903.4750000000001 10.500000000000002 0.27206788325340364 34034.875000000007 5137.5000000000009 466.50000000000006 7327.5000000000009 1592897.7977727309 1.0000000180025095e-35
decision_type=2 10 2 10 2 2 2 2 10 10 2 2 2 2 2 2 2 2 2 8 2 10 2 2 10 2 2 10 10 2 8 2 10 2 2 2 2 2 2 2 10 2 2 10 2 2 10 10 10 10 2 2 2 8 2 2 10 2 2 2 10 10
left_child=-1 5 -3 55 30 38 7 -7 -9 10 11 -10 13 16 17 20 25 34 -11 -15 22 -22 -16 -21 43 26 -13 59 -29 -30 31 -5 -27 -20 -12 -31 44 -26 -2 40 41 58 -43 -17 45 -19 47 -47 49 50 54 53 -53 -50 -25 -4 -57 -52 -40 61 -61 -23
right_child=1 2 3 4 -6 6 -8 8 9 18 14 12 -14 19 15 24 -18 36 33 23 21 27 -24 48 37 32 -28 28 29 35 -32 -33 -34 -35 -36 -37 -38 -39 39 -41 -42 42 -44 -45 -46 46 -48 -49 51 -51 57 52 -54 -55 -56 56 -58 -59 -60 60 -62 -63
leaf_value=-0.050977647681855247 0.19731813823262961 0.18968879711917375 -0.049753511049237253 0.26876228374850059 0.042617190505548345 0.19617090780345292 0.19794265820300336 0.36212245638835672 0.24058148764676918 0.24017107202783361 0.25956118460376892 -0.046468854197871293 -0.047473158148825294 -0.043102576116756101 0.17788550659195501 0.038842036391543024 0.3053279578106125 -0.045799422855547972 0.21076562064421159 -0.0414649878963117 -0.044455056450551679 0.32084186709929075 -0.022187250082307944 0.17681262632103495 -0.034945212797514329 -0.050721792030108175 0.17758041227392066 -0.025062283538951902 0.30498088819488101 0.21129666422228049 0.022683365587387809 0.033385858574608511 0.13397650454202831 -0.0016781245025219845 0.024754587287382408 -0.047441703079799315 -0.035434086405955627 0.18678010887933372 0.34450722468135342 0.20539960018415543 0.41687044962913816 0.24255878456215907 -0.044702975834744862 0.32838430394605955 -0.0039769957229296785 0.042018002374508173 -0.039539521701265186 0.30195114447799831 0.18412223287837073 0.32890928209122194 0.34163206302828625 0.37765163038034699 0.045317174763895629 -0.048091831153528018 -0.0049177520371099549 -0.036438712214148204 0.293479320683247 0.17275576386039057 0.23636201757937869 0.18355833696101473 0.0019202036127594386 0.18283965353173326
leaf_weight=785.36686035990715 1901.9751909337938 91.876103201881051 20.294576792046431 24.97430584020913 26.845323348417878 970.5440214946866 4281.1116028986871 14.539315141737459 46.311925368383527 73.031395172700286 9.0876373518258315 7.4557683765888241 10.604950984939931 4.8713572733104229 8.2106948401778954 5.2228907030075771 4.9557390604168168 7.4804888162761953 7.0225841142237213 3.962966062128543 6.1107397172600022 16.273138601332903 17.766924547031522 8.2762206848710793 30.32410248182714 21.66471486538649 23.978257611393929 19.428576420992613 16.567313080653552 3.1308527812361708 6.5897319838404647 5.5370621047914019 7.5048915725201359 10.2136193215847 6.1682546474039546 9.4399107843637449 32.05237059481442 3.5310831256210795 19.15126084536314 696.55564871802926 15.712081881240008 2.6955076586455089 5.9913479872047901 3.2222146093845367 21.441892046481371 4.9823594223707941 3.4036881364881983 10.876461839303373 7.9825617671012896 19.538255292922258 11.010487522929909 5.1521847043186408 4.7550664376467466 10.515287125483157 11.121889961883424 2.6151026152074328 2.1492505054920912 18.117045408114791 139.64264138415456 25.548203920945525 9.2248895261436683 41.656304219737649
leaf_count=39024 583 57 635 319 683 246 1352 57 234 516 62 162 282 112 115 108 56 186 67 89 146 130 397 110 655 483 317 421 152 49 182 111 75 200 92 228 730 41 155 219 97 37 139 19 449 95 84 117 113 155 116 31 84 240 251 82 22 169 703 323 178 498
internal_value=0.174393 0.194379 0.14253 0.0922283 0.132001 0.195443 0.191565 0.174537 0.141658 0.135989 0.122688 0.15589 0.133048 0.144493 0.0979444 0.118911 0.087907 0.0497997 0.213134 0.178517 0.139789 0.156026 0.0451138 0.189635 0.0319838 0.0653789 0.12449 0.164985 0.105278 0.190299 0.19373 0.228621 -0.000170347 0.0914152 0.172295 0.0274523 0.0246134 -0.00698063 0.203586 0.216893 0.259214 0.242008 0.0597556 0.172917 0.0645667 0.117866 0.180795 0.227921 0.199507 0.228072 0.181548 0.125464 0.237382 0.0561651 0.0772395 -0.0102448 0.136617 0.245979 0.25151 0.194754 0.136912 0.226478
internal_weight=9643.37 8858 180.881 89.0054 63.9464 8677.12 5895.39 1614.28 643.737 629.198 538.931 227.78 181.468 170.863 311.151 215.658 65.5594 95.4932 90.2676 105.303 173.358 147.38 25.9776 100.432 42.3003 60.6036 31.434 141.269 48.5667 29.1381 37.1011 30.5114 29.1696 17.2362 15.2559 12.5708 80.2373 33.8552 2781.72 879.748 183.193 167.481 8.68686 8.44511 48.1849 26.743 19.2625 15.8588 96.469 68.0639 48.5256 28.4051 9.90725 18.4978 19.3981 25.0589 4.76435 29.1275 158.794 92.7025 34.7731 57.9294
internal_count=53840 14816 2091 2034 1295 12725 10792 9440 9194 9137 8354 3079 2845 2563 5275 3460 1093 1815 783 1470 2637 2125 512 1358 823 1037 479 1979 850 429 612 430 558 267 154 277 1661 696 1933 1350 1131 1034 176 127 931 482 296 212 1269 801 646 468 115 353 361 739 104 285 858 1129 501 628
is_linear=0
shrinkage=0.05


Tree=4
num_leaves=63
num_cat=0
split_feature=180 41 46 182 145 120 151 182 155 130 46 136 117 149 16 16 4 16 46 16 3 155 118 134 126 46 110 148 18 113 130 120 48 132 132 117 129 18 46 148 155 110 3 4 129 181 124 145 129 145 46 155 134 129 145 183 4 154 155 151 148 13
split_gain=13241 157.212 303.001 365.153 240.103 161.291 165.749 159.648 179.331 150.622 148.255 155.33 165.765 141.845 125.416 117.775 113.232 109.574 109.22 107.76 100.318 100.833 91.7978 88.9546 144.385 100.479 87.889 87.315 86.1132 126.536 185.696 103.829 100.962 85.975 83.6516 83.1898 171.215 82.4574 76.1071 76.0566 74.012 87.6595 72.135 78.2151 100.742 72.615 71.5878 71.5436 133.026 107.248 125.658 71.4167 149.076 70.2552 69.8289 66.6426 63.2838 61.3531 77.2671 60.7333 60.562 60.5371
threshold=1.0000000180025095e-35 1.0000000180025095e-35 44.500000000000007 0.080128205128205135 0.26560163487226612 9.5000000000000018 1.1157544357697671 0.19375000000000003 5354376.3523333352 37.500000000000007 1042.5000000000002 8.5000000000000018 18.500000000000004 1.5000000000000002 9.3650000000000002 22.065000000000001 72.360000000000014 19.035000000000004 1346.5000000000002 5.3650000000000011 352100.84000000008 245275.24200000006 6.5000000000000009 1.5000000000000002 3.5000000000000004 1282.5000000000002 282.50000000000006 150.50000000000003 979.50000000000011 68.500000000000014 22.500000000000004 27.500000000000004 1741.5000000000002 6.5000000000000009 2.5000000000000004 23.500000000000004 21.500000000000004 3127.5000000000005 228.50000000000003 43.500000000000007 340320.54100000003 267.50000000000006 -4376.7349999999997 414.28500000000003 19.500000000000004 14.500000000000002 25.500000000000004 0.27050565195997145 11.500000000000002 0.27101646447884359 759.50000000000011 984159.41975 6.5000000000000009 7.5000000000000009 0.26548809641302329 0.065643901696253962 63071.195000000007 20069517.66 1101179.6275833335 1.2239315741006662 103.50000000000001 759.09500000000014
decision_type=2 2 2 2 2 2 10 2 10 2 2 2 2 10 2 2 2 2 2 2 2 10 2 2 2 2 2 10 2 2 2 2 2 2 2 2 2 2 2 10 10 2 2 2 2 2 2 2 2 2 2 10 2 2 2 2 2 10 10 10 10 2
left_child=-1 2 -2 5 13 6 33 8 18 10 19 12 -12 14 -5 -15 -11 22 20 -7 21 -6 26 55 25 -25 -8 -18 29 30 31 42 -30 -4 -24 60 -37 -21 -34 40 -16 -42 -26 44 -44 47 -33 48 -45 -49 57 52 -20 -52 -19 -23 -31 58 -51 -50 -14 -40
right_child=1 -3 3 4 7 9 17 -9 -10 16 11 -13 35 15 39 -17 27 54 51 37 -22 23 34 24 28 -27 -28 -29 32 56 -32 46 38 -35 -36 36 -38 -39 61 -41 41 -43 43 45 -46 -47 -48 49 59 50 53 -53 -54 -55 -56 -57 -58 -59 -60 -61 -62 -63
leaf_value=-0.050922015636967945 0.17002436479549732 0.17142582383112068 -0.048526799494666012 0.30086628714421176 -0.046510931612831999 0.21531483588537276 0.17939200692436619 0.18621430038600015 0.32210415235706175 0.29905490799415085 0.011023931591576943 -0.048192278398768773 0.12556254643346881 -0.047445352814261883 -0.045493554212528507 0.23361371874689843 0.25686294075708394 0.19914798605559347 -0.048258646666028387 -0.015235413424673706 -0.047450071074458609 0.31963836085804637 0.12333718759920032 -0.050710803617971034 0.19150470590289628 0.22988431928031444 -0.043503000159401069 -0.045087096201515804 0.0063400728763909125 -0.012766393658335691 0.24550648584738188 -0.050633376347964033 0.021502071716256097 0.15665308287556981 0.33270793064778958 -0.0045414583533236021 0.28546155254725275 0.15366559021613729 0.2373112393316136 0.20360219042571753 0.29205383999266216 0.022489984323744015 -0.05025043177784512 -0.049968833064043199 0.17747241516086187 -0.045743520376794369 0.16705033275151157 0.29984984840196488 0.20566981507037452 0.14810931832020696 0.16145989965046395 -0.049833208767321668 0.20859599136429796 -0.021691670997030264 -0.046427366119383771 0.094298685488670764 0.14794340382876853 0.024807978280686923 0.3184093238177198 0.019514890350893193 0.37681022645624629 0.1388766237091095
leaf_weight=747.86072194576263 1696.6025896891952 7002.7241324707866 14.512299722060563 35.633237041532993 7.6948887780308715 4.9740447178483 19.54279415123165 127.54674424231052 10.217727253213523 9.8948703855276126 16.086255226284266 12.623764378949998 5.1324228551238766 10.286452632397411 6.3917215876281288 4.6149535067379466 2.5131221860647184 3.3191782534122449 10.03893853351474 98.341649375855923 7.8877402879297724 10.304124280810358 8.5553339030593651 17.839873587712649 31.921217694878578 2.8405203111469737 5.1589106507599345 6.7499025259166956 8.4059129171073419 26.253362355753779 29.670170431956649 15.235717779025437 6.6272733379155389 6.6199200432747594 19.334085814654827 11.00276784040034 8.3686590138822776 6.7921364028006783 50.957225736230612 129.46757725253701 5.1591753736138326 6.3525421470403671 15.633214516565205 13.900224242359398 5.863715721294283 5.6546852383762589 3.9217494577169409 10.895614897832273 13.145695915445687 27.494298592209816 6.4555635638535049 14.988283377140759 11.007747029885648 16.842341162264347 7.9109994620084763 6.3141863867640486 6.9225052800029507 6.0347485262900582 10.308439580723642 6.7664531804621211 8.7994076199829561 31.47107657790184
leaf_count=39024 382 1860 410 158 161 48 152 507 84 42 358 353 108 290 122 62 22 37 203 2446 150 88 35 350 208 20 115 170 151 545 182 272 131 80 152 260 86 120 507 318 27 83 294 259 33 93 37 66 97 319 70 311 90 295 182 73 68 68 55 114 62 375
internal_value=0.151769 0.167319 0.156793 0.135291 0.152944 0.085376 0.142559 0.136102 0.12149 0.0593435 0.0438674 0.105045 0.14449 0.201097 0.213164 0.0485014 0.189064 0.182233 0.116091 0.00873181 0.123544 0.12708 0.21209 0.130649 0.124892 -0.00311386 0.132765 0.0533927 0.132449 0.116009 0.12971 0.110418 0.17345 0.0196962 0.275147 0.20661 0.12836 -0.00293147 0.188922 0.19004 0.0861163 0.157386 0.122722 0.105635 0.0167709 0.121572 0 0.130406 0.0665383 0.156826 0.129481 0.0314648 0.0892217 0.033408 0.0360944 0.244515 0.0239688 0.178545 0.201686 0.146609 0.299194 0.201904
internal_weight=10498.4 9750.53 2747.8 1051.2 774.968 276.233 84.9535 577.062 449.515 191.279 172.121 62.0133 49.3895 197.906 183.004 14.9014 19.1579 63.8213 439.298 110.108 403.263 395.375 52.5911 387.68 371.062 20.6804 24.7017 9.26302 350.381 252.92 219.744 190.074 97.4615 21.1322 27.8894 33.3033 19.3714 105.134 89.0556 147.371 17.9034 11.5117 170.916 138.995 21.4969 117.498 19.1575 111.843 33.8124 78.031 67.1354 36.035 21.0467 23.2979 11.2302 16.6183 33.1759 43.8375 37.8027 19.9121 13.9318 82.4283
internal_count=53840 14816 12956 12574 7336 5238 1163 6276 5769 4075 3841 1227 874 1060 708 352 234 673 5685 2614 5081 4931 454 4770 4609 370 267 192 4239 3075 2462 2280 1164 490 187 516 346 2566 1013 550 232 110 1971 1763 327 1436 309 1343 470 873 807 604 293 365 219 161 613 442 374 211 170 882
is_linear=0
shrinkage=0.05


Tree=5
num_leaves=63
num_cat=0
split_feature=180 149 182 145 41 116 182 116 155 13 13 127 155 55 115 154 123 123 23 125 116 127 155 150 154 151 3 151 152 55 155 55 116 116 182 55 182 55 151 155 123 154 13 152 154 155 115 3 152 151 127 182 116 127 151 115 154 151 127 115 3 151
split_gain=10646.7 82.2977 56.9306 53.5007 102.834 191.83 71.2561 65.4117 63.4298 47.8581 106.554 94.7076 71.2072 66.8952 99.5238 69.6772 44.6647 44.2673 67.1429 68.8097 41.8284 205.071 84.9842 81.6763 59.009 51.9802 49.3048 39.3784 55.659 148.378 51.6514 46.6649 51.4663 38.2618 37.8343 35.5298 33.6696 51.0692 95.0579 58.9216 40.967 33.245 31.0437 30.4712 28.2441 27.9206 24.4818 23.9525 20.9346 36.3722 23.8638 47.536 29.8343 53.369 70.0821 29.4886 30.5664 22.2117 27.895 20.8559 20.4685 21.451
threshold=1.0000000180025095e-35 22.500000000000004 0.06458333333333334 0.26788523534344139 1.0000000180025095e-35 20.500000000000004 0.060661764705882359 19.500000000000004 5354376.3523333352 18199.165000000005 23919.865000000002 11.500000000000002 401378.48241666675 1108.5000000000002 13.500000000000002 3670058.5550000002 4.5000000000000009 46.500000000000007 -164.22500000000011 14.500000000000002 47.500000000000007 23.500000000000004 976557.47225000022 36.223087431693997 19763794.290000003 1.2480876257606501 61781.905000000006 1.3570498818952172 57.500000000000007 1485.5000000000002 2634838.5928333341 1648.5000000000002 89.500000000000014 46.500000000000007 0.097619047619047633 446.50000000000006 0.14835164835164838 1224.5000000000002 0.80183203475846931 638982.42933196726 16.500000000000004 77015700.555000022 440.89000000000004 30.500000000000004 5866294.4800000014 969192.80666666676 21.500000000000004 11881.490000000002 28.500000000000004 1.0826316164490855 21.500000000000004 0.07417582417582419 36.500000000000007 14.500000000000002 1.4469266256548152 17.500000000000004 6701979.1700000009 1.0333017139556238 20.500000000000004 21.500000000000004 3521.2600000000007 0.16805209061536222
decision_type=2 10 2 2 2 2 2 2 10 2 2 2 10 8 2 10 2 2 8 2 2 2 10 10 10 10 2 10 10 10 10 10 2 2 2 10 2 10 10 10 2 10 2 10 10 10 2 2 10 10 2 2 2 2 10 2 10 10 2 2 2 8
left_child=-1 3 -3 -2 5 6 -5 9 20 11 -11 13 -12 15 43 47 -13 18 -4 33 21 36 23 -23 26 -26 -24 28 29 -22 31 32 -29 -20 44 -10 37 48 -39 46 -38 -32 45 -15 -17 -25 -40 -8 50 57 52 -52 53 -7 55 56 -55 58 60 -18 61 -50
right_child=1 2 17 4 -6 8 7 -9 35 10 12 16 -14 14 -16 34 59 -19 19 -21 27 22 24 42 25 -27 -28 30 -30 -31 41 -33 -34 -35 -36 -37 40 38 39 -41 -42 -43 -44 -45 -46 -47 -48 -49 49 -51 51 -53 -54 54 -56 -57 -58 -59 -60 -61 -62 -63
leaf_value=-0.050869025756129366 0.15412129795026266 -0.044715939412794642 0.12959571136129572 -0.047616158544491805 0.15041750462810888 0.14160106221077093 -0.044296987480720092 -0.047438850530921575 0.24356746787338485 0.30335559987174976 0.14516176706335546 0.11827280584745586 -0.047620462178589562 -0.051225411892488797 0.1426480655334435 0.30039637909734723 -0.052057707902270489 0.19968922207626993 0.012355234795307575 -0.049905058613162641 0.13215257487088411 -0.0096413922224944121 -0.052458058675450496 0.0040230274212891938 -0.045620827905133624 0.11375663498609123 0.094689751956134161 0.15262494387301845 0.1816775228231845 -0.049210296416990623 0.03039669385905916 0.23050613717971899 0.24634231730342862 0.16698329394292591 0.11394047221365505 0.15570546573155583 0.14809618102640001 0.17629171852943534 0.030384147911188465 -0.050210874980381771 0.2222611260083284 0.13118041491564053 0.16097225670071016 0.1110303380028201 0.15034212863920646 0.1324875302414017 0.19488000997472438 0.1195923867921288 0.13003122119095706 0.24159729570402833 0.12084249799221314 -0.045784632538271884 0.16887625012025653 -0.039571444790354127 0.11565395640744802 -0.050043724621924336 0.14295876038246613 0.071564638389596855 0.22395436327704871 0.070861803001916968 0.15173347451350849 0.012393723524380592
leaf_weight=713.68223747238517 4152.3956707250327 5.7793153617531052 48.384805113077164 9.404574014246462 4073.3062311634421 112.417479775846 5.8846574574708921 7.5972540564835063 24.436777472496033 7.8704399242997196 15.051069512963297 5.3314465116709497 6.2017548270523539 16.42930770106614 15.129850862547753 7.9353816136717823 18.911715401336554 11.899271894246338 7.3989782165735987 13.216284489259122 319.35731543041766 11.792464541271327 25.54172078892589 8.421920111402871 6.0149203520268228 20.943039996549487 6.2646049149334422 234.36412677168846 59.202990273013711 11.164680873975156 11.609739558771251 32.81269832700491 18.194303143769503 8.3914410360157472 21.088739402592182 44.774868711829185 126.81288404762745 12.949891852214931 5.8217544071376341 14.594389837235211 28.108926504850388 36.068182641640306 35.88152014836669 2.4892438761889926 12.087551970034836 7.8071115128695956 3.3700374998152256 2.296310992911458 7.8896920997649405 13.347958980128167 11.369218988344075 5.8315329290926448 51.203941863030195 3.2624160423874882 42.643452804535627 11.147873714566229 4.5311333853751421 12.095604697242377 14.358567874878643 3.2376762498170129 60.218252642080188 7.4640493653714666
leaf_count=39110 3714 172 310 232 1205 371 138 143 55 43 91 72 103 312 80 42 338 74 118 317 1595 207 474 126 117 141 73 653 78 224 173 53 76 53 73 75 277 80 110 297 33 49 113 58 62 6 29 34 9 24 56 111 166 69 184 221 62 101 100 23 173 136
internal_value=0.135604 0.148994 0.100346 0.149453 0.146021 0.134886 0.0813915 0.0899135 0.140558 0.0976891 0.155294 0.081253 0.0890696 0.107519 0.0512286 0.14451 0.000441316 0.110182 0.0939844 0.0320769 0.137975 0.128065 0.0686924 0.108212 0.0245414 0.0776573 -0.0213204 0.146994 0.134813 0.125881 0.160787 0.169203 0.160341 0.0998775 0.170465 0.189826 0.141162 0.132214 0.0726135 0.0111311 0.162924 0.107871 0.134656 -0.0251229 0.221509 0.070215 0.104389 0.00917595 0.1381 0.158265 0.127871 0.0646648 0.132369 0.120694 0.080797 0.000207065 0.0701712 0.145075 0.154011 -0.0315891 0.137905 0.0774036
internal_weight=10655.5 9941.81 95.0701 9846.74 5694.35 1621.04 156.947 147.542 1464.09 139.945 29.1233 110.822 21.2528 83.341 34.0484 49.2926 27.4808 89.2908 77.3915 29.0067 1394.88 672.106 122.667 63.903 58.7643 26.958 31.8063 722.774 389.725 330.522 333.049 285.371 252.558 15.7904 41.1117 69.2116 549.439 394.517 36.7361 23.7862 154.922 47.6779 52.1106 18.9186 20.0229 16.229 9.19179 8.18097 357.781 115.374 242.407 17.2008 225.206 174.002 61.5849 18.9414 7.79355 102.026 89.9306 22.1494 75.572 15.3537
internal_count=53814 14704 1044 13660 9946 8741 1844 1612 6897 1469 237 1232 194 799 450 349 433 872 798 488 6767 3866 1257 452 805 258 547 2901 1897 1819 1004 782 729 171 177 130 2609 2299 516 436 310 222 245 370 104 132 139 172 1783 543 1240 167 1073 907 536 352 131 519 418 361 318 145
is_linear=0
shrinkage=0.05


Tree=6
num_leaves=63
num_cat=0
split_feature=180 46 41 182 155 55 51 133 155 116 121 182 141 18 123 113 123 130 155 17 55 111 155 114 114 55 133 126 123 3 121 4 123 123 55 121 132 24 24 55 140 24 127 124 128 123 18 128 130 120 4 116 130 55 182 4 3 18 155 128 118 114
split_gain=8723.86 71.4834 223.925 237.075 140.485 155.225 193.653 188.315 141.191 138.9 125.837 162.419 150.763 121.546 117.481 106.403 127.995 90.6528 124.361 104.607 87.3237 80.9452 97.4865 170.952 107.274 102.139 80.6419 79.6936 224.459 119.235 109.931 89.9488 87.5324 92.2467 83.6887 76.8898 72.2162 71.5724 91.7721 119.485 73.2205 87.2085 85.6451 91.2939 71.1745 87.9257 81.5528 70.9657 120.896 99.504 78.5717 67.0597 66.4668 65.2822 81.2065 65.2434 82.3562 80.6099 89.2329 65.1047 63.3661 60.8591
threshold=1.0000000180025095e-35 44.500000000000007 1.0000000180025095e-35 0.080128205128205135 5354376.3523333352 1613.5000000000002 1.0000000180025095e-35 11.500000000000002 2057640.8810000001 34.500000000000007 4.5000000000000009 0.16025641025641027 2.5000000000000004 1850.5000000000002 8.5000000000000018 63.500000000000007 9.5000000000000018 7.5000000000000009 853771.33812295098 360.55500000000006 1673.5000000000002 6.5000000000000009 1498753.9940833335 66.500000000000014 109.50000000000001 754.50000000000011 9.5000000000000018 4.5000000000000009 9.5000000000000018 3968.7750000000001 7.5000000000000009 543.09000000000003 3.5000000000000004 23.500000000000004 937.50000000000011 29.500000000000004 1.5000000000000002 0.71482690247404101 0.82037293465944827 1093.5000000000002 1.5000000000000002 1.2725407627325349 42.500000000000007 24.500000000000004 4.5000000000000009 13.500000000000002 42.500000000000007 13.500000000000002 37.500000000000007 33.500000000000007 72.360000000000014 108.50000000000001 8.5000000000000018 470.50000000000006 0.097619047619047633 2312.2000000000003 12752.730000000001 806.50000000000011 368530.23275000002 7.5000000000000009 41.500000000000007 52.500000000000007
decision_type=2 2 2 2 10 10 2 2 10 2 2 2 2 2 2 2 2 2 10 2 10 2 10 2 2 8 2 2 2 2 2 2 2 2 10 2 2 8 10 8 2 10 2 2 2 2 2 2 2 2 2 2 2 8 2 2 2 2 10 2 2 2
left_child=-1 -2 3 21 5 6 7 9 52 17 -8 14 44 15 26 16 36 55 61 -20 -15 -3 27 -24 -25 -26 -12 28 30 -30 -23 -29 -33 -34 -32 -10 -7 -16 53 -40 41 -41 -42 -44 -13 46 -46 -27 49 -49 -50 -37 -9 -39 -55 57 -57 -5 -59 -11 -52 -19
right_child=1 2 -4 4 -6 13 10 8 35 59 11 12 -14 20 37 -17 -18 18 19 -21 -22 22 23 24 25 47 -28 31 29 -31 34 32 33 -35 -36 51 -38 38 39 40 42 -43 43 -45 45 -47 -48 48 50 -51 60 -53 -54 54 -56 56 -58 58 -60 -61 -62 -63
leaf_value=-0.050818175126098632 0.13751278990481217 0.19443727437168556 0.13591529465267532 0.14217990095861649 0.26100203046799392 0.14007475154246771 0.14492319798795841 0.15971937898831381 0.20692440692860692 0.25894036988220098 -0.051958171275435595 0.25654067884312548 0 0.4375740640768877 -0.024838383522162409 -0.0030767889867728787 0.20776666951370559 -0.052317196702091152 0.012422883697295052 0.25181956365689451 0.153129227244585 -0.021278006270356923 0.28205195859591309 -0.048848591670384758 -0.012990540584238573 0.31207616631189478 0.16227956792028858 -0.051073026264338045 0.32802836195792962 0.036709333404494171 0.012485825710565224 0.24058484092787827 0.016273947940257556 0.16306356315919424 0.24033691679328284 -0.048790038576048529 -0.048356016250290207 0.00063125975799583625 -0.010957279178340815 0.038444478697124349 0.0051163445599164753 0.2273126278866521 0.23203682983344975 0.0089374790578802942 0.15632085092115197 0.16963792058875568 -0.051651234832373653 0.18165472306520786 0.27458164149054781 -0.048986563193300671 0.2147149991450979 0.13656852047969747 -0.036324529231310049 0.027204935563149242 0.17502076528313593 -0.0096592111695597074 0.14143189027947101 0.14306497842180974 0.37245115969334536 0.16904424147960265 -0.043242237927563959 0.097423768351656836
leaf_weight=679.53864699229598 6287.2107033953071 11.894922547042368 3028.4672630988061 45.835820177569985 17.800989791750908 9.9846868421882409 81.122635057196021 4.0381074082106343 17.132656631991267 39.235581194981933 34.608808003365993 15.826447803527115 17.899548506364226 6.8789464104920608 18.338691160082817 9.5809392631053907 59.927945395931602 18.651945428922776 7.4574154801666763 11.417015628889201 6.7243139017373323 31.440838458016515 11.501257115975021 12.841821901500223 13.380823927000163 4.8486776612699023 4.0220174752175799 30.567247103899717 11.40276154689491 5.3422028776258221 7.5927172135561696 4.4703175947070113 89.540244672447443 11.226706378161905 8.0032581966370326 7.9576088804751661 8.6912546884268504 9.2465510088950378 47.609914200380445 10.500331193208696 34.133839039131999 15.712395375594495 9.9429207183420676 8.1187719311565143 7.001026630401614 43.503009384498 10.585957884788511 5.8250301014632013 12.128905117511751 13.916666327044366 3.0374459791928512 10.070706618949769 29.466676453128457 12.281396714970468 44.749972224235535 11.971382740885018 33.440786503255367 10.288747213780882 10.128467658534644 68.539068289101124 5.1020703706890345 9.3635783530771715
leaf_count=39110 1018 40 1190 146 98 16 393 24 61 109 671 92 195 31 293 121 228 298 106 30 70 613 69 308 305 67 40 721 102 101 142 50 1846 152 78 140 146 128 726 125 462 106 48 143 1 140 131 84 28 340 15 100 454 191 311 184 206 54 79 326 120 92
internal_value=0.122727 0.133974 0.128648 0.109793 0.122834 0.119675 0.111589 0.140216 0.0649523 0.159286 0.088748 0.0751077 0.130667 0.178345 0.0535163 0.153516 0.172464 0.127844 0.0672048 0.162868 0.317425 0.0704787 0.0645673 0.110135 0.0787212 0.107284 -0.0259949 0.045233 0.0909531 0.242676 0.0329086 0.0232157 0.0451184 0.0341189 0.137148 0.133485 0.0541294 0.0681764 0.0771554 0.0513615 0.0889263 0.156032 0.0528318 0.137745 0.160728 0.132094 0.0348254 0.142771 0.115022 0.0243029 0.197852 0.056225 -0.00860763 0.124632 0.144293 0.15244 0.102144 0.184809 0.269168 0.203897 0.0654338 -0.000464435
internal_weight=11169.1 10489.5 4202.32 1173.85 879.789 861.988 760.2 334.996 68.6658 266.33 425.204 344.082 94.816 101.788 249.266 88.1848 78.6039 158.555 46.89 18.8744 13.6033 294.064 282.169 82.5827 71.0814 58.2396 38.6308 199.586 63.7818 16.745 47.0368 135.805 105.237 100.767 15.596 35.161 18.6759 210.635 192.296 126.018 78.4083 26.2127 52.1955 18.0617 76.9164 61.09 17.587 44.8588 40.0101 19.7417 20.2684 18.0283 33.5048 66.2779 57.0314 111.665 45.4122 66.253 20.4172 107.775 8.13952 28.0155
internal_count=53814 14704 13686 12496 7315 7217 6605 2409 779 1630 4196 3803 559 612 3244 511 390 1195 526 136 101 5181 5141 1336 1267 959 711 3805 1036 203 833 2769 2048 1998 220 301 162 2533 2240 1610 884 231 653 191 364 272 132 654 587 424 163 240 478 630 502 669 390 279 133 435 135 390
is_linear=0
shrinkage=0.05


Tree=7
num_leaves=63
num_cat=0
split_feature=180 46 41 182 141 155 116 148 147 148 113 138 134 122 155 120 112 4 109 114 122 148 118 155 1 148 18 125 48 54 55 144 155 18 130 134 0 48 155 148 127 135 55 48 51 109 116 134 23 125 17 130 116 18 149 46 55 155 55 182 55 126
split_gain=7318.42 93.3728 250.999 179.811 95.1552 138.419 134.039 143.128 120.047 139.228 117.709 94.5735 92.9534 149.489 136.816 119.742 131.806 94.4247 94.1153 118.304 140.734 110.763 93.2788 89.7635 96.6098 87.599 86.3095 83.0009 119.038 77.5621 90.0429 94.2665 158.018 91.6517 84.638 77.0519 76.8461 87.5513 80.5704 73.1544 87.6303 86.5667 75.1481 82.8717 70.4606 111.671 94.0588 83.533 79.4979 77.4231 90.2503 70.1002 67.1524 67.1356 78.7788 70.1208 85.301 66.0185 64.8985 71.9897 59.8607 58.8049
threshold=1.0000000180025095e-35 44.500000000000007 1.0000000180025095e-35 0.080128205128205135 2.5000000000000004 4028714.8561270498 22.500000000000004 45.500000000000007 26.604569285247489 73.500000000000014 47.500000000000007 1.0000000180025095e-35 4.5000000000000009 30.500000000000004 3393678.9919166672 33.500000000000007 233.50000000000003 10855.920000000002 637.50000000000011 35.500000000000007 9.5000000000000018 45.500000000000007 12.500000000000002 2490929.447083334 1.0000000180025095e-35 38.500000000000007 3175.5000000000005 4.5000000000000009 6148.5000000000009 2438.5000000000005 991.50000000000011 702.50000000000011 795989.8363333334 2598.5000000000005 20.500000000000004 1.5000000000000002 18541.080000000005 1155.5000000000002 470428.97941666673 262.50000000000006 55.500000000000007 14.500000000000002 1613.5000000000002 6629.5000000000009 1.0000000180025095e-35 839.50000000000011 34.500000000000007 9.5000000000000018 -959.74499999999978 13.500000000000002 200.92000000000004 3.5000000000000004 34.500000000000007 909.50000000000011 11.500000000000002 1054.5000000000002 16.500000000000004 512286.70350000012 1318.5000000000002 0.13809523809523813 598.50000000000011 31.500000000000004
decision_type=2 2 2 2 2 8 2 10 10 10 2 2 2 2 10 2 2 2 2 2 2 8 2 10 2 10 2 2 2 2 8 2 10 2 2 2 10 2 10 10 2 2 10 2 2 2 2 2 8 2 2 2 2 2 10 2 10 10 8 2 10 2
left_child=-1 -2 3 11 5 6 8 27 9 26 -9 -3 18 14 29 17 -17 -15 19 20 25 -22 -20 -18 -25 -13 36 -8 -29 30 31 32 -14 -32 -33 -10 37 -5 -39 42 41 -41 51 -44 49 -46 -47 -48 -49 52 -51 -6 -12 58 55 56 -55 -40 59 -53 -27 -42
right_child=1 2 -4 4 39 -7 7 10 35 -11 44 12 13 15 -16 16 23 -19 22 -21 21 -23 -24 24 -26 60 -28 28 -30 -31 33 34 -34 -35 -36 -37 -38 38 57 40 61 -43 43 -45 45 46 47 48 -50 50 -52 53 -54 54 -56 -57 -58 -59 -60 -61 -62 -63
leaf_value=-0.050769511712196007 0.12615845849448501 -0.030149756912584882 0.12401080159259488 0.1235554342461091 0.2181436530689892 0.27119482304384218 0.3561011435293896 0.1403989435810207 0.11587130488677677 0.19983510642930824 0.075590991311608596 -0.047462060535397421 0.040043384345173169 0.1062872468040934 0.22995911406137567 -0.049336261784075908 0.22968805377401602 0.36560988135215627 0.35125899542027672 -0.023177923254743334 0.41163611906827308 0.096906540668897104 0.08255930313731058 -0.048251061376299205 0.17036732487799203 0.0020622302298673534 0.24730198952576765 -0.044199204037175505 0.23225480565061185 -0.051215716980034458 -0.039535573023491422 -0.049012359731890491 0.33979781846253215 0.14349874394436285 0.15237721011424579 -0.052869062132481062 0.11087152209591028 -0.03953228665429781 0.1859557653912336 0.099168557702624616 -0.050305830822185871 0.23981822828264254 0.017920651705017297 0.2477697782226389 -0.052169092654117503 0.18437222343309156 -0.051173777532375168 -0.048629743072446135 0.1178596161116144 0.12544557649028162 -0.05068408734888024 -0.013321510280779297 0.19973230451461152 0.23051553067626807 -0.004245350972331103 -0.0044327986533330213 0.07019499549281466 0.012359951405755618 -0.053237419335848538 0.10965507299064588 0.14828760981731473 0.096215679905599413
leaf_weight=647.00208453461528 6504.3588414900005 24.104197394102812 3149.9000387452543 19.482273787260056 4.855057341977953 13.912511853501199 9.7023383378982562 294.08291627280414 8.1935967467725259 26.421040803194046 18.834590427577496 9.9225263409316522 10.47817647457123 8.9214891176670772 6.417926423251628 14.635243823751805 12.195047173649074 6.5853202678263179 6.8495177477598173 17.622285591438413 5.8326979987323258 6.1905367635190496 6.9577694945037365 10.118205007165672 8.4274852778762561 9.2153028864413482 6.077261470258235 4.8846128117293146 13.600614516064523 36.869372982531786 42.322291001677513 14.868129320442678 7.0442195553332558 7.121828230097889 6.7798078246414653 24.606262251734734 55.002700846642256 38.769248751923442 7.7594224922359016 28.803498303517699 9.4036055225878972 19.929418936371803 6.6276536248624351 9.4372587483376247 18.252622125670314 16.834970261901617 14.234628951176999 8.3199799973517639 34.838822331279516 16.145424939692024 11.834536286070941 25.699979210272431 33.309645459055901 15.435659568756817 20.580271724611521 9.8253244720399362 19.647378323599696 15.218143083155153 27.051081297919154 20.765690255910158 29.450627870857716 19.781459707766771
leaf_count=39110 1018 505 1190 115 21 30 50 1190 40 16 119 238 176 110 25 358 36 67 67 324 49 68 107 212 74 157 74 88 90 890 980 364 45 92 84 397 379 682 48 124 149 65 80 59 277 41 224 133 303 104 194 410 151 72 346 109 165 213 428 123 153 206
internal_value=0.112545 0.122234 0.116412 0.0972848 0.108125 0.117418 0.113954 0.128074 0.078795 0.0957217 0.120939 0.0637557 0.0717979 0.0515604 0.0212546 0.115732 0.0716757 0.232195 0.113123 0.0896191 0.122339 0.269856 0.230913 0.129185 0.0544708 0.0810292 0.0750977 0.237844 0.160428 0.00880712 0.0341291 0.0897619 0.172658 -0.0107505 0.0177822 -0.00838776 0.0656331 0.0339642 0.00409824 0.0799772 0.11982 0.160454 0.0599101 0.159844 0.0871366 0.0563215 0.0834044 0.0510521 0.0852768 0.12151 0.0515981 0.0476895 0.157252 0.0401848 0.0766058 0.113052 0.145304 0.0765015 0.00708119 0.0426842 0.114494 0.0487374
internal_weight=11558.4 10911.4 4406.99 1257.09 948.162 710.318 696.406 494.876 201.53 168.73 466.688 308.93 284.826 192.785 131.902 60.8828 45.376 15.5068 92.0413 78.234 60.6117 12.0232 13.8073 30.7407 18.5457 48.5885 142.309 28.1876 18.4852 125.484 88.6145 39.1703 17.5224 49.4441 21.6479 32.7999 136.232 81.2291 61.7468 237.843 77.918 48.7329 159.925 16.0649 172.605 92.481 74.2284 57.3934 43.1588 80.1242 27.98 143.86 52.1442 139.005 65.4886 44.9084 35.083 22.9776 73.5168 46.4657 38.6659 29.1851
internal_count=53814 14704 13686 12496 7315 4958 4928 2964 1964 1527 2736 5181 4676 3513 2656 857 680 177 1163 989 665 117 174 322 286 548 1511 228 178 2631 1741 669 221 1072 448 437 1437 1058 943 2357 544 189 1813 139 1546 978 701 660 436 568 298 1674 270 1653 692 346 237 261 961 533 310 355
is_linear=0
shrinkage=0.05


Tree=8
num_leaves=63
num_cat=0
split_feature=180 151 130 181 19 145 148 24 120 43 182 154 145 17 152 182 118 118 154 182 148 23 153 154 181 118 13 2 145 154 145 54 24 148 147 145 54 124 111 154 23 148 130 151 153 24 136 145 134 145 118 111 54 3 2 23 154 133 13 17 154 54
split_gain=6248.7 63.2966 68.6094 55.3873 42.0552 76.4688 77.3033 90.2159 71.5163 61.1818 82.938 54.1187 68.9731 50.0576 46.1589 67.6891 121.137 45.4294 42.2352 86.2675 38.8016 49.5271 36.1314 35.6799 44.7289 35.6502 34.7971 46.002 39.0003 40.1776 34.7164 33.7722 33.3292 31.2106 65.4066 31.0578 34.235 30.7636 52.2215 28.489 28.2139 27.5456 126.534 126.985 42.1619 41.2194 49.7558 37.1913 67.7194 28.7557 26.1937 48.084 25.911 28.5119 56.9023 50.7807 25.5964 55.161 75.8565 66.9828 24.9068 23.4518
threshold=1.0000000180025095e-35 0.15733701518177487 17.500000000000004 14.500000000000002 1.0000000180025095e-35 0.26103771468454773 36.500000000000007 0.95033245296028157 7.5000000000000009 26.500000000000004 0.044466403162055343 16596280.955 0.26980101641787757 484.89500000000004 57.500000000000007 0.07417582417582419 11.500000000000002 32.500000000000007 5269637.6100000003 0.080128205128205135 49.500000000000007 -489.40999999999991 1649153.079066725 15261171.100000003 7.5000000000000009 11.500000000000002 2033.2650000000001 108708.06500000002 0.277815935523892 6088660.7350000003 0.27841778238831311 498.50000000000006 0.76517531541516293 108.50000000000001 25.16234295177701 0.2731322224391296 134.50000000000003 3.5000000000000004 8.5000000000000018 3931831.0450000004 1302.5300000000004 101.50000000000001 8.5000000000000018 1.3746548374056673 1360212.1328553222 1.4995617824194889 4.5000000000000009 0.27596141270448105 6.5000000000000009 0.27529268151457786 43.500000000000007 200.50000000000003 3576.5000000000005 23817.715000000004 25667.345000000005 -5905.6700000000028 13941681.480000002 11.500000000000002 65750.065000000017 79.405000000000015 38208074.265000008 3312.5000000000005
decision_type=2 8 2 2 2 2 8 8 2 10 2 10 2 2 10 2 2 2 10 2 10 8 10 10 2 2 2 10 2 10 2 2 10 10 10 2 2 2 2 10 10 10 2 10 10 8 2 2 2 2 2 2 2 2 10 10 10 2 2 2 10 2
left_child=-1 2 39 22 5 -3 7 40 37 10 30 12 18 14 15 16 26 -18 19 25 21 -21 -4 41 -25 -12 28 -28 29 -14 -8 35 33 34 -20 -13 -37 38 -9 -2 -7 42 43 47 49 -44 -47 -17 -49 -43 52 -52 53 55 -55 60 57 -46 59 -59 -33 -10
right_child=1 4 3 -5 -6 6 9 8 61 -11 11 31 13 -15 -16 23 17 -19 32 20 -22 -23 -24 24 -26 -27 27 -29 -30 -31 -32 50 -34 -35 -36 36 -38 -39 -40 -41 -42 44 45 -45 56 46 -48 48 -50 -51 51 -53 -54 54 -56 -57 -58 58 -60 -61 -62 -63
leaf_value=-0.05072289070679864 0.10631643964131783 0.12380507188651629 0.0042880735134596835 -0.046200744019831673 0.11602497574193048 -0.054280455666914751 -0.047993009198484073 0.11048330470955059 -0.051697828643942227 0.11721618413394941 -0.051479510398404288 0.11847447831270191 -0.0064349942290176255 -0.012799795286752846 0.12072814450979386 0.1248857878727212 -0.053449783368172459 0.085142303523029372 0.087335763643512976 0.090041183112603437 0.10925783609152136 -0.051231313037544794 0.11977024038709833 0.095674284815646993 -0.051152509725262731 0.062205934099601359 -0.05033641441972278 0.091252032884269751 0.1988357662127726 0.11266959916806679 0.14247180372806315 -0.050590792262558054 0.12074931884888129 0.10807034638806251 -0.05099485789729688 0.11197063911742465 0.20885244146006121 0.12355832868295802 -0.050596076705528348 -0.05150691339089869 0.096513390781883146 0.14609364326325122 -0.036403841317885065 -0.026508888534533516 0.097202563961812941 0.12220296862594292 -0.047940026944126551 -0.050544028892178849 0.1186023540625778 0.089692864281534085 -0.012600315241135113 0.095604779929742895 0.1615663814891809 0.17766887217521413 0.11293430414277156 0.10449235638145887 0.12333393525325419 0.094559190444783114 0.10422610543248462 -0.038131189871924605 0.070783518436515036 0.090800085905646491
leaf_weight=615.99977489560843 2.5487841945141581 824.42867485061288 7.9635495319962493 6.1407580468803635 6146.8540135249496 17.522326165810231 12.52362948656082 11.35351422429085 10.914821175858377 1258.3069348558784 13.774574607610704 106.05095352977514 9.3036496210843307 11.80416067689657 109.34108556620777 116.18013584055007 29.590084971860051 6.365885389968752 34.229148035869002 16.074026688933372 151.62774319946766 8.8842712622135895 51.671348091214895 9.1467417068779486 9.6557417493313533 11.92820039577782 9.1634989436715859 12.337343173101543 9.4247528575360757 26.393142582848668 1.9093883540481318 7.5436335485428554 533.57430925965309 87.686114942654967 10.497634708881376 20.230688016861677 28.73727329261601 55.304323250427842 7.6640520207583895 13.99597325734794 2.7621243875473729 75.499499008059502 27.14900984428823 17.92077461630106 186.84971864521503 10.648114979267122 6.0668635219335547 9.1251866109669209 13.65841100178659 43.131425751373172 11.965591978281735 60.598144806921482 29.38006835244596 43.408232619985938 254.56440056487918 481.48527194559574 52.189193800091743 12.61641959287226 30.294103926047683 30.535265706479549 7.3641248159110546 2.8220787532627574
leaf_count=39110 33 721 126 161 1339 315 345 36 223 310 248 244 137 167 244 384 645 60 166 51 385 133 288 9 158 124 178 28 78 130 26 119 1205 200 157 31 122 137 137 285 41 154 385 263 528 59 87 148 39 103 178 184 44 63 456 1322 124 39 45 484 49 24
internal_value=0.104254 0.11276 0.0674731 0.0901075 0.113088 0.109454 0.10659 0.0637637 0.0854989 0.107714 0.103415 0.104033 0.0983577 0.0880903 0.08949 0.0847948 0.0462497 -0.0271373 0.108578 0.0873161 0.0997081 0.0395242 0.104756 0.0907835 0.0212455 0.0014464 0.085746 0.0311306 0.110423 0.0821617 -0.0148729 0.113332 0.114889 0.0905069 0.0543542 0.136398 0.171969 0.104662 0.0460341 -0.0222347 -0.0299423 0.092808 0.0763784 0.0972503 0.100252 0.00111262 0.0609455 0.113321 0.0513696 0.126551 0.10919 0.0777653 0.111854 0.109808 0.122944 0.101682 0.0898808 0.082708 0.0449554 0.00181376 0.00973192 -0.0179091
internal_weight=11844.7 11228.7 82.3204 65.7757 11146.4 4999.51 4175.08 108.343 88.0588 4066.73 2808.43 2793.99 1742.67 874.39 862.586 753.245 102.578 35.956 868.276 202.289 176.586 24.9583 59.6349 650.667 18.8025 25.7028 66.6224 21.5008 45.1215 35.6968 14.433 1051.33 665.987 132.413 44.7268 155.019 48.968 74.3219 19.0176 16.5448 20.2845 631.864 200.748 156.885 431.116 43.864 16.715 138.964 22.7836 118.631 896.309 72.5637 823.746 794.366 297.973 496.393 312.485 260.296 73.4458 43.1517 14.9078 13.7369
internal_count=53814 14704 893 575 13811 12472 11751 913 557 10838 10528 10157 7345 4676 4509 4265 1256 705 2669 941 569 184 414 3009 167 372 551 206 345 267 371 2812 1728 523 323 397 153 310 173 318 356 2842 1365 834 1477 531 146 571 187 257 2415 362 2053 2009 519 1490 1220 1096 568 523 168 247
is_linear=0
shrinkage=0.05


Tree=9
num_leaves=63
num_cat=0
split_feature=180 46 41 182 54 51 48 111 54 127 48 54 155 141 116 126 119 136 123 138 16 54 148 116 126 16 13 137 16 16 16 46 47 125 153 135 11 48 15 46 16 16 116 116 111 111 151 18 148 47 46 13 16 48 117 137 3 54 113 13 153 116
split_gain=5406.33 141.858 304.29 126.997 101.937 86.9696 112.733 121.378 106.653 105.537 99.1374 113.799 96.4775 92.926 109.672 136.325 87.4508 92.0836 94.4346 139.418 85.6076 85.3554 77.7851 76.0312 73.087 71.6319 68.3705 66.8217 65.9175 79.5274 122.827 64.1982 62.694 78.3553 64.762 77.7996 62.0023 60.4666 59.8247 59.5675 58.47 58.3272 57.9069 50.508 50.1104 67.4747 49.1955 356.841 47.4066 47.3723 47.2025 46.5969 82.5116 44.5658 42.5465 42.3544 42.2232 46.0684 41.5635 61.0951 41.4071 44.3738
threshold=1.0000000180025095e-35 44.500000000000007 1.0000000180025095e-35 0.14835164835164838 2610.5000000000005 1.0000000180025095e-35 9989.5000000000018 30.500000000000004 498.50000000000006 17.500000000000004 7676.5000000000009 2098.5000000000005 828236.29991666682 5.5000000000000009 99.500000000000014 14.500000000000002 41.500000000000007 4.5000000000000009 12.500000000000002 3.5000000000000004 16.375000000000004 1806.5000000000002 31.500000000000004 25.500000000000004 5.5000000000000009 24.275000000000002 23359.695000000003 11.500000000000002 9.1350000000000033 11.725000000000003 16.615000000000006 209.50000000000003 23.081451060917185 9.5000000000000018 2866855.4256013636 8.5000000000000018 1.0000000180025095e-35 1563.5000000000002 29.500000000000004 862.50000000000011 10.065000000000003 6.6850000000000014 15.500000000000002 31.500000000000004 24.500000000000004 17.500000000000004 0.19392024485039963 321.50000000000006 37.500000000000007 68.806297056810422 1193.5000000000002 19081.275000000005 11.415000000000001 5265.5000000000009 13.500000000000002 5.5000000000000009 1529.0000000000002 2581.5000000000005 53.500000000000007 66.570000000000007 3248754.9580042227 36.500000000000007
decision_type=2 2 2 2 2 2 2 2 2 2 2 2 10 2 2 2 2 2 2 2 2 2 10 2 2 2 2 2 2 2 2 2 2 2 10 2 2 2 2 2 2 2 2 2 2 2 10 2 10 2 2 2 2 2 2 2 2 2 2 2 10 2
left_child=-1 -2 3 5 36 6 7 9 26 22 16 -12 25 14 15 28 17 18 21 53 -6 42 -3 54 44 55 37 32 -14 -30 -31 -26 33 -19 -34 -36 48 43 -39 -38 -40 -23 -10 -7 45 -24 47 -4 -5 -13 51 52 -18 -20 -8 -9 57 -25 -50 -60 61 -61
right_child=1 2 46 4 20 8 23 12 10 -11 11 49 13 -15 -16 -17 50 27 19 -21 -22 41 24 56 31 -27 -28 -29 29 30 -32 -33 34 -35 35 -37 39 38 40 -41 -42 -43 -44 -45 -46 -47 -48 -49 58 -51 -52 -53 -54 -55 -56 -57 -58 -59 59 60 -62 -63
leaf_value=-0.050678185512156929 0.10960223822398905 -0.015117782655378154 0.15042035253436661 0.21783165605960081 -0.054574440225110002 0.28018238780938104 -0.047013682176619963 -0.052836220995740549 -0.012659404232362989 0.240890154728719 -0.04424724792544367 0.064149110419181574 0.0020124898831012233 -0.050798262923181729 0.20534307172379462 -0.0091778112971871145 -0.047667833753271896 0.20105959489874908 0.11237915556858886 -0.048333093508511803 0.081307916874039349 0.11483195982200654 0.11806666771829209 -0.043611749815762317 0.16051217776873405 0.17426956822667636 -0.046380162826932886 0.15850032929277763 0.18764337184219806 -0.051087825483278684 0.11243336062016299 -0.050531835944896991 -0.038152786017419817 -0.043936798501811827 0.10009819260787843 -0.051109149244675703 -0.022025108204648845 0.11562486585501529 0.11162584574253689 0.099655359197753451 -0.049907030697612875 -0.021836943386939367 0.1030519217481551 0.1086281944641917 0.17336446236440137 -0.010157410723617375 0.10767562389130253 -0.01611666265211717 0.13365911185829057 -0.048747798966750508 0 0.22771104856600977 0.12104043469068802 0.22735589933582354 0.11535126954467506 0.070242006424783995 0.20103390517878725 0.17284021747813552 -0.049570322906732134 0.10923144514381707 0.14608321527017026 -0.050030744237294048
leaf_weight=586.46182036958635 6754.1968420892954 13.711044523864983 69.591426685452461 14.960297830402849 15.487374775111673 8.4764989670366049 6.4107210934162131 35.761691378429532 12.83794805780053 13.723895547911523 54.655197642743587 67.689022520557046 16.589581796899438 14.125737855210899 15.021700069308279 43.169680031016469 7.6386316530406466 7.2690101694315654 23.414556175470352 8.7151200734078866 38.86367847956717 8.3123467992991191 62.169822352007031 4.3465453926473838 3.9843400493264189 3.7581047080457202 6.687167737632989 6.4620683267712584 24.509160125628114 13.487720545381306 59.851058980450034 12.001879526302217 66.279503652825952 4.8427902329713106 22.124015150591731 12.627249728888271 13.884002773091195 61.944477302953601 8.537889691069724 32.238598916679621 12.60247467830777 47.282313451170921 59.233751330524683 12.172797987237573 35.451414797455072 11.985064310953019 3177.8831882253289 58.676970288157463 167.40216569416225 9.9455586429685336 9.5468426607549173 8.3851763643324357 60.147109728306532 17.710420832037926 8.132260585203765 7.689497832208871 39.571735857054591 3.7876111976802349 7.4211781229823819 8.4137748647481185 21.158919841051102 7.2943377252668133
leaf_count=39110 1018 252 43 67 175 62 108 627 219 60 942 751 184 244 89 632 142 39 159 156 169 77 170 75 16 35 121 52 132 223 456 190 1180 92 186 202 122 433 75 103 227 770 346 52 148 175 913 234 330 187 161 66 325 56 50 87 178 30 99 37 70 85
internal_value=0.0973137 0.10489 0.0981064 0.0784365 0.105902 0.0699816 0.0868888 0.0764455 0.0577121 0.111105 0.047965 0.0105048 0.0533783 0.0694511 0.0795555 0.0663159 0.0608356 0.0476835 0.0704461 0.128404 0.0422114 0.046959 0.0966574 0.149499 0.108923 -0.0102219 0.102299 0.0135557 0.0946708 0.110151 0.0820103 0.0081265 0.00391742 0.106839 -0.00929823 0.0451227 0.118374 0.112283 0.0911432 0.0632304 0.0172001 0.000176994 0.082481 0.188971 0.123372 0.0974169 0.106419 0.0746632 0.129247 0.0491866 0.10529 0.118265 0.10154 0.166234 0.0450372 -0.0298525 0.179662 0.0645182 0.121968 0.0756911 0.101681 0.036408
internal_weight=12048.7 11462.3 4708.06 1401.9 327.124 1074.78 449.24 386.991 625.54 153.027 515.119 132.29 233.964 186.755 172.629 157.607 382.829 297.111 177.506 49.8401 54.3511 127.666 139.304 62.2489 125.593 47.2093 110.421 119.605 114.438 97.8479 73.3388 15.9862 113.143 12.1118 101.031 34.7513 272.773 103.734 83.0848 46.1226 21.1404 55.5947 72.0717 20.6493 109.606 74.1549 3306.15 128.268 226.651 77.6346 85.7178 76.1709 67.7857 41.125 14.543 43.4512 47.7059 8.13416 211.69 44.2882 36.867 15.7081
internal_count=53814 14704 13686 12496 1257 11239 4161 3720 7078 1011 6108 1880 2709 1960 1716 1627 4228 3534 1783 371 344 1412 951 441 699 749 970 1751 995 811 679 206 1699 131 1568 388 913 849 735 225 302 847 565 114 493 345 1190 277 688 938 694 533 467 215 158 714 283 105 621 291 192 122
is_linear=0
shrinkage=0.05


Tree=10
num_leaves=63
num_cat=0
split_feature=182 46 41 182 154 110 123 112 116 116 23 116 24 46 126 148 154 122 114 46 140 46 7 17 24 152 125 23 155 144 122 24 24 112 140 140 155 121 3 116 116 120 128 23 127 13 13 24 3 154 116 137 2 13 115 154 17 17 116 13 122 147
split_gain=4864.56 125.108 280.971 128.997 82.0998 119.286 109.727 86.6329 76.9333 71.3212 94.6687 96.9263 70.2319 68.8206 110.237 89.0724 93.2631 84.3491 91.0288 85.304 67.8298 67.0713 86.3042 81.6883 89.9921 87.7193 74.231 73.7626 68.3189 66.1366 97.84 65.2733 62.2571 61.7587 91.562 61.542 81.5927 62.9617 61.0405 60.1801 58.803 61.9955 108.089 64.8533 126.499 57.367 58.0592 59.6801 64.2554 54.9109 52.3666 75.6306 56.6189 60.6049 51.6439 50.0772 47.7432 48.6171 47.6252 45.7025 72.9121 45.658
threshold=0.0095713500641143087 44.500000000000007 1.0000000180025095e-35 0.21825396825396828 38208074.265000008 381.50000000000006 13.500000000000002 47.500000000000007 18.500000000000004 17.500000000000004 -1350.1999999999996 12.500000000000002 0.70519376798455691 234.50000000000003 17.500000000000004 147.50000000000003 13941681.480000002 52.500000000000007 203.50000000000003 1225.5000000000002 1.0000000180025095e-35 1153.5000000000002 -106746.59999999999 240.68500000000003 0.97993696346046166 21.500000000000004 8.5000000000000018 -4617.9349999999995 815659.26866666682 297.50000000000006 11.500000000000002 0.66472927129351966 1.3759093158754137 50.500000000000007 1.0000000180025095e-35 1.5000000000000002 1696271.3518237707 31.500000000000004 16329.865000000002 10.500000000000002 24.500000000000004 20.500000000000004 9.5000000000000018 1624.0299999999991 21.500000000000004 35613.030000000006 26507.750000000004 0.76517531541516293 350.72500000000008 18636484.305000003 31.500000000000004 3.5000000000000004 -150367.32499999998 23359.695000000003 43.500000000000007 10535458.535000002 154.69500000000002 298.10000000000008 24.500000000000004 16550.765000000003 6.5000000000000009 74.393911627984266
decision_type=2 2 2 2 10 2 2 2 2 2 8 2 10 2 2 10 10 2 2 2 2 2 10 2 8 10 2 8 10 2 2 8 10 2 2 2 10 2 2 2 2 2 2 10 2 2 2 10 2 8 2 2 10 2 2 8 2 2 2 2 2 10
left_child=-1 -2 3 4 5 6 7 9 39 10 12 20 -3 14 31 21 61 18 19 35 32 22 26 24 28 -25 50 -27 -23 -11 -31 -10 -12 -28 -35 -18 54 -38 -39 -7 -36 43 -43 44 -42 46 47 -6 -49 -24 52 -52 -15 -54 -37 -22 -44 -58 -5 60 -14 -17
right_child=1 2 -4 58 45 8 -8 -9 13 29 11 -13 59 15 -16 16 17 -19 -20 -21 55 23 49 25 -26 27 33 -29 -30 30 -32 -33 -34 34 40 36 37 38 -40 -41 41 42 56 -45 -46 -47 -48 48 -50 -51 51 -53 53 -55 -56 -57 57 -59 -60 -61 -62 -63
leaf_value=-0.050665177872873057 0.10376782954992647 -0.04558697906995577 0.10100877156139287 0.04491967210863454 0.025220972371864093 0.13874824338687564 0.25499616614764492 0.14471697826983881 0.13377991273248929 0.12023096947614514 0.11310433131148237 -0.052702930933910132 -0.047395085201923856 0.11120896092364051 0.095347268340005176 0.023869588481880824 -0.049483285281398059 -0.05090501986312107 0.22571729929367709 -0.051354166472898137 -0.051171783151841926 0.19305262118186539 -0.053025173077231307 -0.045758356592821389 -0.027869156360125377 0.004485211083726715 0.20848030660226946 0.162637037182151 0.024260406334055077 -0.027576572125120932 0.20031393748017781 -0.04438074797775271 -0.046782563514295494 -0.050848158423507754 -0.047543405101866901 0.10274011020219304 -0.050774154069963565 -0.004713165564634165 0.1616004122627385 -0.038821903374375161 0.13111656679390005 -0.051864566589018293 -0.0091026913866098461 0.1830582925436379 -0.024447591420968303 -0.0095813336853310515 0.20104612620678863 0.18926822037977553 0.092559168533632941 0.1112980231057959 -0.04844418122168228 0.12910335091559935 -0.053105776384472184 0.077298774074693585 0.23760584207749852 0.10840393373651412 0.13486284655368294 0.048134225920534915 0.12468302674935601 0.18205286299355758 0.15292813636861607 -0.053120362140680846
leaf_weight=564.41003654524684 7093.0608525127172 5.8428324572741976 3432.5080524682999 23.199864679947495 24.222814287990332 4.5213507041335097 9.005976773798464 49.636930225417018 4.7278426755219689 92.407744027674198 38.227375598624349 30.440225293859839 7.4610128123313215 8.5771892778575403 26.397843392565846 43.526729643344879 7.7265965342521659 14.178322235122321 8.4288102146238071 13.794596886262296 19.380137041211132 11.762907741591336 23.742538562044505 5.9073276594281188 20.626519488170743 8.3372851181775314 9.0618184618651849 72.031185192987323 12.069982320070265 19.273137630894784 5.1485128328204146 50.56253588758409 6.5870550125837317 12.213266123086212 7.2417409699410191 33.703014485538006 12.958802033215759 10.029910249635579 10.964753070846198 34.258849643170834 49.008083634078503 16.372962297871709 11.12830902263522 29.283074241131544 17.242731289938092 10.518898088485001 15.691127039492129 22.370349047705531 91.37604707852006 5.4095025770366183 7.549910536035898 21.311562120914459 35.994898611679673 10.762485742568968 9.7236170265823585 5.481924306601285 42.290278995409608 28.738561334088445 154.83607414737344 20.827647345140576 9.214642593637107 32.929316116496921
leaf_count=39308 1054 103 1166 99 223 25 9 120 48 75 296 514 129 74 218 490 107 237 53 230 354 98 386 101 349 106 62 544 142 264 21 821 107 196 130 197 216 157 65 571 270 263 170 152 248 104 24 118 464 39 118 148 611 96 38 32 244 326 258 104 76 598
internal_value=0.0927015 0.0994646 0.0931872 0.074563 0.068849 0.0638117 0.0896905 0.0840663 0.0531917 0.0719717 0.0477463 0.0205172 0.108644 0.0567585 0.0131844 0.0620787 0.0336777 0.0607319 0.0758591 0.0609059 0.0528694 0.0740183 0.0618054 0.104654 0.0479171 0.132951 0.0696045 0.146549 0.11219 0.10102 0.0262599 -0.0269516 0.088986 0.0847197 0.0784966 0.0795448 0.0929593 0.0332664 0.0853172 -0.015026 0.0865812 0.0918299 0.0628277 0.120729 0.0907929 0.102101 0.109791 0.0980049 0.113106 -0.0196873 0.0290619 0.0824241 0.000171337 -0.0219949 0.137719 -0.0129619 0.0860935 0.100997 0.114626 0.133362 0.0654061 -0.00948283
internal_weight=12536.2 11971.8 4878.76 1446.25 1268.21 1104.03 318.935 309.929 785.097 260.292 143.463 100.117 43.3461 746.317 81.6882 664.629 197.964 121.508 107.33 98.9013 69.6765 466.664 335.929 130.735 44.4594 86.2758 306.777 80.3685 23.8329 116.829 24.4217 55.2904 44.8144 222.581 213.519 85.1067 77.3801 33.9535 20.9947 38.7802 201.306 194.064 98.5301 95.5339 66.2508 164.179 153.66 137.969 113.746 29.152 84.196 28.8615 55.3346 46.7574 43.4266 24.8621 82.1571 71.0288 178.036 37.5033 16.6757 76.456
internal_count=53966 14658 13604 12438 12081 11148 2204 2195 8944 2075 1715 1303 412 8348 1087 7261 2388 1300 1063 1010 789 4873 3533 1340 589 751 3108 650 240 360 285 869 403 2061 1999 780 673 438 222 596 1803 1673 1003 670 518 933 829 805 582 425 1047 266 781 707 235 386 740 570 357 309 205 1088
is_linear=0
shrinkage=0.05


Tree=11
num_leaves=63
num_cat=0
split_feature=183 46 41 145 153 136 9 183 16 112 24 139 120 46 4 44 46 46 44 151 17 120 50 24 17 122 46 151 46 48 17 54 48 111 110 137 181 137 54 151 183 138 137 145 125 183 54 181 183 145 151 18 54 44 17 151 18 147 117 138 18 46
split_gain=4258.02 144.561 296.077 149.41 111.022 99.7606 99.7145 83.1828 91.9826 68.6068 59.9251 59.0457 110.311 84.038 64.1919 128.011 102.869 170.869 102.334 70.7632 66.5449 76.7424 76.2754 92.4268 83.4857 74.4908 73.1883 68.8485 67.3349 64.0445 77.3773 62.6469 68.6676 61.733 63.6968 88.1854 57.6323 69.2599 57.4714 55.4377 54.7936 64.2227 54.271 77.7252 67.8172 67.0463 54.8263 54.1139 53.8889 53.1581 65.3821 50.3706 49.4148 48.0112 47.6459 69.6049 47.5193 387.584 46.9716 51.9875 52.3446 44.6957
threshold=0.020147010943495528 44.500000000000007 1.0000000180025095e-35 0.26137076472650489 6988757.3938614586 19.500000000000004 -109738.09999999999 0.10619116030581675 21.735000000000003 46.500000000000007 0.72403824759146485 8.5000000000000018 41.500000000000007 190.50000000000003 20914.275000000005 68.500000000000014 608.50000000000011 994.50000000000011 93.500000000000014 1.2424487299938716 142.92000000000004 24.500000000000004 1.0000000180025095e-35 0.86152477071052758 249.95000000000002 16.500000000000004 359.50000000000006 1.4004290147325216 844.50000000000011 8108.5000000000009 416.35000000000008 1476.5000000000002 9141.5000000000018 81.500000000000014 364.50000000000006 4.5000000000000009 9.5000000000000018 13.500000000000002 778.50000000000011 1.0260739872341389 0.05953054466182648 11.500000000000002 2.5000000000000004 0.27484686028404731 4.5000000000000009 0.065643901696253962 3060.5000000000005 12.500000000000002 0.074385479829692611 0.27025828601943314 1.2335726229092001 225.50000000000003 1836.5000000000002 54.500000000000007 151.21500000000003 1.4093920349021125 106.50000000000001 1.0000000180025095e-35 52.500000000000007 3.5000000000000004 61.500000000000007 1459.5000000000002
decision_type=2 2 2 2 10 2 2 2 2 2 10 2 2 2 2 10 2 2 10 10 2 2 2 10 2 2 2 10 2 2 2 2 2 2 2 2 2 2 2 10 2 2 2 2 2 2 2 2 2 2 10 2 2 8 2 10 2 10 2 2 2 2
left_child=-1 -2 3 -3 6 10 49 8 11 -9 -6 12 13 54 15 20 33 -18 19 31 25 22 23 51 -25 -15 -24 53 47 42 -31 38 -33 34 -16 -36 -13 -38 -19 -26 41 -10 43 61 -44 46 -46 -23 -47 -5 -51 -22 -42 -27 55 -8 -4 -58 59 -12 -61 -28
right_child=1 2 56 4 5 -7 7 9 40 -11 58 36 -14 14 16 -17 17 18 -20 -21 21 28 26 24 39 27 29 -29 -30 30 -32 32 -34 -35 35 -37 37 -39 -40 -41 52 -43 44 -45 45 48 -48 -49 -50 50 -52 -53 -54 -55 -56 -57 57 -59 -60 60 -62 -63
leaf_value=-0.049689191650450604 0.098370243345629438 0.10903686285859732 0.11597147357128022 0.024533223903355585 0.011200447583797464 -0.022471619366013804 -0.047373253853510634 -0.023436596918814803 -0.052087185149357985 0.092191196302418593 0.12691884743955206 0.19160253050889811 -0.038154102613443715 -0.039319716374822254 0.1692136287659898 -0.052548771666796647 -0.040204894229058361 0.054801065573267575 0.22074671806786103 -0.0078546344542218035 0.14542356383976246 0.084733202342904601 -0.026840224041376499 0.2632191478615552 0.18100401136713801 0.11097753339691539 -0.033138436017021898 0.11531118577988138 -0.052236385683975553 -0.034974494179852683 0.10390614320263525 -0.049900371152558076 0.12475250847243916 0.21250961700082771 -0.023842692554051602 0.11998258526019295 -0.049088130668837993 0.11089756486111231 0.2312113429930315 0.0017930585773305828 0.063084134947560808 0.1212098355501527 -0.046214030104556575 0.11991700151330607 0.1650192643001539 -0.049472205502705237 0.014100915136449347 -0.048051267359509826 0.09548508962797847 0.24008421459817353 0.0995715782288943 -0.048493094833907138 -0.01298340684846349 -0.051710120024377783 -0.039519946254026939 0.14546165634769523 -0.034455748290406145 0.09572378349103787 0.16686120354377496 0.10621403751578889 -0.0064293507996249569 0.11745461740022652
leaf_weight=539.94648005440831 7107.6773891896009 197.6217187140137 272.35450527817011 11.319735763594506 14.30215219222009 15.099462922662495 7.8019600696861771 13.409510947763918 45.212508767843246 169.47692657075822 68.559553895145655 13.718421084806321 33.418745502829552 35.234491970390081 21.931590560823679 28.63771073333919 34.536311263218522 8.594291655346753 12.194502053782342 21.677632668986917 4.1672261431813231 31.317479116842151 19.287804322317243 15.428146855905654 7.9194413516670492 5.198992820456624 25.569448626600209 22.831149291247129 22.395797982811928 25.638771366328001 15.102770073339341 10.412349928170444 10.235300112515686 16.408586665987968 17.20951865054667 25.631643123924732 8.623680151998995 23.540932739153504 11.800359856337307 8.5097552463412267 51.932629443705082 5.0760957002639762 5.9728686977177849 19.691727321594954 57.477518852800131 8.1089358516037482 7.0093429349362841 9.2873577475547773 22.069483976811171 13.148561367765067 27.564504968002439 8.5593076311051828 35.135817354544997 15.885895002633335 35.394013978540897 9.3422077354043704 57.718194842338562 3125.7069402933121 40.53869940713048 20.735049918293953 19.270617054775357 5.0472182482480994
leaf_count=39296 1053 685 43 118 128 165 144 108 968 475 152 74 585 563 95 493 523 85 53 293 6 201 301 68 40 20 419 88 394 382 115 169 38 80 264 162 156 139 63 108 353 32 98 172 433 107 96 193 102 73 84 149 418 270 581 44 238 882 121 13 179 16
internal_value=0.0875977 0.093748 0.0870954 0.0684059 0.0621446 0.0988965 0.0562054 0.0528095 0.0463614 0.0836047 0.11021 0.0532546 0.0495174 0.0539513 0.0591139 0.0480918 0.0833592 0.0509123 0.0929604 0.0649623 0.0554647 0.0656412 0.0777963 0.137189 0.181564 0.0141365 0.0646339 0.057057 0.0158113 0.0739556 0.0176443 0.102814 0.0382098 0.125892 0.100977 0.0628672 0.108125 0.0676661 0.163142 0.0938945 0.00863307 -0.032475 0.0889053 0.0450432 0.110124 0.12042 0.149157 0.0538169 0.0560372 0.123571 0.149739 0.020608 0.032532 -0.00816045 -0.00655368 0.0596565 0.095169 0.0933519 0.119536 0.100458 0.0529985 -0.00522497
internal_weight=12600.6 12060.7 4953 1497.22 1299.6 178.506 1121.1 1069.06 886.178 182.886 163.406 748.821 702.938 669.519 616.981 426.349 190.632 109.451 74.9144 62.7199 397.711 318.56 255.56 44.5839 31.8573 79.1505 210.976 43.916 63.0006 191.688 40.7415 41.0423 20.6477 81.1813 64.7728 42.8412 45.883 32.1646 20.3947 16.4292 137.357 50.2886 150.947 50.3084 100.638 94.6653 64.4869 40.6048 30.1784 52.0328 40.7131 12.7265 87.0684 21.0849 52.5382 17.1442 3455.78 3183.43 149.104 108.565 40.0057 30.6167
internal_count=53966 14670 13617 12454 11769 758 11011 10736 10153 583 593 8382 8013 7428 6659 4834 1825 1224 701 648 4341 3400 2612 371 216 941 2241 378 788 1940 497 355 207 601 521 426 369 295 148 148 1771 1000 1443 607 836 738 529 394 209 275 157 155 771 290 769 188 1163 1120 465 344 192 435
is_linear=0
shrinkage=0.05


Tree=12
num_leaves=63
num_cat=0
split_feature=182 46 41 182 4 3 4 113 17 134 5 48 3 123 124 17 116 155 114 115 127 15 116 17 46 183 2 127 23 127 122 148 44 151 46 134 15 17 139 3 48 151 182 50 149 51 4 182 122 17 44 13 23 3 5 15 13 54 23 116 136 119
split_gain=3824.93 160.512 318.641 99.9483 69.6073 84.9146 78.9061 76.2248 75.0117 65.6294 60.8982 60.4172 86.216 66.8668 59.927 92.7682 72.6637 69.2309 88.176 56.7421 56.588 80.1195 73.5034 54.3658 53.5348 51.3575 50.6071 46.5663 46.1069 45.5518 87.1639 110.206 45.2775 44.1427 57.7903 44.8222 48.914 45.3268 42.0767 42.0385 41.4544 40.961 37.3695 37.1425 84.4026 60.5022 67.8979 53.0246 67.2861 51.4054 52.7734 45.0491 44.7674 41.1149 48.0285 36.592 42.4353 38.3959 36.472 35.7738 33.2622 62.3702
threshold=0.0095713500641143087 44.500000000000007 1.0000000180025095e-35 0.21825396825396828 20364.440000000006 394655.18500000006 6442.3300000000008 65.500000000000014 313.64500000000004 2.5000000000000004 -642443.64999999991 2583.5000000000005 817.30500000000018 5.5000000000000009 7.5000000000000009 142.92000000000004 17.500000000000004 1227237.2058333333 71.500000000000014 50.500000000000007 22.500000000000004 43.500000000000007 24.500000000000004 64.845000000000013 1214.5000000000002 0.098748698671190641 16723.965000000004 30.500000000000004 39.175000000000047 14.500000000000002 8.5000000000000018 45.500000000000007 72.500000000000014 0.69158641898356565 874.50000000000011 21.500000000000004 35.500000000000007 82.520000000000024 2.5000000000000004 2094.8150000000005 1976.5000000000002 0.1341160778865679 0.069047619047619066 1.5000000000000002 12.500000000000002 1.0000000180025095e-35 108290.28000000001 0.087121212121212141 34.500000000000007 418.62500000000006 138.50000000000003 27217.675000000003 2564.3049999999998 133020.53500000003 -400579.19999999995 8.5000000000000018 1040.6900000000003 2409.5000000000005 9972.3450000000012 24.500000000000004 4.5000000000000009 22.500000000000004
decision_type=2 2 2 2 2 2 2 2 2 2 10 2 2 2 2 2 2 10 2 2 2 2 2 2 2 2 10 2 10 2 2 10 8 10 2 2 2 2 2 2 2 10 2 2 10 2 2 2 2 2 10 2 8 2 8 2 2 2 8 2 2 2
left_child=-1 -2 3 4 6 23 9 8 19 29 11 12 55 -13 15 -15 -17 20 38 24 22 -22 -16 -6 26 -10 -8 -12 -29 30 31 -3 -25 41 35 36 37 -35 -19 -32 -7 -20 -18 44 47 -45 51 48 49 50 -34 -47 -53 -48 -55 -11 57 -57 -54 -5 -24 -62
right_child=1 2 -4 59 5 40 7 -9 25 10 27 13 -14 14 17 16 42 18 33 -21 21 -23 60 32 -26 -27 -28 28 -30 -31 39 -33 43 34 -36 -37 -38 -39 -40 -41 -42 -43 -44 45 -46 46 53 -49 -50 -51 -52 52 58 54 -56 56 -58 -59 -60 -61 61 -63
leaf_value=-0.050583145895508635 0.093736248990914151 -0.028453430337720371 0.090361347996395669 0.037748550639464203 -0.049091149262456404 0.085877999813153805 -0.013332589587804198 -0.033443697695439631 -0.039474319425694196 0.11614671325191878 -0.038534844641754461 -0.026193840571116261 -0.040999403131988021 -0.047806824359257871 -0.0501754162789049 -1.6892498043298019e-05 0.23074028493881438 0.073201908172169386 0 0.17234598738814363 -0.053833545627601322 0.088847845223080951 0.098221844911788647 -0.01133564911594746 0.11281555272751492 0.086529087779349353 0.083069710553541634 -0.018498072486371763 0.10563538565719531 -0.0094967233980144984 0.1059305441857462 0.094435023515334129 -0.033643218760509741 0.099737134102871119 -0.018276401310219102 0.11740521342985114 0.090122307484626851 -0.05279479900665171 0.2094477117604201 0.23376523331053739 -0.052622250632784917 0.11574279226502644 0.12280719515093513 0.094053371506705369 -0.047541107719721247 -0.053227657085166726 0.1400572641526375 0.12201931674242868 0.16972875910874241 0.10711981396246764 0.13692465058714384 -0.050066180443799506 0.14968383227491699 0.13526946087338085 -0.049656728991697603 -0.034841046387070938 0.11457507125541233 0.062590832016006556 0.0045839658890224075 0.1053285983320365 -0.051790649035812646 0.091375413843197265
leaf_weight=512.04171663243324 7086.5284803397954 21.729709975421429 3462.3152336776257 24.128390217199922 7.3182648271322241 6.5003184992820051 35.527373399585485 47.427283061668277 36.306787377223372 16.634122969582677 32.360410643741488 19.238564416766167 36.215247888118029 7.8790675774216643 13.627981517463921 9.4210379812866432 11.869511961936949 10.87058166600764 9.094828858971594 10.222265603020785 33.779268650338054 12.724774854257701 47.636850191280246 12.095474448055027 23.082953136414289 9.3277621231973153 20.782277962192893 13.538354281336071 14.896228825673459 11.461137954145668 17.808046242222193 99.587792811915278 25.499193664640192 5.5238253902643946 28.118220992386341 25.568676445633173 19.521424259990454 18.260745154693723 16.570137586444616 13.472917987033723 18.356568267568946 48.018864514306188 44.378691449761391 96.050683055073023 8.7157440725713951 22.658975198864937 17.220599085092548 150.09837140329182 10.710073849186299 14.631102513521908 4.4698679018765679 8.1084746550768596 9.0954680163413304 4.6476028710603714 8.3260104339569789 23.115204270929098 10.752645175904034 16.405594823881984 7.8262687958776977 166.15263841859996 12.675813447684051 16.275320241227746
leaf_count=39308 1054 392 1166 99 110 59 462 774 564 90 480 337 539 136 248 135 80 61 153 17 547 61 269 169 153 29 131 185 100 153 107 178 440 18 431 129 119 291 67 50 281 202 260 484 179 356 79 587 86 87 22 125 38 26 130 329 4 159 90 258 190 103
internal_value=0.0831818 0.0888497 0.0819149 0.0629287 0.0580651 0.0747356 0.0501678 0.0205518 0.0396294 0.057444 0.0493008 0.0548862 0.0203427 0.0634698 0.0679406 0.108825 0.128128 0.0581657 0.0783895 0.0659769 0.0309005 -0.0136383 0.0538118 0.0802003 0.0502456 -0.0123086 0.0229882 0.0018567 0.0477422 0.0854815 0.0926629 0.0723304 0.0826938 0.0628653 0.0415373 0.0659401 0.0334772 -0.0145736 0.160122 0.166681 -0.0142892 0.0976614 0.149303 0.085659 0.0999394 0.0675796 0.0340886 0.106421 0.0625886 0.0335929 -0.0044418 -0.00326049 0.0420881 0.0914521 0.021172 0.0537339 0.0311232 0.00602732 0.0868547 0.0970275 0.0727878 0.0288891
internal_weight=12605.2 12093.2 5006.63 1544.32 1354.04 432.329 921.708 182.677 135.249 739.032 574.972 514.177 103.123 411.054 391.816 73.5483 65.6692 318.267 181.547 89.6149 136.72 46.504 90.216 407.472 79.3926 45.6345 56.3097 60.795 28.4346 164.06 152.598 121.318 400.154 154.107 96.9929 68.8747 43.306 23.7846 27.4407 31.281 24.8569 57.1137 56.2482 388.058 214.124 173.934 77.8834 205.409 55.3102 44.6002 29.9691 47.6892 25.0302 30.1942 12.9736 66.9076 50.2734 39.5208 16.9217 190.281 76.588 28.9511
internal_count=53966 14658 13604 12438 12081 3348 8733 2130 1356 6603 5723 4958 1121 3837 3500 611 475 2889 1471 763 1418 608 810 3008 746 593 593 765 285 880 727 570 2898 1343 988 557 428 309 128 157 340 355 340 2729 1401 1328 844 1222 635 549 462 609 253 235 156 582 492 488 128 357 562 293
is_linear=0
shrinkage=0.05


Tree=13
num_leaves=63
num_cat=0
split_feature=182 19 43 156 116 150 114 117 128 16 116 121 131 54 16 121 15 136 133 60 54 132 112 144 117 16 54 133 155 131 16 131 142 24 112 24 128 132 23 153 155 127 23 182 54 18 121 153 24 110 24 54 54 120 16 50 182 3 54 148 139 134
split_gain=3425.05 80.0862 83.8231 59.724 76.4353 86.2965 71.6338 54.0257 51.8628 45.1309 42.2206 67.9716 91.1417 78.4326 65.8257 58.9802 52.8061 58.5151 40.7681 56.044 38.9647 36.9895 83.6776 35.4587 27.4689 49.2058 39.1543 32.4804 31.9775 26.9785 25.6143 61.8416 47.8453 47.2349 56.6405 45.024 44.6816 42.3643 53.3062 32.6813 27.3799 24.4461 24.4351 38.1534 22.2298 26.6985 22.0472 25.482 38.7222 43.512 21.6611 22.4554 38.0892 40.4861 33.8482 36.6752 36.4581 31.2064 21.7809 62.2481 32.122 77.2755
threshold=0.0095713500641143087 1.0000000180025095e-35 14.500000000000002 1.0000000180025095e-35 24.500000000000004 26.44166666666667 46.500000000000007 4.5000000000000009 8.5000000000000018 7.535000000000001 38.500000000000007 11.500000000000002 8.5000000000000018 2879.5000000000005 14.925000000000002 22.500000000000004 33.500000000000007 6.5000000000000009 38.500000000000007 -416888.28499999997 223.50000000000003 5.5000000000000009 79.500000000000014 760.50000000000011 15.500000000000002 12.935 1029.5000000000002 7.5000000000000009 3177336.891166667 11.500000000000002 12.535000000000002 7.5000000000000009 1.0000000180025095e-35 0.87049376979757431 28.500000000000004 1.0903351492832172 4.5000000000000009 4.5000000000000009 -5368.579999999999 331056.19898005156 470428.97941666673 26.500000000000004 309.56 0.12132352941176472 2864.5000000000005 2254.5000000000005 6.5000000000000009 3099222.2438827264 1.109433953041727 272.50000000000006 1.2600363668573518 750.50000000000011 941.50000000000011 12.500000000000002 16.765000000000004 1.0000000180025095e-35 0.069047619047619066 23817.715000000004 3047.5000000000005 135.50000000000003 4.5000000000000009 29.500000000000004
decision_type=2 2 10 10 2 10 2 2 2 2 2 2 2 2 2 2 2 2 2 2 2 2 2 2 2 2 2 2 8 2 2 2 2 8 2 10 2 2 10 10 10 2 10 2 2 2 2 10 10 2 10 2 2 2 2 2 2 2 2 10 2 2
left_child=-1 2 3 4 5 7 29 9 20 -2 11 12 14 16 -8 -15 17 21 23 -20 -9 -13 -23 -12 27 28 -27 30 -26 46 33 32 36 34 -22 -34 37 38 -32 -35 -39 -7 43 -24 -41 -46 -6 48 -48 -50 51 -25 53 -53 56 -56 57 -54 59 -57 -61 -62
right_child=1 -3 -4 -5 6 41 10 8 -10 -11 18 13 -14 15 -16 -17 -18 -19 19 -21 24 22 42 50 25 26 -28 -29 -30 -31 31 -33 35 39 -36 -37 -38 40 -40 44 -42 -43 -44 -45 45 -47 47 -49 49 -51 -52 52 54 -55 55 58 -58 -59 -60 60 61 -63
